{"classes":["move:agility","move:amnesia","move:blizzard","move:bodyslam","move:clamp","move:counter","move:doubleedge","move:doublekick","move:drillpeck","move:earthquake","move:explosion","move:fireblast","move:firespin","move:hyperbeam","move:hypnosis","move:icebeam","move:lovelykiss","move:megadrain","move:nightshade","move:psychic","move:razorleaf","move:recover","move:reflect","move:rest","move:rockslide","move:seismictoss","move:selfdestruct","move:sing","move:sleeppowder","move:softboiled","move:stunspore","move:surf","move:swordsdance","move:thunderbolt","move:thunderwave","move:toxic","move:wrap","switch:alakazam","switch:chansey","switch:cloyster","switch:exeggutor","switch:gengar","switch:jolteon","switch:jynx","switch:lapras","switch:moltres","switch:rhydon","switch:slowbro","switch:snorlax","switch:starmie","switch:tauros","switch:victreebel","switch:zapdos"],"vocab":{"forced_switch=False":0,"has_boom=False":1,"has_para=True":2,"has_sleep=False":3,"has_recovery=True":4,"opponent_hp_bin=76-100":5,"active_move=thunderwave":6,"active_status=par":7,"opponent_status=par":8,"bucket=paralysis_spread":9,"active_hp_bin=76-100":10,"opponent_status=none":11,"active_status=none":12,"opponent_move=thunderwave":13,"opponent=chansey":14,"active=chansey":15,"active_move=softboiled":16,"opponent_move=icebeam":17,"active_move=bodyslam":18,"active_hp_bin=51-75":19,"active_move=icebeam":20,"active_move=rest":21,"opponent_move=softboiled":22,"player_alive=5":23,"has_recovery=False":24,"opponent_move=seismictoss":25,"player_alive=6":26,"has_sleep=True":27,"active_move=reflect":28,"active_move=thunderbolt":29,"bucket=low_hp_endgame":30,"opponent_alive=5":31,"active_move=psychic":32,"active_move=earthquake":33,"opponent_alive=6":34,"player_alive=4":35,"active_move=blizzard":36,"opponent_hp_bin=51-75":37,"opponent_move=bodyslam":38,"opponent_alive=2":39,"opponent_alive=4":40,"active=snorlax":41,"bucket=sleep_pressure":42,"player_alive=3":43,"opponent_alive=3":44,"active_move=recover":45,"active_move=seismictoss":46,"active_move=hyperbeam":47,"has_para=False":48,"active_hp_bin=26-50":49,"opponent_move=psychic":50,"has_boom=True":51,"opponent_move=blizzard":52,"opponent_hp_bin=26-50":53,"active_move=sing":54,"player_alive=2":55,"active_move=explosion":56,"opponent=alakazam":57,"opponent=starmie":58,"opponent=tauros":59,"active=tauros":60,"opponent=snorlax":61,"active=alakazam":62,"opponent_move=surf":63,"active_hp_bin=1-25":64,"opponent_move=recover":65,"opponent_move=thunderbolt":66,"active_move=surf":67,"opponent_hp_bin=1-25":68,"opponent=lapras":69,"opponent_move=earthquake":70,"active=starmie":71,"opponent_status=slp":72,"opponent_alive=1":73,"active=exeggutor":74,"active_move=sleeppowder":75,"active=cloyster":76,"active_move=clamp":77,"opponent_move=amnesia":78,"active_move=counter":79,"active_status=slp":80,"opponent=slowbro":81,"bucket=forced_switch":82,"active_status=fnt":83,"forced_switch=True":84,"active_hp_bin=0":85,"bucket=tauros_endgame":86,"opponent=exeggutor":87,"opponent=jolteon":88,"bucket=explosion_opportunity":89,"opponent=rhydon":90,"opponent_move=sleeppowder":91,"active=slowbro":92,"active_move=amnesia":93,"active_move=stunspore":94,"active=jynx":95,"active_move=lovelykiss":96,"active_move=agility":97,"player_alive=1":98,"opponent_move=doublekick":99,"active=gengar":100,"active_move=hypnosis":101,"active_move=selfdestruct":102,"active_move=megadrain":103,"active_move=toxic":104,"active=zapdos":105,"active_move=drillpeck":106,"active_move=fireblast":107,"opponent_status=frz":108,"opponent_move=hyperbeam":109,"opponent_move=fireblast":110,"opponent_move=rest":111,"opponent_status=fnt":112,"opponent_hp_bin=0":113,"active=rhydon":114,"active_move=substitute":115,"bucket=other":116,"active=jolteon":117,"active_move=doublekick":118,"active_status=frz":119,"active=moltres":120,"active_move=firespin":121,"active_move=doubleedge":122,"active_move=nightshade":123,"bucket=recovery_loop":124,"opponent_status=psn":125,"active_status=brn":126,"opponent_move=substitute":127,"active_move=rockslide":128,"active_move=tailwhip":129,"opponent_move=selfdestruct":130,"opponent_move=pinmissile":131,"opponent_status=tox":132,"opponent_move=rockslide":133,"bucket=chansey_mirror":134,"active=lapras":135,"opponent_move=explosion":136,"opponent_move=doubleedge":137,"bucket=snorlax_trade":138},"numeric_fields":["active_hp","opponent_hp","player_alive","opponent_alive","turn_index"],"weight":[[-0.07606587558984756,-0.08280590176582336,-0.016634786501526833,-0.017201704904437065,-0.8913296461105347,-0.0546574667096138,0.7974815964698792,0.2013739049434662,-3.744131088256836,0.33495938777923584,-0.19179722666740417,3.210935354232788,-0.22191093862056732,-1.7520685195922852,0.24279236793518066,-0.9203729629516602,-0.8603515625,-0.9663510322570801,-1.372562050819397,0.013669992797076702,-1.023398756980896,-0.7413820624351501,1.3672873973846436,2.4981024265289307,1.0443320274353027,-0.5411163568496704,-2.2988150119781494,-0.63340824842453,-0.6714118719100952,0.9418306946754456,0.004713232629001141,-3.3454501628875732,-0.7598929405212402,-0.6951346397399902,0.8329676389694214,-2.2580437660217285,-1.626763105392456,2.033292055130005,-2.6976735591888428,-1.189597487449646,3.30649995803833,-0.9378868341445923,-0.7346879839897156,0.05749552696943283,-1.3251323699951172,-0.9546070098876953,-0.5616452097892761,-1.9376790523529053,-0.8076649308204651,1.107522964477539,-0.6685477495193481,-0.8662545084953308,-1.556609034538269,-3.1096653938293457,-0.48234573006629944,-0.2849159240722656,-0.8043805956840515,-1.082322597503662,3.9706125259399414,1.9420806169509888,-2.49855375289917,-2.6751818656921387,-0.5275476574897766,-4.247977256774902,-1.4093804359436035,-0.5214364528656006,-0.4491855204105377,-1.4687596559524536,-0.8954491019248962,-0.5287684798240662,2.3135807514190674,-1.5632460117340088,1.7786829471588135,0.9210787415504456,-0.7770453691482544,-0.6791338324546814,-0.3729213774204254,-0.38237136602401733,7.262693405151367,-0.5337426662445068,-0.34060633182525635,-2.7362985610961914,-2.1583006381988525,-2.149806022644043,-2.1696364879608154,-2.1560089588165283,-0.6432085633277893,-2.750237226486206,0.2465270459651947,-0.267505407333374,-3.04826283454895,-0.4014202952384949,-0.999419093132019,-1.0414365530014038,-1.0285552740097046,-0.5500789880752563,-0.5431455373764038,2.2096104621887207,4.940777778625488,0.9458355903625488,-1.8467891216278076,-1.865944266319275,-1.8395540714263916,-0.4975779354572296,-0.5620681047439575,2.1853420734405518,2.2982192039489746,0.5211672186851501,-5.179806232452393,-0.3497549295425415,-5.650376319885254,-1.8766766786575317,-0.3035619854927063,-0.32131296396255493,-0.9010564684867859,-0.9809539914131165,-1.8168323040008545,-1.884718894958496,-1.8926849365234375,-2.0465900897979736,-0.02168196626007557,-0.0728180781006813,-0.7423997521400452,-0.9405737519264221,-0.6929401159286499,-1.7231429815292358,-0.634774386882782,-0.7587652802467346,-0.7623982429504395,-1.0042269229888916,-0.36886265873908997,-0.6874138712882996,-0.45254790782928467,-0.3161746561527252,-0.4265603721141815,-0.8838255405426025,-0.3628190755844116,-0.26495951414108276,-0.5843839645385742,-0.24057024717330933,-0.078632652759552,-0.554664134979248,-0.17896448075771332,-1.1885318756103516],[-0.2996273636817932,-0.12495681643486023,-1.2468130588531494,0.03787575289607048,0.1103152185678482,-0.5710865259170532,0.6863808035850525,-1.2218257188796997,1.5526254177093506,-3.390000343322754,0.14528226852416992,-4.592461109161377,-0.2975507080554962,-0.7249007225036621,0.3807087242603302,-2.5219829082489014,-2.488856315612793,2.7870688438415527,-2.660243272781372,0.021340593695640564,-2.3023195266723633,1.3745040893554688,-1.4625517129898071,1.6748601198196411,-1.0330181121826172,-3.2699179649353027,-0.5868763327598572,-1.4311985969543457,-0.512372612953186,-3.3117191791534424,0.48255354166030884,0.2976592481136322,-1.6628940105438232,-2.5736401081085205,-1.0859649181365967,-1.3900161981582642,-1.3555763959884644,0.9852015972137451,-3.2580015659332275,0.6455848217010498,6.394606113433838,-3.0884172916412354,-1.6914987564086914,-0.38793861865997314,0.25498467683792114,-2.550651788711548,-2.0873501300811768,-1.5967884063720703,1.061816692352295,1.4940879344940186,1.722430944442749,-1.4167107343673706,1.230328917503357,-2.0423433780670166,-1.1551966667175293,-0.6021504998207092,-1.4754539728164673,0.37337642908096313,2.5058345794677734,2.514127254486084,-1.0020856857299805,-9.23277759552002,-1.6611934900283813,2.4677791595458984,-3.225081443786621,0.5226739048957825,-4.57305383682251,1.770307183265686,0.2293604463338852,-3.533256769180298,2.4134809970855713,-3.5375311374664307,4.3028106689453125,-7.973024368286133,-1.212001919746399,-1.2507896423339844,-1.8505170345306396,-1.8550258874893188,0.9801839590072632,-1.3171138763427734,1.2056721448898315,0.9891462326049805,-1.793701171875,-1.8361332416534424,-1.8776909112930298,-1.8583208322525024,4.808370113372803,-1.708939790725708,-0.6239663362503052,-1.7519612312316895,-0.8083097338676453,-1.9270011186599731,2.0206263065338135,1.9658029079437256,-0.6140603423118591,-2.125361919403076,-2.116170883178711,-1.1180839538574219,0.4313608705997467,-0.6771780252456665,-0.9072902202606201,-0.8231775164604187,-0.8140102624893188,-2.132490396499634,-2.0383479595184326,-0.7865742444992065,-0.841837465763092,-1.274859070777893,-0.934868574142456,-0.6897430419921875,-1.3588385581970215,9.69648265838623,-0.37852373719215393,-0.34899118542671204,-1.4820741415023804,-1.461154818534851,-1.500948429107666,-1.945224642753601,-2.0366013050079346,-1.0655990839004517,-1.4468485116958618,-1.4724962711334229,-0.976966917514801,-1.01997709274292,5.08573579788208,-0.8154628276824951,-0.6414890885353088,-0.5816326141357422,-1.8919132947921753,-0.4204878509044647,-0.4634350538253784,-0.5048878788948059,-3.413220167160034,-0.5427692532539368,-1.0354700088500977,-0.5513446927070618,-0.35827386379241943,-0.23543520271778107,-1.9570847749710083,1.6898781061172485,2.4489874839782715,-0.4556797742843628,0.915518045425415,-5.5718536376953125],[0.5788925886154175,-0.3809441030025482,-0.6454187631607056,0.35064828395843506,0.41089528799057007,-0.2393108606338501,-0.9884570240974426,0.41089221835136414,0.13165132701396942,1.6967576742172241,1.491982102394104,-0.44395288825035095,0.6012553572654724,0.38279688358306885,0.5105516314506531,-1.184930443763733,-1.2706505060195923,1.4864002466201782,1.2929104566574097,-0.8898928165435791,-1.4635807275772095,1.1770206689834595,-1.3064500093460083,-0.589405357837677,-0.15083345770835876,-1.306130290031433,-0.45637133717536926,-0.14938004314899445,-2.4568583965301514,-0.9291015267372131,-2.341384172439575,0.4361557066440582,0.8943482041358948,-1.8078819513320923,0.02595837414264679,0.6736146807670593,2.7784781455993652,-0.040727391839027405,-1.6540241241455078,-0.7873493432998657,0.707648515701294,-2.6360056400299072,-3.0282769203186035,0.2863796055316925,0.11014630645513535,0.4205583333969116,-1.7731016874313354,-1.4220722913742065,0.672813355922699,-0.8871240019798279,1.8591350317001343,0.5145598649978638,0.6084322333335876,1.0123569965362549,-0.6975308060646057,1.203104853630066,0.7291871309280396,-1.3840488195419312,-0.7443714141845703,1.8699390888214111,2.737170457839966,1.1497523784637451,-2.5269923210144043,-0.9019003510475159,-0.7971363067626953,-5.540631294250488,-2.0309665203094482,-5.303009986877441,0.9771708250045776,-0.41807132959365845,0.9379901885986328,2.2477991580963135,-1.1173768043518066,0.6140201687812805,-1.3815162181854248,-1.3250733613967896,0.8617966175079346,0.8117607235908508,0.8043526411056519,-2.05562686920166,-1.3469953536987305,-0.6237090229988098,-1.3282500505447388,-1.3506017923355103,-1.3100550174713135,-1.3873904943466187,3.7975292205810547,-3.8013882637023926,-0.8877466320991516,0.3891570270061493,1.6290260553359985,4.8590617179870605,-1.0474568605422974,-1.0605324506759644,-1.1361939907073975,1.7715932130813599,1.7403591871261597,-1.7539818286895752,2.739886999130249,5.057687759399414,-1.8097975254058838,-1.8018834590911865,-1.876635193824768,-1.5602408647537231,3.7858548164367676,-2.0633132457733154,-1.951546311378479,-2.935914993286133,2.2827765941619873,0.9805482625961304,-3.111055850982666,2.637443780899048,-0.7223662734031677,-0.6837975382804871,-1.0316531658172607,-1.160193681716919,-3.271923542022705,-2.8035523891448975,-2.9287095069885254,-0.7726906538009644,-1.5698598623275757,-1.5277976989746094,-1.4568325281143188,-1.073927640914917,-5.372429370880127,1.8696579933166504,-0.8970239162445068,1.2504312992095947,-1.3366787433624268,-1.0108320713043213,-0.533852756023407,4.302407264709473,6.105319976806641,-5.704008102416992,-6.041372776031494,-1.6619844436645508,-0.3876591622829437,-1.0650767087936401,-1.8507390022277832,-1.4347360134124756,0.1001647412776947,-0.020464379340410233,0.23102964460849762,-0.0477609746158123],[0.3606647253036499,0.30150434374809265,0.5755663514137268,0.43668752908706665,0.3187052607536316,0.08110138028860092,-1.3823047876358032,0.07372096925973892,-0.04313022643327713,0.5751845836639404,0.5563564300537109,0.07582930475473404,0.4756031036376953,0.21278303861618042,0.4499494135379791,-1.3642228841781616,-1.3344335556030273,-0.5828733444213867,1.15143620967865,0.26987096667289734,-0.6757602691650391,0.9756008982658386,0.7847131490707397,-0.1623273342847824,0.11005255579948425,0.7913810014724731,0.0379728302359581,-0.6628581285476685,0.8802255392074585,-0.03042525053024292,-0.45183971524238586,0.0022405253257602453,-0.9820191860198975,1.0130189657211304,0.1738346368074417,0.016432123258709908,-0.5651822090148926,0.502493679523468,0.980189859867096,0.5422127842903137,-0.1389634758234024,1.2136749029159546,-0.7714788913726807,0.3473987877368927,0.7822290658950806,-1.146240234375,-1.364194393157959,0.11451905220746994,-1.0752960443496704,-0.15285445749759674,0.3139296770095825,-0.03299272060394287,0.8436344861984253,0.4307870864868164,-0.6288548707962036,1.7154523134231567,-0.8419273495674133,0.8890220522880554,1.2854540348052979,-0.402343213558197,-0.40115442872047424,0.7785406708717346,-1.0579112768173218,0.04974370822310448,0.23877492547035217,1.0281542539596558,-0.8434432744979858,-1.5795202255249023,-0.20009884238243103,-1.8599185943603516,0.6829773783683777,-1.3762884140014648,1.9081141948699951,-0.12049391120672226,-0.6886550784111023,-0.7132836580276489,-1.0163674354553223,-1.0052155256271362,0.3081226646900177,-1.0217763185501099,0.06459081918001175,0.3635059595108032,-1.3747379779815674,-1.394423246383667,-1.4987940788269043,-1.5101385116577148,1.4739795923233032,-0.9541957378387451,0.4708808958530426,-0.8341017365455627,-0.3475360870361328,1.5151662826538086,-1.7678455114364624,-1.7276169061660767,-0.7972409129142761,-0.9037631750106812,-0.8196747303009033,-1.8847630023956299,1.3540310859680176,1.2452596426010132,-0.722598135471344,-0.7677603363990784,0.8736187219619751,-0.6814188361167908,-0.41638463735580444,-1.6327261924743652,-1.5018266439437866,3.1490867137908936,0.44264161586761475,0.2737809717655182,0.39947181940078735,-0.4777606725692749,-0.646206259727478,-0.7240887880325317,0.8185778260231018,0.8209947943687439,-1.232955813407898,-2.119960308074951,-2.0346689224243164,2.4196271896362305,-2.7671048641204834,-2.6927170753479004,-0.6948719024658203,-0.6934971213340759,-1.1545426845550537,4.431251049041748,-0.910923182964325,3.6658380031585693,0.20017361640930176,1.4037169218063354,-0.7992224097251892,3.1991186141967773,2.000648021697998,2.1823625564575195,-1.2144087553024292,-1.8973569869995117,-0.5883197784423828,-0.5460232496261597,-0.8605983853340149,1.1420866250991821,-1.694881796836853,0.1450919210910797,0.11650325357913971,-3.1885359287261963],[-0.14810769259929657,-0.5704410076141357,-1.4811967611312866,0.7232346534729004,-0.8206163644790649,-1.001670002937317,-1.1851836442947388,-0.4249115288257599,-0.1820746213197708,-1.3199775218963623,-0.23613931238651276,0.1466313898563385,0.3663863241672516,0.1756606549024582,3.5279672145843506,-1.25992751121521,-1.2684910297393799,1.2921159267425537,-1.801687479019165,-0.5890882611274719,-1.2139226198196411,0.7986503839492798,0.5360352993011475,-1.1811473369598389,0.34455767273902893,-1.0535272359848022,-0.12000225484371185,-1.4035398960113525,-1.5268993377685547,-1.799448013305664,-3.7431821823120117,1.1804535388946533,-1.4020088911056519,-1.7085179090499878,-0.07851407676935196,0.7761005759239197,0.17476080358028412,0.9454801678657532,1.1844165325164795,-3.3029634952545166,1.4917428493499756,-1.5261528491973877,-1.612809419631958,0.5383223295211792,0.1397370845079422,-1.2367945909500122,-0.8085384964942932,-5.072159290313721,1.1620681285858154,1.23769211769104,0.5171229839324951,0.2780890464782715,-2.8281824588775635,-0.07207171618938446,-0.776707112789154,-0.8568710088729858,0.36546969413757324,-1.2241120338439941,-7.056491851806641,0.5332865715026855,-2.290074586868286,-1.15378737449646,-0.7614120244979858,-6.3830976486206055,-0.6119974851608276,3.4270589351654053,6.453312397003174,-2.3734633922576904,-0.5197480320930481,1.8405715227127075,2.60859751701355,-1.844404935836792,1.9427320957183838,0.7002455592155457,-1.5949965715408325,-1.592369556427002,1.3896856307983398,1.3127527236938477,1.7398022413253784,-2.0928902626037598,-1.4155418872833252,0.28636014461517334,-0.8672875761985779,-1.016338586807251,-0.9181413054466248,-0.9895018935203552,4.873910903930664,-2.261068344116211,-3.0682241916656494,0.4937816262245178,-9.413810729980469,-2.848438024520874,-2.144756317138672,-2.1671979427337646,-1.329530954360962,-1.7071094512939453,-1.7810609340667725,-1.5155036449432373,-1.1607956886291504,-1.0754203796386719,-2.011342763900757,-2.046539545059204,-1.1946722269058228,-1.5675491094589233,2.114579916000366,-1.4577713012695312,-1.530819296836853,-3.5144073963165283,5.764132499694824,-5.006763935089111,-0.8230102062225342,-5.524017333984375,-0.8190593719482422,-0.8189457654953003,-1.726462960243225,-1.7015796899795532,2.7715611457824707,-2.291748285293579,-2.294703722000122,-2.6816749572753906,-1.7365612983703613,-1.8138951063156128,-1.6381968259811401,-1.4733270406723022,-4.626441478729248,-4.543429851531982,-0.5719242691993713,7.697859764099121,-1.5355931520462036,-1.9873449802398682,-0.4124707281589508,-0.7806783318519592,-0.9452238082885742,1.3818081617355347,-4.917013168334961,-1.2476351261138916,-0.47341904044151306,-0.6128861904144287,2.357998847961426,2.7793290615081787,2.5912721157073975,-0.2108912318944931,0.15253199636936188,1.4408293962478638],[-0.1297985166311264,0.04915352538228035,0.21584706008434296,0.7049689888954163,0.15244752168655396,0.2518332004547119,0.5536242723464966,0.5271362066268921,1.0362707376480103,1.1392326354980469,0.8002153038978577,-0.8822802305221558,-1.2285609245300293,2.348499298095703,-0.050657544285058975,0.9094746708869934,0.8338092565536499,-0.5196665525436401,-0.9667335152626038,-0.4358161985874176,1.4238604307174683,-1.365388035774231,-2.605634927749634,-0.5583499670028687,-0.789267361164093,-1.138839840888977,0.2336575835943222,-2.020864248275757,-2.5233733654022217,-5.48310661315918,0.24325984716415405,-0.3259730041027069,-1.3236665725708008,-0.9862228035926819,-1.0878486633300781,-2.16774582862854,-0.9279561638832092,0.02296432852745056,-2.6539382934570312,0.35964593291282654,-1.2070413827896118,-0.9654225707054138,-2.2806291580200195,0.38487422466278076,0.9353644251823425,-1.5125691890716553,-3.1703128814697266,-1.091050386428833,-1.5169684886932373,-3.1013295650482178,0.32873398065567017,-0.41783133149147034,0.28414759039878845,-3.848180055618286,-2.510396957397461,1.3139806985855103,-0.42343994975090027,-3.243824005126953,-0.20532457530498505,4.789772987365723,-1.0612070560455322,4.342818260192871,-1.6736305952072144,1.0803714990615845,-0.3660419285297394,-1.0386466979980469,-2.2209858894348145,-2.4728922843933105,5.072021007537842,1.1594524383544922,-3.4287171363830566,-1.3336485624313354,-2.5653581619262695,-0.7436614632606506,-0.32838335633277893,-0.4022707939147949,-0.41325801610946655,-0.4555911123752594,-3.2792928218841553,3.870556592941284,-1.9514644145965576,-3.047598123550415,-0.7490989565849304,-0.6753577589988708,-0.747172474861145,-0.6891605257987976,-2.118243932723999,0.24301522970199585,-2.221219062805176,-0.35122859477996826,-0.744067907333374,7.638275146484375,-4.762037754058838,-4.750723361968994,-0.3694929778575897,-0.6166675090789795,-0.5457395911216736,-0.6574001908302307,-0.911621630191803,-2.6511104106903076,-0.3444770574569702,-0.34674033522605896,-0.8518998622894287,-0.33219823241233826,-2.6396443843841553,-0.6478065252304077,-0.5784947872161865,-1.1934845447540283,1.5214191675186157,-5.372115135192871,-1.4268022775650024,-0.4438674747943878,-0.35171079635620117,-0.4697071313858032,-0.7883681654930115,-0.8216599822044373,-0.7668960690498352,-0.6718167066574097,-0.6403578519821167,2.7135913372039795,-1.0039280652999878,-0.9776867032051086,-0.3338242471218109,-0.3823983073234558,-3.4147634506225586,-1.5879515409469604,-1.8225806951522827,-0.5621346235275269,-1.0786494016647339,-0.5701393485069275,-0.2963846027851105,-0.7154734134674072,-2.7463183403015137,-0.3548028767108917,1.417323350906372,-0.373653382062912,-0.8055317997932434,-0.41247957944869995,-0.8743225336074829,5.030679702758789,-0.9968394637107849,-0.37163084745407104,-0.30970364809036255,-4.707791805267334],[-0.2876356244087219,-0.5814146995544434,-0.8729668855667114,-0.7231863141059875,-0.6377940773963928,1.22075617313385,-0.6088511347770691,-0.20759716629981995,-0.8663367033004761,-0.396085262298584,0.32623910903930664,-3.6740756034851074,-0.3347313106060028,1.5893713235855103,-1.5263713598251343,-0.41033992171287537,-0.4911693334579468,0.8717663288116455,-0.5182317495346069,-0.7931597828865051,-0.49292951822280884,-0.7393006682395935,1.2613766193389893,1.1133229732513428,0.4452536106109619,1.3818938732147217,1.0284223556518555,0.48071542382240295,-0.5281223654747009,-1.125416874885559,1.492554783821106,-0.060399144887924194,0.39314019680023193,-0.44190219044685364,-1.3807332515716553,-1.0390965938568115,-1.0015826225280762,-3.289950132369995,-0.11022710800170898,1.831527590751648,1.3605598211288452,-0.4042949676513672,-1.1717956066131592,-3.209211587905884,-3.129936695098877,-0.8422791957855225,-0.9274678230285645,-0.5052003264427185,0.9031713008880615,-0.34999164938926697,-0.027168801054358482,0.446743369102478,-0.9370742440223694,-1.716892123222351,-0.5612342953681946,-1.3298473358154297,0.5448196530342102,-1.174826741218567,-2.093794345855713,-1.8685169219970703,-0.5009074211120605,1.833908200263977,-1.0490515232086182,1.1762850284576416,-1.6822651624679565,-0.43170973658561707,2.4520630836486816,-0.5407966375350952,-1.1785508394241333,-1.6912946701049805,-0.6054301857948303,-0.6652899384498596,6.122774600982666,-1.532997488975525,1.0493872165679932,1.0778228044509888,-1.9081943035125732,-1.9183943271636963,-2.9230916500091553,-0.33576148748397827,-0.7763882875442505,1.7423615455627441,-1.459242582321167,-1.5223628282546997,-1.4332667589187622,-1.4986047744750977,-0.7178739309310913,-0.5901362299919128,5.283303737640381,-0.46435803174972534,-0.4050344228744507,-0.6106685996055603,-0.49995532631874084,-0.5424773693084717,-3.2732222080230713,-0.9853140711784363,-0.9114003777503967,-0.6535041928291321,-0.5270041823387146,-1.8750120401382446,-4.049221515655518,-3.9777588844299316,-0.4828323721885681,-4.374321937561035,-1.2415951490402222,-0.6002005338668823,-0.5990422368049622,-0.42854955792427063,-1.2956565618515015,-0.3578273355960846,-0.30238521099090576,-3.3724286556243896,-0.7138566374778748,-0.7051709294319153,-0.6612826585769653,-0.5700423717498779,-0.3896332085132599,-0.39789754152297974,-0.4046708345413208,-2.7878482341766357,-0.7164801955223083,-0.7033661603927612,2.728868246078491,-0.9435202479362488,-0.35304057598114014,-0.640824556350708,-0.3383808732032776,-0.25051242113113403,-0.9761328101158142,-0.3251633644104004,-0.2773001790046692,-0.12339264154434204,-0.4774639904499054,-0.5857600569725037,-0.37482956051826477,-3.473581552505493,-0.23696039617061615,-0.7666839957237244,-1.1045172214508057,-0.2079363465309143,1.2436765432357788,0.15844887495040894,-0.6172425746917725,-0.5446060299873352],[-0.3942541182041168,-0.2598994970321655,-0.29906055331230164,-0.2562360167503357,-0.27290916442871094,1.1117497682571411,0.4544288218021393,1.642709493637085,1.3066065311431885,0.11590709537267685,-1.7537131309509277,-2.182494640350342,-2.078622817993164,-0.2609204947948456,-0.1388832926750183,-1.380183219909668,-1.4726465940475464,0.031220320612192154,-1.4311391115188599,-0.7348561882972717,-1.643818974494934,1.1702277660369873,0.20574021339416504,-0.551996111869812,-0.5631266236305237,1.1078118085861206,-1.4479314088821411,-0.7199296355247498,-1.9780131578445435,1.3624358177185059,-0.842655599117279,-0.8930535316467285,-0.8186996579170227,-1.3894473314285278,-0.4068574905395508,1.0581799745559692,-0.6016734838485718,-1.9996259212493896,-0.8380084037780762,-1.004210352897644,1.7398477792739868,-1.9749541282653809,-0.6553605198860168,-0.7406024932861328,-1.3239582777023315,-0.9266261458396912,-1.009455680847168,-0.8310668468475342,-0.5689874887466431,0.0984683632850647,-0.6942776441574097,-0.46552392840385437,-0.43314987421035767,-3.009540319442749,-0.6041587591171265,-0.6857057809829712,-0.6017490029335022,-0.904204249382019,-0.5693001747131348,-0.7617813944816589,-0.5973718166351318,-0.8347446918487549,-1.0071617364883423,-0.5988609790802002,6.775099277496338,-0.5736503601074219,0.6668747067451477,-0.588637113571167,-2.0719752311706543,-0.40184685587882996,-0.3207911252975464,-0.6329061985015869,-0.5643400549888611,-0.7259445786476135,-0.6137295365333557,-0.6316620707511902,-0.41132479906082153,-0.44341039657592773,-0.30783993005752563,-0.46335864067077637,-0.814221203327179,-0.4428708553314209,-0.33188313245773315,-0.3743423521518707,-0.42689675092697144,-0.37312963604927063,-0.6837661862373352,-0.3832303583621979,0.732948362827301,-0.4761766493320465,-0.3423239588737488,-0.3311111330986023,-0.6965906620025635,-0.6675624847412109,-0.6654967069625854,-0.7305160760879517,-0.7262942790985107,-1.4202789068222046,-0.9059138894081116,1.2715657949447632,-0.6698975563049316,-0.601374089717865,-0.47753748297691345,-0.6828991770744324,-0.3541193902492523,-1.7295242547988892,-1.6697919368743896,-0.34545964002609253,-0.5534961223602295,-0.7598716616630554,-0.3859729468822479,-0.6966073513031006,-0.3509133756160736,-0.2474682480096817,-0.4539493918418884,-0.4359535872936249,-0.2949118912220001,2.5868189334869385,2.542194366455078,-0.5473973155021667,-0.40933141112327576,-0.477855920791626,-0.2786440849304199,-0.3091719448566437,-0.30767199397087097,-0.4443902373313904,-0.39955079555511475,-0.40283307433128357,-0.43610072135925293,-0.30611851811408997,-0.3446926474571228,-5.347893238067627,-0.46790510416030884,-0.30064719915390015,-0.4969578981399536,-0.5243245959281921,-0.25304245948791504,-0.31743156909942627,-0.48059287667274475,-1.2333060503005981,0.7888401746749878,-0.4391271770000458,-0.17805197834968567,-0.3565829396247864],[-0.035680536180734634,-0.026191268116235733,0.0026138939429074526,0.04439549893140793,-1.4842876195907593,0.2593110501766205,0.7466984391212463,-1.460890293121338,1.979769229888916,0.42595210671424866,0.6572332978248596,-4.800520420074463,1.3137743473052979,-1.4111305475234985,0.2494373470544815,-1.6036847829818726,-1.5791685581207275,2.6258389949798584,-1.8638629913330078,-1.8521363735198975,-1.5472720861434937,-1.307557463645935,2.5313799381256104,1.150610327720642,1.3818573951721191,2.427384853363037,-0.04358925297856331,-0.9123186469078064,-1.0453765392303467,0.8675152063369751,-0.5573380589485168,1.9231624603271484,-1.3551383018493652,-1.2412689924240112,-1.299378752708435,-1.060148000717163,-1.9730318784713745,1.4997972249984741,-1.735698938369751,-1.8043808937072754,0.5743439197540283,-0.9856780767440796,-0.8456388115882874,-1.0114431381225586,-0.21822863817214966,-1.7026491165161133,-1.6129943132400513,-2.4131643772125244,-0.9296469688415527,-0.12352856993675232,0.5349216461181641,-1.1544960737228394,-2.4994571208953857,-4.134467124938965,-0.6083859205245972,0.9063617587089539,-0.9572098851203918,0.0555972084403038,-3.755143880844116,-1.1855226755142212,-2.7434592247009277,-2.069497585296631,-1.7153939008712769,-1.6292963027954102,0.6215617656707764,3.0811679363250732,-1.6692920923233032,-2.089726448059082,-2.266324281692505,-0.8069139122962952,-2.619408369064331,-1.7496569156646729,7.472578525543213,-2.526930093765259,-0.9038383364677429,-0.8066821694374084,-0.8408385515213013,-0.7230808138847351,-6.430675983428955,-1.3082233667373657,-1.0169368982315063,6.098517417907715,-2.4227023124694824,-2.395447015762329,-2.5326340198516846,-2.4820079803466797,-0.8403812050819397,7.292975902557373,0.614278256893158,-0.3818000853061676,-0.9959437251091003,-3.1729745864868164,-2.1281867027282715,-2.1578662395477295,-1.0981000661849976,-0.9857832193374634,-0.9874257445335388,1.663806438446045,4.466794490814209,-2.3336527347564697,-1.723388910293579,-1.7723945379257202,-2.4667084217071533,-0.5567564964294434,-0.522045373916626,1.6825131177902222,1.6294894218444824,-1.2547014951705933,-3.800074815750122,-0.40759941935539246,-1.17941153049469,0.5892432928085327,-0.3825749456882477,-0.4575658440589905,-1.459021806716919,-1.5266036987304688,-1.5241724252700806,-2.9344468116760254,-2.908435344696045,-5.190832138061523,-1.4795938730239868,-1.5497268438339233,-0.5195837020874023,-1.1520330905914307,-0.3846730589866638,-0.9794732332229614,-0.676351010799408,-0.6435643434524536,-1.9012246131896973,-0.9177301526069641,-0.4318361282348633,-0.7978676557540894,-0.5303400754928589,-0.3764674961566925,-0.4946812391281128,-1.0013391971588135,-0.3890765905380249,-0.6511180400848389,-0.9472311735153198,0.5142233967781067,-0.15501144528388977,-0.26700249314308167,0.05052095279097557,-0.720284104347229],[0.4307798743247986,0.5063822865486145,0.6429694890975952,0.46004125475883484,-1.0664780139923096,-0.38257765769958496,-0.919701874256134,-0.6118385195732117,0.47617313265800476,0.2295626848936081,1.5417792797088623,-0.20005430281162262,0.36754146218299866,-0.4435464143753052,0.06196913495659828,-0.7242119312286377,-0.6225306987762451,0.792858362197876,0.8639630675315857,-0.3400343656539917,-2.352525234222412,-0.1399298906326294,0.16158965229988098,-0.15379589796066284,1.285317063331604,0.5792236924171448,0.36249426007270813,-0.5832987427711487,0.08181559294462204,-2.9373817443847656,0.05587469041347504,-0.2922118306159973,-1.0169365406036377,3.7694172859191895,-0.21127329766750336,-0.31116196513175964,0.741759181022644,0.25406524538993835,0.019084949046373367,-0.0674908384680748,0.22105957567691803,0.8998466730117798,-0.4939645826816559,-0.3744633197784424,1.1827468872070312,-0.935148298740387,-0.9757699966430664,-1.598079800605774,-1.0381503105163574,-1.4224330186843872,0.7342570424079895,-0.9293408989906311,0.12216833978891373,0.8521521687507629,-0.5997620224952698,1.2063542604446411,-0.8422970771789551,0.45339077711105347,0.505250871181488,-1.4376256465911865,0.8511569499969482,1.783005952835083,-0.9248258471488953,1.0936028957366943,-2.406775712966919,-0.6204337477684021,-1.0882607698440552,-0.9710721373558044,-0.5507789254188538,-0.5257781147956848,1.7013587951660156,-0.9179337024688721,0.27342116832733154,0.3421887755393982,-0.7269532084465027,-0.6297796964645386,-1.119526743888855,-1.2366411685943604,-0.9189349412918091,-0.6836853623390198,1.2436339855194092,-0.14094339311122894,-1.2480093240737915,-1.1607695817947388,-1.200989007949829,-1.249534010887146,1.6601535081863403,0.07868708670139313,1.740602731704712,-1.3244203329086304,0.36120498180389404,0.8258143067359924,-1.2427167892456055,-1.1472539901733398,-0.8791124820709229,-0.9459465742111206,-1.1056737899780273,-1.2067188024520874,-4.278905391693115,-1.9362008571624756,-0.5125630497932434,-0.5933498740196228,0.6215670704841614,-0.48587486147880554,-2.9467015266418457,-1.3146518468856812,-1.1839309930801392,-5.593667030334473,0.9791488647460938,3.0622198581695557,1.7549316883087158,-1.1528931856155396,-0.7101912498474121,-0.6428057551383972,-2.045685291290283,-2.0901262760162354,-0.8283805251121521,-1.075781226158142,-1.057603120803833,4.26971960067749,-0.9931548833847046,-0.9657085537910461,-0.5345192551612854,-0.6512145400047302,-0.64122474193573,-0.8680650591850281,-2.770724296569824,-4.913086414337158,-3.413998603820801,3.213064193725586,-0.796093761920929,-3.106743812561035,-1.3427202701568604,5.784825325012207,-0.5461730360984802,-1.3725968599319458,-0.5533186793327332,-0.5248488783836365,-0.7639381885528564,-2.555205821990967,-1.0657137632369995,0.25665485858917236,0.17869532108306885,1.6004170179367065],[0.05914366617798805,-1.2192742824554443,-0.8337512016296387,-0.9767980575561523,-0.8148475885391235,0.09976530075073242,-1.317603349685669,-1.2176958322525024,-1.2937394380569458,-0.6647772192955017,-0.02384188584983349,0.6588665246963501,1.4371907711029053,1.7173452377319336,-0.5787032842636108,-1.3184962272644043,-1.4262489080429077,-4.430749416351318,-0.8586657047271729,-0.03871000185608864,-0.601289689540863,0.043414078652858734,7.3623433113098145,-1.26899254322052,0.7992048263549805,-1.6278892755508423,-0.884894847869873,0.9641876220703125,-0.7781893610954285,0.5026636719703674,1.171567440032959,0.7337996959686279,-0.5270066261291504,-0.8832258582115173,0.24322034418582916,-0.2127569019794464,-1.3007317781448364,-1.3866498470306396,1.1894205808639526,0.8013513088226318,0.33892396092414856,-0.723876953125,-0.428758829832077,4.0560102462768555,-2.898646593093872,-1.1452714204788208,4.537443161010742,-1.2498199939727783,0.9303216338157654,0.8466572165489197,-0.10316040366888046,1.2068666219711304,3.776693820953369,1.119249701499939,-2.8920295238494873,-1.343727946281433,1.2561970949172974,1.9286816120147705,-1.31948721408844,1.2909725904464722,-1.2223421335220337,2.2262423038482666,-1.5861244201660156,-1.1312146186828613,-1.0985782146453857,-0.5566801428794861,-3.5245280265808105,-1.35840904712677,0.31588006019592285,-0.005251546390354633,-1.4623445272445679,-0.7079033255577087,1.6242454051971436,1.8818951845169067,1.456943392753601,1.4961023330688477,-0.24545560777187347,-0.2595384120941162,2.0087945461273193,-0.371717631816864,-0.5974416732788086,0.06674358993768692,-1.8147923946380615,-1.7251893281936646,-1.7106451988220215,-1.733945608139038,-1.079563021659851,-2.928121566772461,-4.839041233062744,6.688278675079346,-3.592193603515625,-1.7816660404205322,-2.5145349502563477,-2.455448627471924,1.5694416761398315,-1.341116189956665,-1.3480589389801025,-1.2806965112686157,3.8724069595336914,-1.4332714080810547,0.9152967929840088,0.8694881796836853,-0.9358031749725342,1.3109654188156128,-5.667449474334717,-1.3010549545288086,-1.4113388061523438,-0.8835421204566956,-1.8924140930175781,2.2215991020202637,-0.963376522064209,-1.6072205305099487,-1.5263944864273071,-1.4962321519851685,-1.0249687433242798,-1.0829181671142578,-1.7318516969680786,-0.6762385964393616,-0.6713609099388123,-10.165618896484375,-1.5759919881820679,-1.5411056280136108,1.1352291107177734,-0.013797181658446789,-0.6125873327255249,-4.838884353637695,-0.5000559091567993,-0.7135995030403137,-1.449161171913147,-0.650736927986145,-0.4535042345523834,12.24636459350586,-0.4610353410243988,-1.942954659461975,-0.3544154465198517,-3.809396743774414,-0.39856764674186707,-0.9353941082954407,-1.7449945211410522,1.107291340827942,-0.1437949687242508,-0.5362952351570129,-0.02426965720951557,-1.3460290431976318],[-0.2165851593017578,-0.24189087748527527,-0.377062052488327,-0.17386896908283234,-0.831012487411499,-1.8962714672088623,-0.8064321279525757,-1.285053014755249,-0.6369734406471252,0.5577380061149597,1.137460708618164,-1.1727185249328613,0.6822031736373901,0.8550220131874084,-1.728097915649414,-0.4597974121570587,-0.43920737504959106,-0.4933024048805237,0.44009464979171753,-0.8148071765899658,-0.5059569478034973,-0.8224729895591736,0.9494924545288086,-0.8551361560821533,0.629610538482666,4.694952011108398,-1.5545222759246826,-0.6473748087882996,-0.754990816116333,-4.141147613525391,-0.7405332922935486,1.5085878372192383,-1.2301586866378784,-4.903237819671631,0.7969191074371338,1.2224961519241333,0.5361151099205017,1.4882800579071045,1.4669036865234375,0.22415407001972198,-3.997783899307251,-0.7260754108428955,-0.646018922328949,-1.7696647644042969,2.297914743423462,-1.5000903606414795,-1.2431232929229736,0.855229377746582,0.10871463268995285,-4.163161754608154,1.1083576679229736,-1.0590542554855347,2.730130672454834,1.4314411878585815,-0.7098297476768494,4.2752227783203125,-1.0644111633300781,-3.26711368560791,0.24739623069763184,2.7994420528411865,0.9515205025672913,4.250400066375732,-1.894532322883606,-0.11020998656749725,0.8588822484016418,3.0922608375549316,-1.665692925453186,-0.5867220759391785,2.0447306632995605,-0.22141699492931366,1.9870076179504395,-0.8272790312767029,1.881485104560852,-4.78002405166626,-0.7061726450920105,-0.7745054960250854,-1.8493561744689941,-1.8586304187774658,0.6028268933296204,-0.8850828409194946,-0.39652544260025024,3.4979746341705322,-1.1237714290618896,-1.0955966711044312,-1.0877500772476196,-1.0414294004440308,-0.7299304008483887,-0.7754943370819092,-1.0744034051895142,-0.560806930065155,-3.0342023372650146,-0.5942193865776062,-0.5367175936698914,-0.5606257319450378,-0.5696997046470642,-0.5966140627861023,-0.6540338397026062,1.3565168380737305,-6.851291179656982,-0.7339048385620117,-0.4746412932872772,-0.5809131860733032,-0.780426025390625,-0.9512122273445129,-0.8116267323493958,-2.450467348098755,-2.477618455886841,4.800332546234131,3.039778470993042,1.5993902683258057,-2.3572678565979004,-0.10086696594953537,-0.5300794839859009,-0.5766769647598267,-1.5051467418670654,-1.490038514137268,0.380368173122406,-1.105989694595337,-1.113755702972412,-0.4423586428165436,1.809813141822815,1.7841142416000366,-0.564225435256958,-0.5446599721908569,-1.1250568628311157,-3.8527777194976807,-0.5634791851043701,-0.8605403304100037,-2.009040594100952,-0.6420440077781677,-0.6369731426239014,-0.5632272958755493,-1.1071892976760864,-5.194908142089844,-0.4185459017753601,-3.670954465866089,-0.25103819370269775,-0.26988306641578674,-0.6089898347854614,0.29195931553840637,-0.8732337355613708,-0.4349842071533203,0.054974570870399475,0.014176557771861553],[-0.006950073409825563,-0.0759684294462204,-0.3845817744731903,0.046977538615465164,-0.37588486075401306,0.01504180021584034,-0.3692723512649536,-0.3892453610897064,-0.30828237533569336,-0.22500748932361603,0.20334570109844208,-0.03767849877476692,0.3201623260974884,0.39354339241981506,0.4580025374889374,-0.3787626624107361,-0.2954190969467163,0.5213866829872131,-0.2890278995037079,-0.39448046684265137,-0.3143095374107361,-0.3702754080295563,-0.3486565053462982,-0.36151042580604553,0.8578830361366272,-0.4658235013484955,-0.30602797865867615,-0.446261465549469,-0.42813926935195923,-0.4264223575592041,1.0849963426589966,-0.26831933856010437,-0.5623958706855774,-0.3583091199398041,-0.21260704100131989,-0.25761348009109497,-0.41328680515289307,-0.02746175043284893,-0.2425163984298706,-0.49225082993507385,-0.2734532952308655,-0.32531291246414185,-0.3576897978782654,-0.3918793499469757,0.636394202709198,-0.4034671187400818,-0.3783648610115051,-1.7449088096618652,1.1886595487594604,-0.08836016058921814,-0.36105701327323914,-0.44072914123535156,-0.24563907086849213,-0.36752980947494507,-0.2998008131980896,1.0040842294692993,-0.4749838411808014,-0.2843098044395447,-0.26346355676651,-0.22601395845413208,-0.34339067339897156,-0.29121220111846924,-0.4933374226093292,-0.29245853424072266,-0.3822074234485626,-0.20932146906852722,-0.2657298743724823,-0.6343336701393127,-0.3950384259223938,-0.32840028405189514,-0.3570612967014313,-0.45272335410118103,-0.5289651155471802,1.5770936012268066,-0.35827746987342834,-0.4906277656555176,-0.4283968508243561,-0.3899323046207428,-0.3575892150402069,-0.46524450182914734,-0.3351816236972809,-0.31466883420944214,-0.9544699788093567,-0.8482292890548706,-0.8967458605766296,-0.8782762885093689,-0.4404726028442383,-0.2675495743751526,-0.2755364775657654,-0.3598040044307709,-0.35277101397514343,-0.3287614583969116,-0.8740442395210266,-0.946904182434082,-0.32925814390182495,-1.0414671897888184,-0.9830479621887207,-4.690805912017822,1.7328294515609741,-0.29407766461372375,-0.7318475246429443,-0.8145534992218018,-0.3278532028198242,-0.5288865566253662,-0.6469818949699402,-0.35919129848480225,-0.3644132912158966,-4.890628337860107,-0.39040544629096985,-0.22203916311264038,-0.22138327360153198,-0.4177890419960022,-0.23605340719223022,-0.31120461225509644,-0.7452172636985779,-0.6215155720710754,-1.045972228050232,-0.3737052083015442,-0.4381040930747986,-0.6050235629081726,2.4253509044647217,2.4106435775756836,-0.42527592182159424,-0.46240657567977905,-0.3008255362510681,2.665767192840576,-0.25374874472618103,-0.30630436539649963,-1.1191446781158447,-0.3507560193538666,-0.25745904445648193,-0.27337566018104553,-0.2775627076625824,-0.2908307611942291,-1.7628167867660522,-0.7150980234146118,-0.3195319175720215,-0.33287203311920166,-0.44860291481018066,0.12508006393909454,0.0022690105251967907,-0.17226938903331757,-0.12564906477928162,-0.06957778334617615],[0.44231662154197693,0.45371443033218384,0.19817523658275604,0.397542804479599,-1.0078203678131104,-0.2610234022140503,-1.1957118511199951,-0.261206716299057,-0.7880715727806091,0.7260118722915649,1.1278403997421265,-0.7376775145530701,0.1448511928319931,-0.0367763414978981,-1.1131266355514526,-0.866149365901947,-0.9094414710998535,2.1984505653381348,1.0610144138336182,0.6305070519447327,-1.791778802871704,-0.8508052229881287,-0.3742455244064331,-0.21540729701519012,0.9255269765853882,0.10758750885725021,0.8371783494949341,-0.6157785654067993,-0.7591621279716492,-1.6149842739105225,-0.36681175231933594,0.22820934653282166,-1.024613618850708,-1.0193743705749512,-0.2528558075428009,-0.6190627813339233,0.8822466135025024,-0.18224824965000153,-0.5411680340766907,0.3832130432128906,0.06614497303962708,-0.33248060941696167,0.8487038612365723,-0.04670754820108414,0.21589119732379913,-0.9582005739212036,-0.9061863422393799,2.9600613117218018,-0.6757743954658508,-0.04703182354569435,2.300995111465454,-0.9215387105941772,0.8827319741249084,0.3261669874191284,0.047819506376981735,0.8721736073493958,-1.2120245695114136,-0.9793418645858765,0.3652409315109253,1.1662307977676392,0.9859477877616882,1.7651125192642212,-0.8043060898780823,-0.3058772087097168,-0.6629214882850647,-0.08927186578512192,-0.7821981310844421,-1.0296109914779663,0.8315728306770325,0.6436923742294312,1.82280695438385,-1.0628303289413452,0.8626519441604614,-0.08060799539089203,-1.109018087387085,-0.9900428056716919,-1.3948726654052734,-1.326859474182129,1.6764146089553833,-0.8969668745994568,2.8223536014556885,-1.8251612186431885,-2.693230152130127,-2.6325690746307373,-2.589104175567627,-2.691850423812866,0.7679067850112915,-1.118687629699707,0.4237787425518036,-0.9533998966217041,-0.010927051305770874,-3.71254563331604,-1.2641501426696777,-1.2160710096359253,-1.3737473487854004,-1.3579670190811157,-1.4662244319915771,1.2221146821975708,0.6905893087387085,0.9807664752006531,-1.2886762619018555,-1.2928885221481323,1.2664740085601807,-0.7811891436576843,-1.2643667459487915,-2.360846996307373,-2.356011152267456,-2.304485559463501,1.4464677572250366,1.670133352279663,-0.13112454116344452,0.823292076587677,-0.658189594745636,-0.6146202087402344,-1.5466842651367188,-1.6607507467269897,-6.188875198364258,-1.355006456375122,-1.4475375413894653,-0.8186341524124146,0.7811930775642395,0.7649250030517578,-0.7837746143341064,-1.116358757019043,-0.655595064163208,4.0103559494018555,3.7678472995758057,0.15242795646190643,-1.8241478204727173,-1.358870506286621,-0.6042538285255432,1.2792218923568726,-4.56384801864624,0.9745572209358215,-0.6713049411773682,2.2339465618133545,-0.42218440771102905,-0.43467679619789124,-2.273223876953125,-1.3522117137908936,0.1790430098772049,0.18318520486354828,0.14582811295986176,2.6537442207336426],[-0.36982282996177673,-0.602042555809021,-0.6393886804580688,-0.5528374910354614,-0.6403082013130188,-0.9023695588111877,-0.5032853484153748,1.6075327396392822,-0.4652433693408966,-0.5322871208190918,-2.6640303134918213,-0.048482779413461685,-3.4002037048339844,1.725040078163147,1.6596057415008545,-0.5939888954162598,-0.6458184719085693,0.2012450098991394,-0.5672438144683838,3.9198038578033447,-0.748947262763977,-0.7770230174064636,0.6551089286804199,0.4427095055580139,0.3988683819770813,1.2078200578689575,-0.9515289068222046,0.2501714825630188,-0.5618010759353638,0.5402357578277588,-1.1658430099487305,1.1284931898117065,1.5792039632797241,-0.4365134537220001,-0.860308051109314,-0.11294491589069366,-0.7217353582382202,-1.239370346069336,-1.114060640335083,-0.77817702293396,-0.924317479133606,-0.6215127110481262,0.7915440797805786,-0.7288420796394348,-0.011588506400585175,-0.6283862590789795,-3.1181790828704834,-0.4442380666732788,0.46676328778266907,0.1815551370382309,-1.540892243385315,0.6772588491439819,-0.28806665539741516,3.088385581970215,-0.740348756313324,-0.9923761487007141,0.6638138294219971,-3.030139446258545,-1.197618007659912,-0.8624993562698364,-0.4561097025871277,-1.955541968345642,-0.5970894694328308,-0.9253559708595276,-4.036965847015381,-0.4879968762397766,1.1340566873550415,-0.5473458766937256,-0.498317152261734,-0.4303249716758728,-0.6944549083709717,-0.5814281105995178,-0.9474121928215027,-1.386953592300415,-1.776489019393921,-1.6152842044830322,-0.4836356043815613,-0.40964847803115845,-0.7214929461479187,-0.44157788157463074,3.460242748260498,-0.774614155292511,-0.47946828603744507,-0.5630239844322205,-0.466790109872818,-0.4339476525783539,-0.40465012192726135,-1.9941893815994263,1.7744981050491333,-0.46608850359916687,-2.8670010566711426,-2.396233558654785,-0.7349931001663208,-0.7320590019226074,-0.901017427444458,-2.1997182369232178,-2.1786558628082275,-0.47415420413017273,-0.8722825646400452,2.0832831859588623,1.2973668575286865,1.2800781726837158,-0.4144291877746582,-2.6058411598205566,-0.3573378920555115,-0.4932193458080292,-0.4532368779182434,-0.3653723895549774,-0.9006063938140869,-0.46830302476882935,-0.2921005189418793,-0.36851105093955994,-0.8274646401405334,-0.9014783501625061,-0.3547525107860565,-0.4042474329471588,-0.3793378472328186,-0.6794832348823547,-0.6727505326271057,-0.6339345574378967,-0.6279346346855164,-0.620063841342926,-2.3118462562561035,2.5613272190093994,-0.4621770977973938,-0.44882214069366455,-0.3230057656764984,-0.35647153854370117,-0.2793949246406555,-0.2645149528980255,-0.3421698808670044,-0.41805005073547363,-0.6286134123802185,-0.27128785848617554,-0.7650198340415955,-0.6867570877075195,-0.35098686814308167,-0.303722620010376,-0.3204531669616699,-0.6964249610900879,-0.5316901206970215,-0.3649549186229706,-0.2561897337436676,0.5236994028091431],[-0.010712072253227234,0.2553890347480774,-0.451811820268631,0.04277713969349861,0.527214765548706,-0.6052179336547852,-0.43122896552085876,-0.4447683095932007,-0.5886244773864746,-0.4690866470336914,-0.27221402525901794,1.1445735692977905,0.1916917860507965,0.4882366955280304,-0.19851067662239075,1.0154216289520264,1.0097781419754028,0.5763643383979797,0.048529744148254395,-0.26571300625801086,3.2083513736724854,-0.29293525218963623,-0.9961600303649902,0.029954079538583755,-1.2770347595214844,0.0072324397042393684,0.36466139554977417,-0.7148714661598206,-0.8878360986709595,1.391335129737854,1.2180242538452148,0.13207586109638214,-1.2387058734893799,-3.2363691329956055,0.1913679987192154,-0.3865109384059906,-1.1646595001220703,0.019148753955960274,1.5585001707077026,-0.7647162675857544,-0.5082905292510986,0.748930811882019,0.5546384453773499,-0.582640528678894,-0.7491282224655151,-1.9130266904830933,-2.7838447093963623,-2.7031893730163574,1.6245100498199463,0.19938138127326965,-0.7821088433265686,-1.0671004056930542,-0.48641133308410645,0.6728251576423645,0.3220815658569336,-0.14966097474098206,-0.9744822382926941,1.543218731880188,1.2164338827133179,-0.5459667444229126,-0.8903318047523499,-1.3704825639724731,-1.1284112930297852,0.23084519803524017,1.9254608154296875,-1.183678388595581,1.2115240097045898,-2.8630642890930176,1.918112874031067,-0.3809044361114502,0.7203686237335205,-2.62548565864563,-5.4599504470825195,2.0094234943389893,-0.7987034320831299,-0.7827507257461548,-1.3930104970932007,-1.3981784582138062,1.5473662614822388,-0.9514878392219543,2.011903762817383,-0.7090176343917847,-1.414703369140625,-1.3657639026641846,-1.4847787618637085,-1.441872000694275,-2.246215343475342,-2.032541513442993,-1.1305962800979614,-0.8911839127540588,1.029013752937317,3.9777305126190186,-1.7322901487350464,-1.704319715499878,-0.6802639961242676,-2.7152764797210693,-2.6311419010162354,-1.8573651313781738,1.1487780809402466,0.8550166487693787,-2.058039426803589,-2.0505871772766113,-1.4698824882507324,-1.072091817855835,-1.1979416608810425,-1.855076551437378,-1.7756338119506836,-1.3940887451171875,-1.1390466690063477,-0.3261146545410156,0.7048108577728271,-0.8201196789741516,-0.4600718021392822,-0.48183226585388184,-0.8543463349342346,-0.7406518459320068,-3.2185115814208984,-2.6063969135284424,-2.6354076862335205,-2.8264684677124023,-3.8268609046936035,-3.8798913955688477,-0.9475732445716858,-2.6528451442718506,-1.715093970298767,7.239434719085693,1.2899441719055176,-0.13682709634304047,-0.8841679096221924,-0.6735307574272156,-0.4182136058807373,-5.219876766204834,2.715528726577759,-6.3993353843688965,-0.8392923474311829,-3.118067979812622,-0.5793337821960449,-0.47692549228668213,-1.0567193031311035,3.4761388301849365,1.7189600467681885,-0.055407967418432236,-0.11744856089353561,2.4562528133392334],[0.03356478735804558,0.3632764220237732,-1.3884198665618896,-1.2634769678115845,0.5197623372077942,-0.7661822438240051,-1.3564822673797607,1.2552136182785034,-3.3153719902038574,-1.1339473724365234,0.2569543719291687,-2.4826924800872803,-0.3420102000236511,-4.962453365325928,1.4923349618911743,-1.2783088684082031,-1.3266364336013794,0.7585189938545227,-1.549038290977478,-0.8207522630691528,-1.4227023124694824,1.23507821559906,6.0751633644104,-5.173155307769775,-1.4169059991836548,-7.01022481918335,0.8315709233283997,1.15301513671875,-1.538241982460022,-1.560356616973877,2.584503173828125,0.3823579251766205,1.3303977251052856,-1.787661075592041,-0.18355269730091095,2.0597996711730957,1.3972500562667847,-0.8634036183357239,-8.555696487426758,-1.192482590675354,-0.23601992428302765,-1.6935735940933228,0.3821652829647064,0.9140809178352356,2.221768617630005,-0.8990651965141296,-0.7194162607192993,-1.4730243682861328,1.2252776622772217,1.328579306602478,2.8037164211273193,-1.266353964805603,0.907731831073761,2.409087896347046,-2.3207006454467773,-3.988492250442505,-1.3846997022628784,-4.442444324493408,-3.020618438720703,2.445248603820801,-0.9704627394676208,-0.6029995679855347,-0.6794004440307617,3.277606248855591,-3.3136589527130127,-0.5105600953102112,1.5599347352981567,-1.9242589473724365,4.375183582305908,-0.6301587820053101,-1.5450439453125,-1.0935335159301758,5.434756755828857,-0.8699934482574463,-1.078177571296692,-1.0720562934875488,-1.456687331199646,-1.6125832796096802,-3.6669249534606934,-0.5831841826438904,-1.0953309535980225,0.9142580628395081,-0.9043253660202026,-0.867335855960846,-0.8994188904762268,-0.9361099004745483,-1.3475698232650757,-0.6979929208755493,-5.77931547164917,-1.2481616735458374,4.147723197937012,3.516547679901123,-2.936340093612671,-2.8471014499664307,-1.0356453657150269,1.5291684865951538,1.4753798246383667,-1.1218317747116089,8.201407432556152,-5.340896129608154,-1.7541306018829346,-1.8007361888885498,-0.556171178817749,-1.2795361280441284,-1.021723985671997,-0.5848648548126221,-0.5790981650352478,-1.5694431066513062,7.32649564743042,-0.7271147966384888,-0.6501376032829285,-1.2469393014907837,-0.3513961434364319,-0.4595114290714264,-1.1693109273910522,-1.1139863729476929,-1.3010494709014893,-0.9373554587364197,-1.0819308757781982,-0.6237276196479797,-2.242077112197876,-2.1744415760040283,-1.4087541103363037,-0.956074595451355,-1.0321755409240723,-1.4692779779434204,-0.38849276304244995,-0.6522247791290283,-1.5846576690673828,-0.6598886847496033,-0.44547319412231445,-0.4326017200946808,-1.292122483253479,-1.4558258056640625,-0.6816635131835938,-4.134320259094238,-0.3891705274581909,-0.6932575702667236,-0.8209285736083984,1.1603885889053345,-0.9381183981895447,-0.21813344955444336,-0.01555506233125925,-1.9012601375579834],[-0.14458036422729492,-0.6529026627540588,-1.5374466180801392,-0.522028386592865,-0.6355034112930298,1.0766077041625977,-0.586677074432373,-1.6572962999343872,-1.0007599592208862,-0.5614410042762756,-1.2500323057174683,-0.719272792339325,1.842370629310608,1.8759846687316895,-3.8654937744140625,-0.617428183555603,-0.541866660118103,-0.001707384828478098,-0.6046615242958069,1.3861926794052124,-0.5438292026519775,-0.9986246228218079,5.174369812011719,0.8818325400352478,0.4890560507774353,4.609318256378174,-1.3837158679962158,0.4325128197669983,-0.64592045545578,-1.2832860946655273,-1.2720437049865723,0.7416598796844482,0.5652850866317749,-0.7508755922317505,0.003637245623394847,-0.9196203351020813,-1.0223734378814697,-0.44550254940986633,-4.259459972381592,-1.1579375267028809,0.8217654824256897,-0.7493736743927002,0.7547492980957031,1.8449424505233765,-2.0013763904571533,-0.5237126350402832,-0.6219083666801453,-0.6457104682922363,1.6478461027145386,-0.3470839262008667,-1.8274136781692505,0.5703645944595337,-2.6691317558288574,-5.001626014709473,-0.9354085922241211,-0.7572491765022278,0.5799500346183777,0.05226365104317665,-4.18069314956665,4.141860008239746,-0.5043593049049377,5.286989688873291,-0.6444513201713562,-1.3477787971496582,-2.0322153568267822,-0.7027132511138916,-1.8059653043746948,-0.6010845899581909,-0.5247573256492615,-4.57708215713501,0.9609197974205017,-0.41900670528411865,3.4471657276153564,-0.9389877319335938,0.9946500658988953,0.9642491340637207,-1.1150574684143066,-1.077895998954773,-1.894029140472412,-0.3813866376876831,-1.3188226222991943,-1.9277777671813965,-1.3862558603286743,-1.5310943126678467,-1.4952791929244995,-1.4525176286697388,-0.4765719771385193,5.095743179321289,8.00970458984375,-0.8701356053352356,-0.8203549981117249,-3.3830041885375977,-0.7985283136367798,-0.8116858005523682,-4.707429885864258,-2.6382460594177246,-2.5561234951019287,-0.6793391704559326,-0.8177708387374878,-1.7009143829345703,-3.5057573318481445,-3.4685752391815186,-1.3481712341308594,2.5881948471069336,-0.638403058052063,-0.6970754265785217,-0.7278695106506348,-0.6440170407295227,-1.0126901865005493,-0.9741846919059753,-0.27414748072624207,-3.3307859897613525,-0.6853941679000854,-0.5652588605880737,-0.943398118019104,-0.9073498249053955,-0.979265034198761,-0.7025476694107056,-0.695087730884552,-2.683706283569336,-0.737107515335083,-0.6901260018348694,-4.265930652618408,-1.5282201766967773,-0.426230788230896,-1.02297842502594,-0.31155309081077576,-1.0229218006134033,-1.6543039083480835,-0.3989655375480652,-0.27508053183555603,-6.063713550567627,-0.4082385003566742,5.9150390625,-0.49745577573776245,-1.2430899143218994,-0.2748551666736603,-1.1233781576156616,-0.7161263823509216,-1.7453782558441162,0.9316951632499695,-0.4191908538341522,0.021390559151768684,0.38214123249053955],[-0.16268546879291534,-0.5072118043899536,-0.3602237105369568,-0.4480692148208618,-0.4598175883293152,1.047960877418518,-0.41777852177619934,-0.5157092809677124,-0.06926512718200684,-0.2192429155111313,0.5008078217506409,-0.9407614469528198,0.3027541935443878,-1.004510521888733,-0.3659244179725647,-0.3405923545360565,-0.35344645380973816,-0.37950775027275085,-0.27519091963768005,-0.5198900699615479,-0.34188294410705566,-0.42536303400993347,0.8004176020622253,-0.11323180794715881,0.3708999454975128,1.0312505960464478,-0.5235975384712219,0.49944284558296204,-0.2879162132740021,0.39796435832977295,0.2950833737850189,0.37869566679000854,-2.8377275466918945,-0.31155091524124146,-0.3209773898124695,-0.7931597828865051,-0.4609881341457367,-2.945889949798584,0.93505859375,-3.1791465282440186,-0.7934382557868958,-0.34476596117019653,-0.03147708624601364,1.2424418926239014,-0.642673134803772,-0.6198291182518005,-1.1765985488891602,-0.4219045639038086,0.62352055311203,-1.412287712097168,-0.5183266997337341,0.7256543040275574,-0.3827020227909088,-0.47557735443115234,-0.3287811875343323,-0.41095098853111267,0.6647013425827026,-1.6673108339309692,-0.49231424927711487,1.3552258014678955,-0.4290044605731964,0.5986119508743286,-0.23148797452449799,-0.39852631092071533,-0.786089301109314,-0.37517642974853516,-0.5464096069335938,-1.0658260583877563,-1.300205111503601,-0.5569716095924377,-3.115344285964966,-0.9712533354759216,-0.6542738676071167,4.728422164916992,-0.5728158354759216,-0.5872517824172974,-0.7942349314689636,-0.7673088908195496,-0.5443349480628967,-0.8374884128570557,-3.619649648666382,-0.3869590759277344,-0.41234108805656433,-0.4295240342617035,-0.44614702463150024,-0.4977487623691559,-1.1481841802597046,-1.2055362462997437,-1.0515530109405518,-0.36242184042930603,2.154252290725708,-1.5728073120117188,-0.4038490653038025,-0.5186206102371216,-0.38409045338630676,-0.5204076170921326,-0.5251308679580688,-0.5752587914466858,-0.9099147915840149,-1.2656400203704834,1.0539391040802002,1.1844593286514282,-0.42510175704956055,-0.6236979961395264,-0.9447355270385742,-0.3704153299331665,-0.3442022204399109,-0.6209743618965149,3.188525438308716,-0.5905971527099609,-0.30380120873451233,-0.8422226905822754,-0.32580533623695374,-0.3772698938846588,-0.6530702114105225,-0.6769729852676392,-0.36638909578323364,-0.4187995493412018,-0.3869164288043976,-0.2907400131225586,-1.193138837814331,-1.1372404098510742,-0.5621964335441589,3.697256326675415,-0.33415934443473816,-1.152755856513977,-0.325565367937088,-0.26522767543792725,-1.023876428604126,-0.2904292345046997,-0.26236119866371155,-0.31914448738098145,-0.3782256245613098,-0.36659327149391174,-0.4138396382331848,-2.669442892074585,-0.2966761887073517,-0.273849755525589,-0.36863696575164795,0.09657872468233109,0.5708648562431335,-0.23176653683185577,-0.24020829796791077,-0.5802597403526306],[0.2911543846130371,0.025104230269789696,-0.0384148433804512,-0.2624129354953766,0.3269519507884979,-0.011938569135963917,0.5856001377105713,0.16010485589504242,0.3727751076221466,1.5957865715026855,0.06261460483074188,-0.5532559156417847,0.6367479562759399,-0.26834699511528015,-0.44150620698928833,-1.3742766380310059,-1.3579988479614258,0.07957205176353455,-1.1950557231903076,0.645219624042511,-1.0239613056182861,-0.9142422080039978,1.4331974983215332,-0.13681566715240479,-0.3805587887763977,-0.08314179629087448,-0.8009160757064819,0.7081505656242371,-1.5659246444702148,-2.5691001415252686,0.4978845417499542,-0.03242085501551628,3.3200457096099854,-1.221928596496582,0.40652161836624146,1.320214867591858,-0.4355688691139221,-0.14048956334590912,0.07907921820878983,0.2521040737628937,-0.3845594525337219,-1.0056394338607788,-1.4289286136627197,1.8771395683288574,-0.4821920394897461,1.3442810773849487,-0.4449465274810791,-1.5535846948623657,0.6526373624801636,-0.44122642278671265,-1.266920804977417,0.43892866373062134,1.809411883354187,0.9616559743881226,-1.2693508863449097,-0.8557658195495605,0.5056957602500916,-0.9109411835670471,0.5226776003837585,0.2328537404537201,-1.5770368576049805,1.3286230564117432,1.0715711116790771,0.6477847695350647,-0.16043123602867126,0.4752575159072876,-0.04142255708575249,-3.8684158325195312,0.5895249247550964,1.177674412727356,-0.5809809565544128,2.77966046333313,0.35420599579811096,0.4782964885234833,0.7059908509254456,0.6707804799079895,-2.2541165351867676,-2.0938332080841064,0.7840960621833801,-1.0707099437713623,0.6736232042312622,-0.2541288435459137,-1.4620329141616821,-1.5834417343139648,-1.5076818466186523,-1.5602675676345825,-1.4865738153457642,3.113584280014038,-4.666479587554932,-1.327483057975769,2.875729560852051,-1.5899436473846436,-1.0248794555664062,-0.9612377285957336,0.8779289126396179,1.3725826740264893,1.4869191646575928,-1.4591264724731445,2.079800605773926,3.8509716987609863,2.4604437351226807,2.4714536666870117,-0.9528515338897705,0.38529953360557556,-1.7096143960952759,-1.6524522304534912,-1.7019106149673462,-1.2818255424499512,4.364852428436279,0.473677396774292,-0.88359135389328,-4.267734527587891,-1.0644015073776245,-1.0414562225341797,-1.1887717247009277,-1.1473338603973389,-0.8989715576171875,-1.416416049003601,-1.4628688097000122,-6.590303897857666,-0.9005725383758545,-0.821195125579834,1.2440580129623413,-5.567908763885498,-0.7623327970504761,-1.4158622026443481,-0.6398577094078064,-4.292049407958984,-1.5504136085510254,-0.7447156310081482,-0.39053887128829956,-1.2417572736740112,-0.7707447409629822,-4.5807390213012695,-0.5219254493713379,-2.1179044246673584,-0.562549889087677,-3.018857479095459,-1.013440728187561,0.5648679733276367,0.13548974692821503,-0.1006026640534401,0.04840168356895447,-1.0065339803695679],[-0.3467335104942322,-0.22155892848968506,-0.32754507660865784,-0.35735905170440674,-0.2875429391860962,-0.3487374186515808,-0.3452252447605133,-0.30611729621887207,-0.3196490406990051,-0.3395628035068512,-0.3304749131202698,-0.34377557039260864,-0.26651811599731445,-0.29735809564590454,-0.35542261600494385,-0.25484582781791687,-0.33649635314941406,-0.22545064985752106,-0.36757034063339233,-0.3415743112564087,-0.29142722487449646,-0.3461715877056122,-0.23959799110889435,-0.32432329654693604,-0.2909191846847534,-0.20413397252559662,-0.26890799403190613,-0.23955997824668884,-0.3580821454524994,-0.23079746961593628,-0.250000536441803,-0.306670606136322,-0.3022197186946869,-0.30114078521728516,-0.347356379032135,-0.24480009078979492,-0.28350815176963806,-0.32890045642852783,-0.2298753708600998,-0.3046203553676605,-0.30936765670776367,-0.2328256219625473,-0.33995476365089417,-0.3629108965396881,-0.35671156644821167,-0.3240949809551239,-0.21189182996749878,-0.30073925852775574,-0.2655419111251831,-0.3365614116191864,-0.27871277928352356,-0.2117842435836792,-0.22825586795806885,-0.29339277744293213,-0.2974667549133301,-0.3159535527229309,-0.31884244084358215,-0.27393993735313416,-0.20682090520858765,-0.2929162085056305,-0.2751082181930542,-0.3424336910247803,-0.20464785397052765,-0.2640572190284729,-0.21431806683540344,-0.210752934217453,-0.3343348205089569,-0.35244014859199524,-0.22076430916786194,-0.3161799907684326,-0.2563668191432953,-0.34938210248947144,-0.27813538908958435,-0.3586534559726715,-0.27730998396873474,-0.20615626871585846,-0.3340446650981903,-0.2524597644805908,-0.22965553402900696,-0.26467594504356384,-0.2879467308521271,-0.26807114481925964,-0.3247011601924896,-0.3876006603240967,-0.24889802932739258,-0.3255508244037628,-0.22292152047157288,-0.2136433869600296,-0.30167892575263977,-0.22635520994663239,-0.3027072846889496,-0.28750380873680115,-0.36849328875541687,-0.2174350470304489,-0.24482256174087524,-0.35874906182289124,-0.2580816447734833,-0.32829996943473816,-0.26445937156677246,-0.2812885642051697,-0.3158055245876312,-0.30589789152145386,-0.30450311303138733,-0.3210897445678711,-0.35127151012420654,-0.32115378975868225,-0.28288155794143677,-0.3828299045562744,-0.2237607091665268,-0.2797747850418091,-0.2245868444442749,-0.3379114270210266,-0.2705325186252594,-0.28683599829673767,-0.31326305866241455,-0.3268507122993469,-0.27324894070625305,-0.32640209794044495,-0.36422184109687805,-0.24502158164978027,-0.2694815397262573,-0.29592177271842957,-0.3547961711883545,-0.2968975007534027,-0.27334439754486084,-0.25249648094177246,-0.3295922577381134,-0.27490437030792236,-0.30159416794776917,-0.23234054446220398,-0.38102808594703674,-0.24251265823841095,-0.23642219603061676,-0.20625492930412292,-0.24626970291137695,-0.34924060106277466,-0.34112411737442017,-0.32056888937950134,-0.26794466376304626,-0.2818472981452942,-0.34588754177093506,-0.36181288957595825,-0.2881699204444885,-0.3670596182346344],[-0.20441371202468872,-0.013782729394733906,0.13245485723018646,0.3768008351325989,0.7301637530326843,0.6158577799797058,1.075596570968628,-0.325120747089386,-2.491583824157715,1.3511766195297241,-0.4705204963684082,2.819498062133789,-0.10676075518131256,0.18921618163585663,-2.1647510528564453,-2.550029993057251,-2.4424033164978027,-0.8287375569343567,-1.7866380214691162,1.209166169166565,-2.083219528198242,-1.7043827772140503,1.3713653087615967,0.7818894982337952,-1.5219905376434326,0.42770496010780334,-0.785045325756073,-1.2348765134811401,-2.2380430698394775,-0.6210192441940308,-2.7629196643829346,-2.2046477794647217,-0.9450032114982605,-1.2589255571365356,0.5366634726524353,0.8415722250938416,3.7520389556884766,-0.3761661648750305,0.12284854799509048,2.8683547973632812,-0.2279898077249527,-1.2973545789718628,-1.0152727365493774,1.8215222358703613,-2.388794422149658,1.9457274675369263,2.4538965225219727,-1.9446953535079956,-1.0171964168548584,-0.6222807168960571,0.40472981333732605,-0.7859509587287903,2.2799007892608643,-1.7629773616790771,-1.563385248184204,-1.7586227655410767,-0.8048781752586365,-1.133718729019165,-0.36604276299476624,1.42933189868927,-2.5255773067474365,0.5921797156333923,2.5629689693450928,0.014387007802724838,-0.7486960887908936,4.032423973083496,0.7872145175933838,3.465679883956909,-0.8434706330299377,2.427666187286377,-3.953646659851074,1.0219762325286865,-5.801021099090576,-3.1207923889160156,-0.6714832186698914,-0.6051803231239319,-1.2864673137664795,-1.193915605545044,-0.7459942102432251,-0.9842919707298279,3.1488378047943115,1.5338419675827026,-1.6629775762557983,-1.6141852140426636,-1.6767185926437378,-1.627528429031372,-1.7530416250228882,2.664318084716797,-2.0418541431427,-1.3462320566177368,-3.8827435970306396,-2.403332471847534,-2.6279654502868652,-2.715580940246582,-0.6732977628707886,-1.8998665809631348,-1.9121668338775635,-1.896888017654419,-1.5795114040374756,8.06336498260498,-0.6482710242271423,-0.7244133353233337,-0.7541632056236267,-0.6175283789634705,-0.8017643094062805,-1.9985809326171875,-1.9738504886627197,-1.2058700323104858,-1.067779541015625,-0.9570481777191162,-1.274451494216919,-0.5781044960021973,-0.4887559711933136,-0.4328071177005768,-0.6927773356437683,-0.6992413401603699,-1.1060961484909058,-4.108981609344482,-4.21815824508667,-6.396557331085205,-0.6064760088920593,-0.7216535806655884,-0.5584819912910461,-0.6687926650047302,-0.6417148113250732,-0.5661329627037048,-0.7642227411270142,3.4642045497894287,-0.5522883534431458,-0.7215571403503418,-0.41982436180114746,-2.3052051067352295,-0.6273466348648071,-0.9930386543273926,-0.6007370352745056,-1.2366453409194946,-0.4792797565460205,-0.6081677675247192,-0.5509060025215149,-0.13487508893013,1.150500774383545,-0.3760410249233246,-0.26445621252059937,4.545085430145264],[0.17716145515441895,0.30061930418014526,-0.48245614767074585,0.6579429507255554,0.7290826439857483,-0.49434104561805725,-1.6524698734283447,-0.08874540776014328,-0.4150322377681732,1.1663217544555664,0.3732298016548157,0.37274354696273804,0.078826904296875,-0.16873812675476074,0.8596236109733582,1.1681711673736572,1.2336642742156982,0.08055105060338974,0.7943850159645081,0.17751410603523254,-2.447762966156006,1.0514062643051147,-0.34482091665267944,-0.10874875634908676,-1.550825834274292,0.16152258217334747,-0.12948518991470337,-1.4389716386795044,2.680610179901123,-2.5548055171966553,-2.039417266845703,-0.2894836664199829,-1.321358323097229,-0.6064797043800354,0.5588521361351013,0.11168017238378525,-1.7014774084091187,0.3258941173553467,0.060815196484327316,2.1071841716766357,-0.7712036967277527,1.1638493537902832,-0.9911986589431763,0.6841129064559937,-0.7454530596733093,-1.3672161102294922,2.602803945541382,-1.3128230571746826,3.082963228225708,-0.4161913990974426,0.5435022711753845,-1.405105471611023,0.8965529203414917,0.46632325649261475,-1.6312792301177979,1.1663862466812134,-1.5231174230575562,0.8840420246124268,0.8446516990661621,-0.33678749203681946,-1.5450642108917236,-1.3819361925125122,-1.6609553098678589,0.9130580425262451,0.3660457730293274,0.6824073195457458,-1.0477502346038818,-0.6128376722335815,0.7079622745513916,-0.5513299107551575,1.3157159090042114,-1.0242042541503906,0.46864497661590576,0.7565156817436218,-0.5653231739997864,-0.4915984272956848,-3.431647777557373,-3.3743221759796143,3.6928963661193848,-3.7091567516326904,0.7614707946777344,-3.0791733264923096,-1.4771491289138794,-1.5449424982070923,-1.485675573348999,-1.583346962928772,1.0676027536392212,-3.175309419631958,2.134824752807617,-3.061569929122925,-0.8989477157592773,3.7288079261779785,0.5390236973762512,0.4557630717754364,-0.4730605483055115,-1.3944507837295532,-1.5326542854309082,-0.8756078481674194,-3.481426954269409,1.0895811319351196,-0.45222213864326477,-0.4785759449005127,-0.4235287308692932,-0.6618361473083496,-2.498000383377075,-0.982803225517273,-0.8896855711936951,-1.5310068130493164,5.0384202003479,0.7156344652175903,0.19898970425128937,3.932988166809082,-0.5000469088554382,-0.565911054611206,-1.2783282995224,-1.2168389558792114,-4.520975589752197,-1.6054943799972534,-1.524491548538208,2.253342390060425,-0.6729856729507446,-0.8222525119781494,-0.5031254887580872,-0.5691438913345337,0.11665818095207214,-1.9902760982513428,-0.8153495788574219,6.289690017700195,-1.5148848295211792,-0.9251855611801147,-0.5496137738227844,-3.5864105224609375,3.6382253170013428,9.194511413574219,-3.696342945098877,-0.884650468826294,-0.9145904779434204,-0.34470388293266296,-1.065408706665039,-0.2752351760864258,-0.42462438344955444,0.12100464850664139,0.040150467306375504,-0.41804417967796326],[0.3905823826789856,-0.0529780276119709,0.7163377404212952,-0.49852126836776733,1.8244425058364868,-1.1334600448608398,-0.4404197037220001,0.4370773434638977,0.3319500684738159,0.613832950592041,-1.5566537380218506,0.8600005507469177,-0.4072103202342987,0.5222243666648865,1.2174172401428223,-1.3906248807907104,-1.3361116647720337,1.6751230955123901,0.8684122562408447,-0.6378320455551147,-2.2466795444488525,1.5698450803756714,-1.9844292402267456,-0.18606093525886536,-2.0146055221557617,0.24106407165527344,0.19728225469589233,0.7834855914115906,0.543823778629303,-0.7850317358970642,0.22486425936222076,0.4481561481952667,-0.4186747968196869,0.537270188331604,-0.09384478628635406,-1.000551462173462,-0.4549219012260437,0.022215859964489937,1.0954339504241943,0.037604641169309616,-0.5240947604179382,1.1451925039291382,-2.500170946121216,-1.1264066696166992,0.69411301612854,-1.6527032852172852,-1.7483195066452026,-1.8306725025177002,-1.1374274492263794,0.30830031633377075,0.7788280248641968,-0.37475088238716125,-0.2562543451786041,1.5555131435394287,-1.3271347284317017,1.7772893905639648,-0.1674540936946869,-2.1021006107330322,1.4814205169677734,0.009422890841960907,-2.0904428958892822,0.9036254286766052,-1.5048227310180664,-0.05381467938423157,1.992976188659668,2.480318307876587,-1.503450632095337,-0.1070769876241684,2.159924030303955,-0.35621288418769836,1.1846747398376465,-1.8100939989089966,-0.5942954421043396,-1.879016399383545,-1.2105058431625366,-1.1386390924453735,1.1546292304992676,1.0672013759613037,-0.09125978499650955,-1.2528607845306396,0.6810477375984192,0.10464706271886826,-1.4731452465057373,-1.3949928283691406,-1.4820314645767212,-1.4248123168945312,1.9450604915618896,-3.876722812652588,-3.8456039428710938,2.343539237976074,-0.7301522493362427,3.602836847305298,1.3924331665039062,1.4698091745376587,-0.7760680913925171,2.044663667678833,2.1455891132354736,-1.0655701160430908,-1.7626774311065674,5.430182933807373,-0.6619144678115845,-0.6705649495124817,-0.9440258145332336,-1.8474438190460205,0.4704817533493042,-1.2977120876312256,-1.1867456436157227,-0.7402204275131226,-2.232180118560791,0.7857626676559448,1.9908926486968994,0.4347831606864929,-0.6095892190933228,-0.5669564008712769,-1.5960373878479004,-1.5337011814117432,-0.9956952333450317,2.056591033935547,2.1460323333740234,-1.891374945640564,-0.9086214303970337,-0.7876100540161133,-0.5679762959480286,-0.7253428101539612,-1.4333335161209106,-3.0159149169921875,-1.2725228071212769,-2.038602828979492,-1.7959026098251343,-1.2090959548950195,-0.6256651878356934,4.137039661407471,0.17392462491989136,-5.023526191711426,-1.7357999086380005,-0.6708760857582092,-0.46734634041786194,-0.4722681939601898,-1.679522156715393,0.2380848228931427,3.851741075515747,-0.5311286449432373,0.11387227475643158,-3.1837406158447266],[-0.22255165874958038,-0.11554163694381714,-0.1719251573085785,-0.10950421541929245,-0.9495444893836975,-2.353163480758667,-0.7101744413375854,-1.0905475616455078,2.801757574081421,-0.2584550976753235,1.4835379123687744,-3.5830671787261963,0.6329768896102905,0.34684768319129944,0.24450074136257172,-0.526811957359314,-0.5668087005615234,-0.9435746669769287,0.6027333736419678,1.796589970588684,-0.5312983989715576,-1.6049671173095703,-2.959749698638916,-1.4381054639816284,1.1497037410736084,-1.5811102390289307,-0.4857824742794037,-0.5808829069137573,-1.6488618850708008,-1.2836381196975708,-1.2243587970733643,-0.7199735641479492,-0.47503477334976196,0.8451004028320312,-0.5144137144088745,2.6300830841064453,-1.9075486660003662,-0.928303599357605,0.5041959285736084,0.8005335927009583,1.189441204071045,-2.1762781143188477,-0.6002028584480286,-1.0681169033050537,-2.093914747238159,-0.905899167060852,-0.444866806268692,-2.2198338508605957,-0.5144056677818298,-3.5506789684295654,-0.25618743896484375,-0.7157115936279297,-0.8439026474952698,4.259761333465576,-0.510891854763031,-3.250250816345215,-0.5764528512954712,0.5516383051872253,-2.1200807094573975,1.2065080404281616,-2.8065781593322754,-0.9717873930931091,-0.4416322410106659,-2.260544538497925,-1.6379656791687012,-2.7460358142852783,-0.8856471180915833,-1.3697962760925293,2.216256856918335,-0.8145358562469482,-1.1990751028060913,-1.5976561307907104,0.9284505844116211,-0.6016801595687866,-0.8447049856185913,-0.9271596074104309,-0.4291382431983948,-0.5501899123191833,-1.88251531124115,-0.5875793099403381,-1.2255874872207642,-1.9809675216674805,-0.7129879593849182,-0.7434907555580139,-0.7092921733856201,-0.7230646014213562,1.6698219776153564,-0.9300886988639832,-1.0618929862976074,-0.32900741696357727,-0.8600723147392273,-0.9014162421226501,-0.48827579617500305,-0.40889742970466614,-1.4104620218276978,-0.2484005242586136,-0.3530450165271759,-1.9065364599227905,-1.0984855890274048,-1.4534566402435303,-0.5992224812507629,-0.5052403211593628,-1.2754886150360107,-0.38101109862327576,-3.0275840759277344,-2.5006489753723145,-2.496579170227051,-1.136533260345459,-6.070133209228516,-2.1474125385284424,-0.9729297161102295,-0.7724962830543518,-0.3977512717247009,-0.3244880735874176,2.211047887802124,2.0656750202178955,-0.9094787836074829,-1.3424168825149536,-1.3614542484283447,-0.3518330156803131,-0.5695539712905884,-0.6089967489242554,-0.3919711112976074,-0.5739209651947021,-0.4231734573841095,-0.4346708655357361,-0.460132360458374,-0.5011497735977173,3.0638163089752197,-5.913845539093018,-0.3313635587692261,-0.37925583124160767,-0.6904178261756897,-0.5224883556365967,-0.3268340826034546,-1.717810869216919,-0.2415781468153,-0.24837754666805267,-0.493165522813797,0.6474863290786743,-1.6939258575439453,-0.004641521256417036,-0.36614280939102173,-0.33847782015800476],[0.3889612853527069,0.4306158423423767,0.353760689496994,-0.05758950859308243,0.5108151435852051,0.2080523669719696,0.9228757619857788,-0.018794342875480652,0.47777020931243896,0.9615557193756104,-0.43129128217697144,0.47352567315101624,-0.9046739935874939,0.9247435927391052,1.6711920499801636,-0.4726096987724304,-0.5168759226799011,-1.1693168878555298,-1.0159320831298828,0.32202136516571045,-4.425881385803223,-1.3090265989303589,-0.32648974657058716,-0.34605833888053894,-0.7823683023452759,0.21918344497680664,-0.3350965082645416,0.785978376865387,-1.0136159658432007,-1.7068949937820435,1.358726978302002,0.11445921659469604,-0.5885577201843262,-1.013095736503601,1.3258309364318848,-0.26749664545059204,-1.7393511533737183,0.35379379987716675,0.12263805419206619,0.18701569736003876,-1.314644455909729,-1.3029850721359253,-2.87056565284729,0.06683804094791412,0.18603013455867767,0.9961440563201904,3.676584482192993,-0.9511758089065552,-0.3855644762516022,0.9338502287864685,0.9868345856666565,-0.3898126482963562,1.9339462518692017,-0.09431485086679459,1.5054410696029663,1.0615381002426147,-0.4205814003944397,-1.0652549266815186,2.3668200969696045,-5.022700786590576,-0.642295777797699,-1.0468924045562744,1.386362910270691,-1.1237902641296387,-1.372101068496704,-1.0666460990905762,2.8237545490264893,-1.4150434732437134,1.0082948207855225,0.19275341928005219,0.7307049036026001,-2.1659393310546875,-3.3064775466918945,0.6578426957130432,-1.6393136978149414,-1.5851635932922363,-0.7004319429397583,-0.6639578938484192,-0.6944300532341003,-1.422067403793335,-2.113481283187866,-0.557755708694458,-1.4231103658676147,-1.4650986194610596,-1.434397578239441,-1.5655611753463745,-0.6668898463249207,0.41106101870536804,-4.577263355255127,-0.6485633254051208,0.7255327105522156,1.1178058385849,-1.328794002532959,-1.1654086112976074,-2.66674542427063,-1.4344602823257446,-1.4086116552352905,-1.981207251548767,-0.9442496299743652,4.752195358276367,3.5960001945495605,3.629493474960327,-0.9578505754470825,-0.7433023452758789,-1.4843302965164185,-2.4655954837799072,-2.5550637245178223,-0.6795570254325867,-0.9319680333137512,-0.600521981716156,-0.5867143273353577,-0.475232869386673,-0.47086259722709656,-0.5523608922958374,-0.890663743019104,-0.8594308495521545,-1.087561845779419,-1.299268364906311,-1.3278075456619263,5.0783891677856445,-0.746758759021759,-0.6827850341796875,-0.7549951672554016,-2.7962465286254883,-1.298922061920166,-0.6945878863334656,-0.7674286365509033,-1.2453216314315796,-1.146038293838501,-0.5494977831840515,-0.5297765135765076,-1.34456205368042,-0.8217528462409973,-0.7513454556465149,-3.2196784019470215,-1.5031298398971558,-0.763727605342865,-0.7260138392448425,-1.3375507593154907,-5.33353853225708,1.9423574209213257,-0.12949751317501068,0.35657799243927,-3.6525468826293945],[-0.24599047005176544,-1.7708461284637451,-0.2228078842163086,-0.29049819707870483,-0.6933339238166809,-0.08051491528749466,-0.4945515990257263,-0.937515377998352,1.5693572759628296,-0.17657433450222015,-0.02402581460773945,-1.9400415420532227,0.3755519390106201,-2.3811988830566406,-1.487900733947754,-0.38958173990249634,-0.3946560323238373,-0.6549709439277649,0.29048624634742737,-4.322312831878662,-0.521504282951355,-1.1884899139404297,2.1695172786712646,-2.303260326385498,0.74561607837677,-2.1575231552124023,0.3338128626346588,-0.5291453003883362,-1.34993314743042,-1.4883832931518555,0.09256697446107864,0.5394303798675537,-0.7730302810668945,-0.4111654460430145,-1.853261113166809,2.189293622970581,-1.7361279726028442,1.9566437005996704,-0.6595879197120667,1.0617448091506958,0.6505011320114136,1.2853549718856812,-0.7605687379837036,-1.0611342191696167,-2.054187059402466,-0.36273640394210815,-0.4477960765361786,0.4371764361858368,-0.8139033913612366,2.801103353500366,-1.2156801223754883,3.8108417987823486,1.7484889030456543,-1.3929343223571777,-0.2846420109272003,0.5400919318199158,-1.285833716392517,-2.8482608795166016,-1.4070125818252563,-1.5629814863204956,-2.4499428272247314,5.359652996063232,-0.47331634163856506,2.664074420928955,4.44642448425293,3.8619654178619385,-1.8728878498077393,-0.3571862280368805,-4.310805320739746,-0.9092718362808228,2.1785011291503906,-0.490287721157074,-1.0031238794326782,-0.5369730591773987,-1.4136886596679688,-1.4676681756973267,-0.807561457157135,-0.8270223140716553,2.445619583129883,-0.6315439939498901,-0.8989775776863098,2.63777232170105,-0.7753391861915588,-0.747843861579895,-0.813137948513031,-0.7888752818107605,-0.9948863983154297,-0.9416503310203552,1.0503097772598267,-0.9631612300872803,-0.3131321370601654,-0.4384934902191162,-0.27934300899505615,-0.4101333022117615,-1.783671498298645,-0.3448773920536041,-0.26805880665779114,-1.6160829067230225,-1.12791907787323,3.8905527591705322,-1.5413657426834106,-1.4676586389541626,4.091028213500977,-1.1966642141342163,-0.3473898470401764,-2.1315934658050537,-2.005725622177124,-0.7627887725830078,-0.4716379940509796,-1.5128120183944702,-0.429404079914093,-1.8072699308395386,-1.3296955823898315,-1.3120458126068115,-1.5945805311203003,-1.5258159637451172,-0.456097275018692,-0.6837475299835205,-0.753780722618103,-0.42899975180625916,-0.4293142259120941,-0.527921199798584,-0.5995938777923584,-1.562294363975525,-0.24053522944450378,-0.3963356912136078,-0.5051462650299072,-0.8902781009674072,-1.3724205493927002,-1.6533490419387817,-0.9317744374275208,-1.2328003644943237,-0.3857581615447998,-1.761770486831665,-0.35615992546081543,-0.6804394721984863,-0.2687244713306427,-0.4031386375427246,-2.767798900604248,-0.6442738771438599,0.7950865626335144,-0.4310067296028137,-0.49214428663253784,0.3335711658000946],[-0.018797775730490685,0.1317092329263687,-0.3209310472011566,-2.0235044956207275,0.00811229832470417,0.13353563845157623,0.29599618911743164,-0.1153876855969429,0.24030466377735138,-1.7694159746170044,0.35837939381599426,-0.4277518689632416,0.7297921776771545,0.5064756870269775,1.258665680885315,0.675940990447998,0.6765705943107605,0.3453913927078247,-1.4315109252929688,0.012810464948415756,0.5662090182304382,-0.8478653430938721,-0.652121365070343,0.6561475396156311,-0.4682026505470276,0.09332851320505142,0.8008255958557129,1.9961966276168823,-1.6364350318908691,-2.0987062454223633,1.7922314405441284,-0.08543024212121964,-1.3444243669509888,-1.4788312911987305,-0.26114681363105774,-0.31914764642715454,-0.13615739345550537,0.4666449725627899,3.788755178451538,-1.1759841442108154,0.3556453585624695,-0.6839690208435059,0.7380547523498535,0.4417492151260376,0.7226815819740295,-1.2256650924682617,-0.23576971888542175,0.47862979769706726,0.7365709543228149,0.12429043650627136,-0.34693652391433716,-1.1234456300735474,-0.8814513087272644,-0.6362189054489136,2.0099940299987793,-1.6760188341140747,-1.1925052404403687,-0.23828861117362976,-0.3811466693878174,-3.865114450454712,-3.312058687210083,-4.916101455688477,-1.0231810808181763,1.9015105962753296,-2.7461092472076416,1.024781346321106,-0.25566163659095764,-1.5829428434371948,-2.5712406635284424,-1.7424957752227783,-1.279160976409912,-1.4882134199142456,-0.03459858149290085,-1.5687583684921265,-1.623836636543274,-1.4798200130462646,-0.6331269145011902,-0.7168740630149841,-3.2672150135040283,-2.487792730331421,-0.926861047744751,2.2743144035339355,-1.3900500535964966,-1.3077261447906494,-1.2632219791412354,-1.2941149473190308,8.366878509521484,3.724316358566284,2.3222641944885254,-0.5704740285873413,4.987086296081543,-3.0184967517852783,-1.0755689144134521,-1.2167633771896362,-1.1475764513015747,-2.5271570682525635,-2.4283225536346436,-0.809527575969696,-2.4683291912078857,-0.6914604306221008,-1.8549132347106934,-1.9500789642333984,-0.7072398662567139,-2.092358112335205,-1.049660563468933,-0.6439061164855957,-0.7864471077919006,-1.758405089378357,-2.1570894718170166,2.389394760131836,-0.7106437683105469,-0.7345260977745056,-0.48684754967689514,-0.4797224998474121,-0.7300183773040771,-0.6878310441970825,-0.8900705575942993,-0.9806525111198425,-0.9123024940490723,-2.9311747550964355,-1.2744510173797607,-1.3700722455978394,-1.946912407875061,-1.1110851764678955,-1.0979070663452148,-0.9237154722213745,-0.7755796313285828,5.359144687652588,-0.7370691895484924,-0.7096017003059387,-0.5021409392356873,0.2787286043167114,-0.8029974102973938,-2.9699790477752686,-1.0944979190826416,3.7420637607574463,-0.514870285987854,-0.5543448328971863,-0.6466354727745056,3.5913755893707275,-1.8176385164260864,0.22089339792728424,-0.0031880950555205345,-0.7460808157920837],[0.16184185445308685,-1.2716070413589478,0.2595677673816681,-1.172694206237793,-1.230033040046692,-0.5311574935913086,-1.1112204790115356,0.22500236332416534,0.8623466491699219,-1.063907265663147,-1.0918505191802979,-0.9992326498031616,0.44110924005508423,-0.47506752610206604,-1.2971524000167847,-1.0792115926742554,-1.1461050510406494,1.1652672290802002,-1.5869539976119995,0.9630352258682251,-1.2124348878860474,-1.4451606273651123,4.238330364227295,-0.6423255801200867,0.9485148191452026,-4.4078168869018555,-0.3648117184638977,0.8446438908576965,-1.2901760339736938,-1.7173980474472046,0.3958682119846344,1.261304259300232,0.9714264869689941,-1.7190427780151367,0.04829561337828636,-2.666349411010742,-1.321386456489563,-1.3912650346755981,-2.191202163696289,-4.0898118019104,2.196002960205078,-1.644311547279358,0.7680405974388123,2.721201181411743,0.133638396859169,-0.9587231874465942,-1.0457417964935303,-1.3558686971664429,-0.7177881002426147,1.0500562191009521,2.101630210876465,0.9934414625167847,-0.10067665576934814,-0.3981340229511261,-1.9445298910140991,4.175497055053711,1.0333431959152222,0.01788429357111454,0.39671704173088074,2.5475642681121826,-1.5414981842041016,0.4830218255519867,-1.2545865774154663,-3.367323398590088,-0.39489051699638367,2.0021677017211914,-4.631465435028076,-0.8856191635131836,6.276213645935059,1.164784550666809,-0.8235888481140137,-0.6195722222328186,-0.880954921245575,-0.9001923203468323,1.18764328956604,1.2273939847946167,-1.087622046470642,-1.053466796875,2.450179100036621,-0.6474236845970154,-1.3503953218460083,0.10589665919542313,-4.108748912811279,-4.081064701080322,-4.085939407348633,-4.046119689941406,-1.3028813600540161,-5.365920543670654,7.452568531036377,-0.759696900844574,-1.6979308128356934,4.358990669250488,-1.2981632947921753,-1.2899810075759888,1.3930574655532837,-1.602102518081665,-1.65830659866333,-1.4653446674346924,3.797285556793213,-1.6355711221694946,-2.803184747695923,-2.775818347930908,-1.3280993700027466,0.7237142324447632,-0.8122389912605286,-1.445167899131775,-1.4201407432556152,-1.937875509262085,-0.6202852725982666,-2.029642105102539,-0.6543324589729309,7.685195446014404,-0.7367124557495117,-0.6352675557136536,-2.095959186553955,-2.1662797927856445,-1.879719853401184,-0.6781632900238037,-0.6950201988220215,-5.961189270019531,-1.5678036212921143,-1.4871172904968262,-0.418279767036438,-1.029640555381775,-0.4827271103858948,3.7220747470855713,-0.43186885118484497,-0.37802809476852417,-1.5437896251678467,-2.889503240585327,-0.3852851986885071,-6.099879264831543,-0.4815538227558136,-1.366591215133667,-0.6053721308708191,-1.0119071006774902,-0.4779702425003052,4.767610549926758,-1.1394044160842896,-0.9648114442825317,0.06529215723276138,-0.7403945326805115,0.3139341473579407,4.013444900512695],[0.09796038269996643,0.15950778126716614,0.14701995253562927,0.07814536988735199,0.4231716990470886,-0.04124375805258751,1.0173020362854004,0.29647085070610046,-1.0595201253890991,-0.5154337286949158,0.09277696162462234,1.1010991334915161,0.777492344379425,-0.4780995547771454,-1.0914250612258911,1.3667973279953003,1.3963077068328857,-0.3110369145870209,-1.859316349029541,-0.2547804117202759,1.68121337890625,-1.9131628274917603,-0.5436721444129944,-0.16234497725963593,-0.9698176383972168,-0.2823491394519806,0.2535172700881958,-0.13247618079185486,2.774064540863037,0.32867905497550964,0.8920772075653076,0.05639936774969101,-1.335033893585205,-1.198081374168396,0.5971484184265137,-0.37864288687705994,-0.8726410865783691,-0.20259766280651093,-0.0005878971423953772,-0.79757159948349,-0.8113290667533875,-2.3747048377990723,-0.8450659513473511,0.777488648891449,-0.18808557093143463,-2.1339967250823975,-0.7869606018066406,-1.1133649349212646,-0.9373877048492432,-0.038636915385723114,-0.6122809648513794,-0.7830487489700317,0.14871443808078766,-0.22548380494117737,0.3163217008113861,-0.6610383987426758,-0.7887351512908936,1.699061632156372,0.8237214088439941,-1.2022583484649658,-0.9000287652015686,-1.6155730485916138,-2.067685127258301,1.0270516872406006,1.6776554584503174,-1.2586941719055176,0.017691727727651596,-2.250211238861084,1.065162181854248,0.6944790482521057,0.7703911662101746,-2.1272401809692383,-0.6679086685180664,1.7241722345352173,-0.6052256226539612,-0.6520376801490784,-0.7660313844680786,-0.7759684920310974,2.025892496109009,-0.6200305223464966,-0.9237824082374573,-1.8964275121688843,-1.1548871994018555,-1.103190541267395,-1.0585224628448486,-1.082269310951233,-1.6748287677764893,1.2963935136795044,1.4135959148406982,-0.5332320928573608,-1.2765483856201172,-2.7069437503814697,-1.2904435396194458,-1.4010545015335083,-0.56776362657547,-0.8799548745155334,-0.8000897765159607,-1.6461939811706543,-0.5963335037231445,-3.1426377296447754,-0.8646872043609619,-0.8858917951583862,-0.999888002872467,-0.7444368600845337,-0.3430465757846832,-1.924080729484558,-1.903950810432434,-0.7455945611000061,0.30103039741516113,-3.96677827835083,-3.4164345264434814,-2.130221128463745,-0.4833197593688965,-0.5190587639808655,-0.8050293922424316,-0.8310811519622803,-0.9756217002868652,-2.140136957168579,-2.137373208999634,-6.133947849273682,-0.8273507356643677,-0.8795346021652222,-0.6222179532051086,-0.9945541620254517,1.0676676034927368,-2.797991991043091,2.578645944595337,-3.833962917327881,-0.7607269287109375,-0.8146876692771912,-0.45566239953041077,2.76892352104187,0.3631175756454468,-4.7133893966674805,5.785486221313477,-2.0333096981048584,-0.5015730857849121,-0.4801866114139557,-0.7099257111549377,2.8820228576660156,-0.3869781196117401,-0.016113940626382828,0.026907412335276604,4.3534770011901855],[-0.30776843428611755,-0.7901856303215027,0.6245302557945251,-0.7218059301376343,-0.6530008912086487,1.895973801612854,-0.599605143070221,-1.6900068521499634,-2.1793532371520996,-1.0047897100448608,-0.5550246834754944,1.3062195777893066,1.185610055923462,0.9895551204681396,-0.9148175716400146,-0.7644460797309875,-0.6898534297943115,-0.6995564699172974,-0.9095674157142639,1.4726284742355347,-0.8103188276290894,-0.8025826215744019,-0.5730922818183899,-1.0776128768920898,0.3801206052303314,-0.31413742899894714,1.4886009693145752,0.4637572467327118,-0.7861493229866028,-0.9956849217414856,-0.404626727104187,-0.30966871976852417,0.4646194577217102,-0.8314067721366882,-0.9315483570098877,-4.019377708435059,-0.7480127811431885,-4.339219093322754,0.6722643971443176,-0.42501363158226013,3.799825429916382,-0.8548296093940735,0.49601519107818604,-0.558153510093689,-1.4807369709014893,-0.5432924628257751,-0.4615383446216583,-0.6865701675415039,-3.0523135662078857,0.4741397500038147,-5.5242085456848145,0.6460980176925659,-1.593213677406311,-4.071320056915283,-0.5828956365585327,-0.3227464556694031,0.6330281496047974,5.507741928100586,-0.6396536231040955,1.9291023015975952,-0.8405923247337341,-4.2241902351379395,-0.5795114040374756,-0.6092416644096375,-5.330198287963867,-0.6463066339492798,-1.0122121572494507,-0.4083922207355499,-0.557216227054596,-4.207988262176514,0.6826055645942688,-0.553182065486908,-0.6385493278503418,-0.3297775983810425,0.6759566068649292,0.8231914639472961,-0.48636704683303833,-0.5378873348236084,3.15832257270813,-1.7804330587387085,-3.5181350708007812,-5.167547702789307,-0.5631633996963501,-0.49720266461372375,-0.6179683208465576,-0.5522257685661316,-0.3962841033935547,-2.4174118041992188,-1.6592302322387695,-0.5487208366394043,-4.695594310760498,-0.900604784488678,-0.3052766025066376,-0.36408159136772156,1.6967817544937134,-1.2584494352340698,-1.259835958480835,-0.665054976940155,-0.39909178018569946,-0.2968229353427887,-1.912854552268982,-1.907488465309143,-0.769469141960144,-4.125410556793213,-0.4645305573940277,-0.49261602759361267,-0.49069473147392273,-1.3384642601013184,-0.30848413705825806,-1.5774152278900146,-0.41924622654914856,-0.43289944529533386,-0.387142539024353,-0.48028433322906494,-0.4532979428768158,-0.5646451711654663,-0.6673837304115295,-0.3248889744281769,-0.3848213851451874,-1.9678905010223389,-0.6590725183486938,-0.78081214427948,-3.912480115890503,-1.3511157035827637,-0.32010617852211,-0.44070175290107727,-0.2718658745288849,-0.3370322287082672,-0.47217971086502075,-0.48494255542755127,-0.3526575565338135,-0.628365695476532,-0.27943679690361023,-0.6633700132369995,-0.42886242270469666,-0.7107884883880615,-0.25862643122673035,-1.1746588945388794,-0.5930988192558289,1.6294381618499756,-1.0788145065307617,0.012117153964936733,-0.5699818730354309,-0.28282228112220764],[-0.2319464236497879,-0.20492838323116302,-0.7701048851013184,-0.012061841785907745,0.2526372969150543,-0.6300139427185059,0.23355631530284882,0.3827210068702698,1.7032122611999512,-1.2698932886123657,-1.8055800199508667,-1.9182008504867554,-1.258376121520996,-0.4211713969707489,-0.16345322132110596,-2.4737319946289062,-2.5552754402160645,1.0727686882019043,-1.4332857131958008,1.0570498704910278,-2.648737668991089,-1.7525967359542847,0.4230054020881653,1.8580162525177002,-1.226196527481079,3.0490262508392334,-0.9520007967948914,-0.9135080575942993,-1.090060830116272,2.111593723297119,2.613805055618286,0.9918438792228699,-3.5139946937561035,-1.1966813802719116,1.0816274881362915,0.2511393129825592,-4.652189254760742,-0.2583525478839874,0.6538733839988708,-1.5004150867462158,0.8233098387718201,-1.7958786487579346,-0.7965295314788818,-1.048614263534546,0.7982926964759827,1.7991482019424438,-2.2305262088775635,-1.4127341508865356,1.0531474351882935,1.778894066810608,4.642873764038086,-1.040310263633728,0.5537877678871155,-0.4478868842124939,-0.7539362907409668,-2.4461827278137207,-1.0394662618637085,0.8032836318016052,-7.784536838531494,1.7321053743362427,-0.7607114315032959,2.094513177871704,-2.238260507583618,5.159181594848633,0.886847198009491,-2.463146924972534,4.022443771362305,2.410619020462036,0.06698291748762131,0.7590797543525696,1.3044824600219727,1.9077832698822021,-5.189449310302734,-2.483492374420166,-0.7696696519851685,-0.6824127435684204,-1.288311243057251,-1.3796223402023315,-2.61572003364563,-1.0584452152252197,0.9277450442314148,-2.8552894592285156,-2.3205490112304688,-2.266784906387329,-2.226750373840332,-2.270270586013794,-3.1222620010375977,-2.1715128421783447,-3.2402355670928955,-0.6675657033920288,4.667324066162109,-1.8173590898513794,1.253973126411438,1.235395073890686,-0.4838220477104187,-0.766683042049408,-0.8639429807662964,-2.4707322120666504,1.7600386142730713,-4.190985202789307,-1.3610483407974243,-1.4403518438339233,-0.9228562712669373,-1.2771475315093994,-0.8851938843727112,-2.7405447959899902,-2.8099913597106934,-0.791955292224884,5.439999103546143,-0.2066388726234436,-1.2725242376327515,-1.066609263420105,-0.5578696131706238,-0.48001495003700256,-0.9548132419586182,-0.8979281187057495,-1.1968064308166504,-2.7600269317626953,-2.8387646675109863,-3.853271007537842,-1.130852222442627,-1.063787817955017,-0.5499894022941589,-2.732882022857666,-2.60768723487854,-0.7320274114608765,-1.6964175701141357,0.1458727866411209,-0.6886911988258362,-1.1971299648284912,-0.5635939240455627,-1.7437750101089478,-0.7571814060211182,-3.7276105880737305,-0.6340734958648682,-0.6354610919952393,-0.5021259784698486,-0.3265278935432434,-2.355386972427368,-6.334039211273193,3.4055466651916504,-0.40465861558914185,0.6708073019981384,3.198139190673828],[-0.3246578872203827,-0.33881404995918274,-0.26007598638534546,-0.21639592945575714,-0.31974920630455017,-0.3264458477497101,-0.22797800600528717,-0.3471694588661194,-0.3595851957798004,-0.1950988620519638,-0.2061155140399933,-0.3334921598434448,-0.20932738482952118,-0.2055061161518097,-0.35129284858703613,-0.27652207016944885,-0.1927070915699005,-0.2096143364906311,-0.321725994348526,-0.25263264775276184,-0.2570302188396454,-0.31666216254234314,-0.3505074679851532,-0.3143576383590698,-0.24039864540100098,-0.2493358701467514,-0.30068203806877136,-0.34625378251075745,-0.21083442866802216,-0.34706443548202515,-0.2288821041584015,-0.2523672580718994,-0.2324320524930954,-0.2166055142879486,-0.2742173373699188,-0.2886795401573181,-0.24155962467193604,-0.2337460219860077,-0.33550745248794556,-0.3437356650829315,-0.20018978416919708,-0.3228010833263397,-0.20543943345546722,-0.2261897474527359,-0.2140505462884903,-0.2268865704536438,-0.2530764639377594,-0.22235004603862762,-0.3168257474899292,-0.2758702039718628,-0.24380134046077728,-0.2196912318468094,-0.34989696741104126,-0.252450555562973,-0.2776181101799011,-0.26074081659317017,-0.315442830324173,-0.31230995059013367,-0.25293993949890137,-0.29409465193748474,-0.26220378279685974,-0.31827670335769653,-0.3546670377254486,-0.20720604062080383,-0.3248313367366791,-0.21458736062049866,-0.21589024364948273,-0.32705074548721313,-0.3121362328529358,-0.345976322889328,-0.333957701921463,-0.35309356451034546,-0.29277434945106506,-0.30915841460227966,-0.31013914942741394,-0.3032565414905548,-0.2965463697910309,-0.28361085057258606,-0.30559539794921875,-0.26363101601600647,-0.28620585799217224,-0.25062212347984314,-0.3597172796726227,-0.26888012886047363,-0.3774634003639221,-0.24858883023262024,-0.3505318760871887,-0.25848057866096497,-0.2970006465911865,-0.3658903241157532,-0.3548146188259125,-0.2836061716079712,-0.3009050488471985,-0.24577659368515015,-0.2784081995487213,-0.22013261914253235,-0.274484783411026,-0.3156757056713104,-0.24873846769332886,-0.3681443929672241,-0.3317013382911682,-0.29332560300827026,-0.25143975019454956,-0.2885584831237793,-0.3432159721851349,-0.3125719130039215,-0.2634413242340088,-0.26362907886505127,-0.2616741955280304,-0.2749198079109192,-0.27617353200912476,-0.28221696615219116,-0.3391873836517334,-0.3388430178165436,-0.3665858507156372,-0.2823956608772278,-0.23510268330574036,-0.33836737275123596,-0.3587888777256012,-0.2936452627182007,-0.36900973320007324,-0.38921862840652466,-0.2645542323589325,-0.36850056052207947,-0.3295428454875946,-0.4042198956012726,-0.20532749593257904,-0.2691724896430969,-0.22102904319763184,-0.3422551453113556,-0.3219224810600281,-0.23605233430862427,-0.19888198375701904,-0.19809144735336304,-0.2493041455745697,-0.3786158263683319,-0.322016179561615,-0.26237019896507263,-0.21126247942447662,-0.31830254197120667,-0.29968228936195374,-0.33280837535858154,-0.21439170837402344,-0.23447361588478088],[0.2702137529850006,0.2801746726036072,0.2737058401107788,1.1369800567626953,-0.019854610785841942,0.20141303539276123,0.32204148173332214,0.5879575610160828,0.3084401786327362,0.05480838567018509,-0.11493322253227234,0.40791407227516174,-0.08137580007314682,0.026357881724834442,-0.24951326847076416,0.6994964480400085,0.6117517948150635,0.8365691304206848,-0.08425561338663101,0.6498095393180847,1.2962342500686646,-1.2903763055801392,-0.8058878183364868,-0.2620485723018646,1.0000395774841309,0.2859787344932556,0.2065681517124176,-1.9994865655899048,-2.1810033321380615,2.8242311477661133,0.2533390522003174,-0.4846523106098175,-1.862291693687439,-3.0773603916168213,0.023855285719037056,0.1065165102481842,-1.7432940006256104,-0.12716713547706604,1.356595754623413,1.2222707271575928,0.21047011017799377,-1.4695597887039185,1.4322482347488403,0.32531002163887024,-0.22183015942573547,-0.1594444215297699,-2.0221588611602783,0.675596296787262,-0.13465988636016846,0.6174540519714355,0.8005762100219727,0.15519587695598602,-0.4830605983734131,0.4421149492263794,-2.5755198001861572,0.4219099283218384,0.42050108313560486,0.07417599856853485,1.6080265045166016,-0.4493861794471741,2.27409291267395,0.8655999898910522,-1.356928825378418,-0.7427271008491516,0.3834282159805298,0.05522806942462921,0.5851098299026489,2.370243787765503,0.5443874597549438,1.5332162380218506,-0.0317007414996624,0.6466966867446899,-0.07791462540626526,0.11933790892362595,-1.146182894706726,-1.0067259073257446,-1.1745012998580933,-1.1140445470809937,-0.054937586188316345,-3.8920652866363525,-0.06123117730021477,-0.9499009251594543,-1.8800733089447021,-1.7936543226242065,-1.865057110786438,-1.8613731861114502,-1.8136595487594604,-0.9731106162071228,-0.6666272878646851,-0.8257945775985718,1.822160005569458,1.2937347888946533,-2.447843551635742,-2.408402919769287,-1.1480036973953247,