{"classes":["attack_or_other","boom","paralysis","recovery","sleep","switch"],"vocab":{"forced_switch=False":0,"has_boom=False":1,"has_para=True":2,"has_sleep=False":3,"has_recovery=True":4,"opponent_hp_bin=76-100":5,"active_move=thunderwave":6,"active_status=par":7,"opponent_status=par":8,"bucket=paralysis_spread":9,"active_hp_bin=76-100":10,"opponent_status=none":11,"active_status=none":12,"opponent_move=thunderwave":13,"opponent=chansey":14,"active=chansey":15,"active_move=softboiled":16,"opponent_move=icebeam":17,"active_move=bodyslam":18,"active_hp_bin=51-75":19,"active_move=icebeam":20,"active_move=rest":21,"opponent_move=softboiled":22,"player_alive=5":23,"has_recovery=False":24,"opponent_move=seismictoss":25,"player_alive=6":26,"has_sleep=True":27,"active_move=reflect":28,"active_move=thunderbolt":29,"bucket=low_hp_endgame":30,"opponent_alive=5":31,"active_move=psychic":32,"active_move=earthquake":33,"opponent_alive=6":34,"player_alive=4":35,"active_move=blizzard":36,"opponent_hp_bin=51-75":37,"opponent_move=bodyslam":38,"opponent_alive=2":39,"opponent_alive=4":40,"active=snorlax":41,"bucket=sleep_pressure":42,"player_alive=3":43,"opponent_alive=3":44,"active_move=recover":45,"active_move=seismictoss":46,"active_move=hyperbeam":47,"has_para=False":48,"active_hp_bin=26-50":49,"opponent_move=psychic":50,"has_boom=True":51,"opponent_move=blizzard":52,"opponent_hp_bin=26-50":53,"active_move=sing":54,"player_alive=2":55,"active_move=explosion":56,"opponent=alakazam":57,"opponent=starmie":58,"opponent=tauros":59,"active=tauros":60,"opponent=snorlax":61,"active=alakazam":62,"opponent_move=surf":63,"active_hp_bin=1-25":64,"opponent_move=recover":65,"opponent_move=thunderbolt":66,"active_move=surf":67,"opponent_hp_bin=1-25":68,"opponent=lapras":69,"opponent_move=earthquake":70,"active=starmie":71,"opponent_status=slp":72,"opponent_alive=1":73,"active=exeggutor":74,"active_move=sleeppowder":75,"active=cloyster":76,"active_move=clamp":77,"opponent_move=amnesia":78,"active_move=counter":79,"active_status=slp":80,"opponent=slowbro":81,"bucket=forced_switch":82,"active_status=fnt":83,"forced_switch=True":84,"active_hp_bin=0":85,"bucket=tauros_endgame":86,"opponent=exeggutor":87,"opponent=jolteon":88,"bucket=explosion_opportunity":89,"opponent=rhydon":90,"opponent_move=sleeppowder":91,"active=slowbro":92,"active_move=amnesia":93,"active_move=stunspore":94,"active=jynx":95,"active_move=lovelykiss":96,"active_move=agility":97,"player_alive=1":98,"opponent_move=doublekick":99,"active=gengar":100,"active_move=hypnosis":101,"active_move=selfdestruct":102,"active_move=megadrain":103,"active_move=toxic":104,"active=zapdos":105,"active_move=drillpeck":106,"active_move=fireblast":107,"opponent_status=frz":108,"opponent_move=hyperbeam":109,"opponent_move=fireblast":110,"opponent_move=rest":111,"opponent_status=fnt":112,"opponent_hp_bin=0":113,"active=rhydon":114,"active_move=substitute":115,"bucket=other":116,"active=jolteon":117,"active_move=doublekick":118,"active_status=frz":119,"active=moltres":120,"active_move=firespin":121,"active_move=doubleedge":122,"active_move=nightshade":123,"bucket=recovery_loop":124,"opponent_status=psn":125,"active_status=brn":126,"opponent_move=substitute":127,"active_move=rockslide":128,"active_move=tailwhip":129,"opponent_move=selfdestruct":130,"opponent_move=pinmissile":131,"opponent_status=tox":132,"opponent_move=rockslide":133,"bucket=chansey_mirror":134,"active=lapras":135,"opponent_move=explosion":136,"opponent_move=doubleedge":137,"bucket=snorlax_trade":138},"numeric_fields":["active_hp","opponent_hp","player_alive","opponent_alive","turn_index"],"weight":[[0.22386659681797028,0.1604822278022766,-0.12045884132385254,0.45297738909721375,-0.2720770239830017,-0.05409334972500801,-0.2983843684196472,0.04809354990720749,0.17125476896762848,0.16548384726047516,0.32265612483024597,-0.07868730276823044,0.2205982357263565,0.22552728652954102,0.12621918320655823,0.016188928857445717,0.07624594122171402,0.3120350241661072,0.2540682554244995,0.2660611569881439,0.28840288519859314,-0.5604772567749023,-0.19620932638645172,0.05644907057285309,0.876623809337616,0.26424354314804077,0.012753755785524845,-0.8862963318824768,-0.07651927322149277,0.6046434640884399,0.45782363414764404,-0.01001239474862814,0.7969269156455994,0.1620265692472458,0.1818593442440033,0.19488514959812164,0.2270878553390503,0.1613268405199051,-0.012001285329461098,-0.07524740695953369,0.15856298804283142,-0.243703231215477,-0.06602229923009872,-0.017667043954133987,0.2690430283546448,-0.0905500054359436,0.24899917840957642,0.06002548336982727,1.0724700689315796,0.024898825213313103,0.1279963105916977,-0.6065598130226135,0.24451522529125214,0.30522415041923523,-1.0819090604782104,0.5059905648231506,-0.28561729192733765,-0.057325221598148346,0.06414780020713806,0.19452254474163055,0.5200425386428833,0.4214646816253662,-0.13550809025764465,0.13347505033016205,-0.2519634962081909,-0.20382671058177948,0.45449313521385193,0.775467574596405,0.5048983693122864,0.07268786430358887,0.2877569794654846,-0.04794265702366829,0.22846989333629608,0.08650413900613785,-0.3849424719810486,-0.2869725525379181,0.6680959463119507,0.6586397886276245,0.2506667673587799,0.527678906917572,0.544200599193573,-0.6989516019821167,-1.1949833631515503,-1.1864839792251587,-1.2063260078430176,-1.192690372467041,-0.11175696551799774,0.18456703424453735,-0.16621004045009613,0.4829460680484772,0.21402248740196228,0.5948483347892761,0.2026468813419342,0.1606040745973587,-0.953582763671875,-0.09664735198020935,-0.0897124782204628,0.35426777601242065,0.39019471406936646,0.3360517919063568,-0.7269872426986694,-0.7461531758308411,-1.5457195043563843,0.26765748858451843,0.05226234346628189,0.15617376565933228,0.26911693811416626,-0.39139580726623535,0.4323689341545105,0.0666414350271225,0.3536095917224884,0.1432022899389267,-0.5000888705253601,-0.5178517699241638,-0.41496938467025757,-0.49491462111473083,-0.15605737268924713,0.11820966750383377,0.11023879796266556,1.338067889213562,0.868063747882843,0.8168975710868835,0.8222365379333496,1.440460443496704,1.044641137123108,0.4947017431259155,1.5883175134658813,0.5181077122688293,-0.1846361607313156,-0.5036979913711548,-0.5259034633636475,-0.7015770673751831,0.7850131988525391,1.5070823431015015,1.310021162033081,-2.0682520866394043,-0.48925381898880005,-3.121197462081909,1.3827885389328003,-0.7071793079376221,0.4160377085208893,0.06615045666694641,0.09659981727600098,0.5603609681129456],[-0.24666452407836914,-0.9212913513183594,-0.5389522314071655,-0.4145776033401489,-0.48498937487602234,-0.19041858613491058,-0.7388582229614258,-0.6399465203285217,-0.9137376546859741,-0.06854912638664246,0.032868340611457825,0.3314710259437561,0.3010055720806122,0.20638306438922882,0.008567992597818375,-0.8467502593994141,-0.8136052489280701,-1.7801653146743774,-0.24940268695354462,-0.6862136125564575,-0.5427693724632263,-0.29232916235923767,2.524827241897583,-0.4506406784057617,0.5585508346557617,-0.8963885307312012,-0.3208840489387512,0.26439186930656433,-0.6819311380386353,-0.037004150450229645,-0.30876946449279785,0.17446042597293854,-0.8154621124267578,-0.20313510298728943,0.07345086336135864,-0.3671056628227234,-0.7162215113639832,-0.6064385771751404,0.5730716586112976,0.5851460695266724,-0.04985824599862099,0.2541153132915497,-0.28143829107284546,0.7549058794975281,-1.4698630571365356,-0.5804409384727478,1.9985830783843994,0.05511260777711868,0.820466935634613,0.3402116000652313,-0.35822731256484985,1.2921475172042847,2.269590139389038,0.05895865708589554,-1.371074914932251,-1.1348086595535278,0.8611809611320496,1.2688719034194946,-1.808772087097168,0.43108728528022766,-0.9574525356292725,1.0277599096298218,-0.6759324669837952,0.5600724816322327,-0.4646558463573456,-0.14979498088359833,-2.263679027557373,-0.5500380396842957,-0.03679271042346954,-0.6472387313842773,-0.708191454410553,-0.5319574475288391,0.835147500038147,-1.2395325899124146,0.8232176899909973,0.7844073176383972,-0.224085733294487,-0.22859704494476318,0.9038063287734985,-0.37591537833213806,-0.5594882369041443,-0.2915933132171631,-1.3604060411453247,-1.402863621711731,-1.4444464445114136,-1.4250649213790894,-1.1145402193069458,-3.2313241958618164,-2.4542877674102783,3.3377065658569336,-0.43537306785583496,-1.2989487648010254,-0.5796582698822021,-0.634513795375824,0.270053505897522,-1.2602567672729492,-1.25105881690979,-0.588230550289154,1.903524398803711,5.193238735198975,0.8254615664482117,0.9096245765686035,3.2034928798675537,1.0568010807037354,-4.300265312194824,-0.4957481622695923,-0.5510449409484863,-0.6330370306968689,-1.2825151681900024,1.4126287698745728,-1.6684895753860474,-0.6271349191665649,-0.7716630697250366,-0.7421113848686218,-0.7976630926132202,-0.7767302989959717,-1.1677355766296387,-0.4212539792060852,-0.5126843452453613,-3.7601304054260254,-0.5563132166862488,-0.5819776654243469,1.4859445095062256,-0.16198325157165527,-0.45496878027915955,-2.224590301513672,-0.4737849235534668,-1.316192626953125,-0.7944546937942505,-0.6688904762268066,-0.3889399766921997,4.361621379852295,-0.4005762040615082,-2.582984447479248,-0.2853938937187195,-3.2348520755767822,-0.2568534016609192,-1.2083216905593872,-1.3942210674285889,0.12393707036972046,0.1160445585846901,-0.3184564411640167,-0.2297484576702118,-0.8248204588890076],[0.2999061644077301,0.17093732953071594,1.0553289651870728,0.354145348072052,-0.02729133516550064,0.19076591730117798,0.6227518916130066,0.3907780647277832,0.1819738894701004,0.7180131077766418,0.015218658372759819,-0.051721442490816116,0.439252108335495,-0.08714903891086578,0.0725686177611351,-0.31568461656570435,-0.4014567732810974,-0.24014072120189667,0.9494981169700623,0.47536197304725647,0.3146105110645294,0.3530953526496887,0.4496499300003052,-0.09247583150863647,-0.0010649773757904768,0.4971904456615448,-0.239320307970047,-0.672153651714325,-0.17424151301383972,-0.26723355054855347,-0.7646569609642029,-0.36031150817871094,0.9056680202484131,-0.27808913588523865,0.053542252629995346,-0.2006411999464035,-1.2572003602981567,0.012407883070409298,0.3765890598297119,0.5610637664794922,-0.388649046421051,0.6393205523490906,0.9280874729156494,-0.3476516902446747,0.021399863064289093,-0.3036026060581207,0.504327654838562,-0.07598245143890381,-2.253009796142578,0.15899915993213654,0.13345348834991455,-0.8544975519180298,0.3903389275074005,-0.1208995133638382,-0.047935161739587784,1.3417357206344604,-0.7101309895515442,0.5054876804351807,-0.1540992707014084,-0.34914472699165344,0.07886584103107452,0.21397092938423157,-1.5545412302017212,0.5913746356964111,-0.3626363277435303,-0.021213410422205925,0.7517409920692444,-0.7902318239212036,-0.4604490101337433,-0.25848594307899475,0.26647189259529114,1.03095543384552,0.18663974106311798,0.8645092844963074,-0.26573804020881653,-0.20926447212696075,-0.7204495668411255,-0.7705191969871521,0.293077290058136,0.9261118769645691,0.06885275989770889,0.6478049159049988,-1.2699588537216187,-1.2923235893249512,-1.251752495765686,-1.3291337490081787,-0.6159621477127075,0.08918380737304688,-0.5860440731048584,-0.6975035071372986,-0.19500800967216492,0.48179930448532104,0.521058201789856,0.5079860687255859,1.1199067831039429,-1.386387825012207,-1.4176418781280518,0.028163837268948555,1.007965087890625,-0.05906578525900841,-0.8068644404411316,-0.7989473342895508,0.12390483915805817,-1.6802589893341064,0.7141813635826111,0.680104672908783,0.7919325828552246,1.7833940982818604,-0.3361149728298187,-0.4542587995529175,0.9001953601837158,0.3161156177520752,-0.6047178506851196,-0.5661267042160034,0.6098765730857849,0.4812762439250946,-0.7357138991355896,0.19844144582748413,0.07321120798587799,0.3430006802082062,-1.6759735345840454,-1.633887767791748,-1.6401405334472656,-0.6791076064109802,-1.9591662883758545,1.5548930168151855,-3.087125062942505,-0.5435721278190613,0.16472594439983368,0.750114917755127,-0.535961925983429,-0.48301464319229126,-0.4039957523345947,-0.24124976992607117,-1.3130569458007812,-1.7750717401504517,-0.4199599623680115,-3.628267526626587,-0.693016529083252,0.12487451732158661,-1.0620733499526978,-0.012393448501825333,-0.13193963468074799,-1.845348596572876],[0.07575489580631256,0.09897268563508987,-0.04275144636631012,0.20503000915050507,0.712302565574646,0.04147906228899956,0.3037891685962677,0.06841173022985458,-0.425963819026947,0.7291664481163025,-0.21571364998817444,0.5605344176292419,0.12346717715263367,-0.26508834958076477,-0.5306938886642456,0.29704195261001587,0.3268495500087738,0.3346371650695801,-1.042434811592102,-0.12423838675022125,0.4830257296562195,0.714938223361969,-0.20445916056632996,-0.19392338395118713,-1.8791073560714722,0.25665777921676636,-0.16766060888767242,-0.6176490783691406,0.8941295146942139,-0.6016435623168945,-0.8827060461044312,-0.11628882586956024,-1.99366295337677,0.737949013710022,0.12254850566387177,-0.43912672996520996,0.42114773392677307,-0.18073955178260803,-0.15812987089157104,0.2757115960121155,-0.36254021525382996,-0.2066187709569931,-0.6833868026733398,0.09377878159284592,-0.46514540910720825,1.2902003526687622,-0.9382848739624023,-0.28945061564445496,0.7108837366104126,0.20086197555065155,-0.4455805718898773,-0.7169751524925232,-0.03795202076435089,-0.23370322585105896,-0.6947826743125916,1.2782961130142212,-0.7266871333122253,0.6575567126274109,0.425891637802124,0.32503950595855713,-1.4834883213043213,0.27610161900520325,1.8705626726150513,0.07372863590717316,1.211169958114624,-0.25995922088623047,0.5682393908500671,-0.5949600338935852,0.17001311480998993,0.11372055858373642,0.3866848945617676,0.3342929482460022,-0.8013921976089478,1.029937982559204,-0.7904655933380127,-0.8151069283485413,-0.503176748752594,-0.49202021956443787,-0.09317799657583237,-0.5166823267936707,0.010729465633630753,-0.013114246539771557,-1.0754735469818115,-1.0951728820800781,-1.1996030807495117,-1.2109556198120117,-1.8696178197860718,0.27666226029396057,-0.05474018678069115,1.535398006439209,-1.3936423063278198,-0.07272183895111084,0.20824192464351654,0.24849431216716766,-0.931622326374054,0.9361312389373779,1.020270586013794,-0.931461751461029,0.09398097544908524,-1.1827454566955566,-0.9718158841133118,-1.0170080661773682,-0.18024562299251556,-0.7739156484603882,1.9648406505584717,-1.2105764150619507,-1.0795971155166626,-0.7944801449775696,0.7850846648216248,-0.37750449776649475,0.7169122099876404,-0.44210681319236755,-0.4031071066856384,-0.48103490471839905,-0.9986172318458557,-0.9962040185928345,-1.5692079067230225,0.5480913519859314,0.6334325671195984,-1.124780535697937,-0.6204524636268616,-0.546023428440094,-0.7095312476158142,-0.8170227408409119,0.6174678802490234,-4.58087158203125,0.7619191408157349,-0.5198783278465271,-0.8639529943466187,-1.2184852361679077,-0.5331210494041443,1.0041474103927612,0.16703906655311584,-3.2073237895965576,2.742640495300293,-2.5950210094451904,-0.47901105880737305,-0.4999447166919708,-0.9877223372459412,0.732227087020874,0.17142589390277863,-0.08336449414491653,-0.13535255193710327,-0.7757859230041504],[-0.1504780650138855,-0.25454917550086975,-0.4630476236343384,-1.4906460046768188,-0.2528761327266693,-0.11996055394411087,-0.2038544863462448,0.12207020074129105,-0.050446104258298874,-1.2114216089248657,0.10116853564977646,-0.6966278553009033,-0.33395692706108093,0.042878903448581696,0.2749857008457184,0.25731605291366577,0.24874675273895264,0.5666806101799011,-0.9741261005401611,-0.4781745970249176,-0.34747323393821716,-0.38341668248176575,0.006733597256243229,0.2858428955078125,-0.4855784773826599,-0.5522249937057495,0.3118909001350403,1.4704444408416748,-1.2155534029006958,-1.6080100536346436,1.6727523803710938,0.20912593603134155,1.0149420499801636,-0.9228138327598572,-0.34714558720588684,0.326707661151886,-0.12363475561141968,-0.04072826728224754,0.024997742846608162,-1.939753770828247,0.343814879655838,-0.6923823952674866,-0.17305006086826324,-0.044817764312028885,0.9171956181526184,-0.9596458077430725,-0.25786092877388,-0.7966362237930298,0.35413607954978943,-0.21252332627773285,1.063124418258667,-0.17555470764636993,-0.9128481149673462,-0.2945806384086609,1.5661031007766724,-2.4175472259521484,-0.03258243948221207,-1.4829821586608887,-0.2718844413757324,-0.507198691368103,-1.5187525749206543,-1.4499220848083496,-1.1680132150650024,0.49945658445358276,-0.45736148953437805,0.7788041234016418,-0.2503264844417572,-0.9533408284187317,-1.1387922763824463,0.4189210832118988,-0.8000363111495972,-0.8218809366226196,0.5836828351020813,-2.000267505645752,0.2002803534269333,0.20291085541248322,-1.2475440502166748,-1.3245227336883545,-0.455305814743042,-1.6610474586486816,-0.6668359637260437,0.5267191529273987,-1.2995615005493164,-1.4486973285675049,-1.3504447937011719,-1.4218477010726929,6.096961498260498,-0.053545694798231125,0.32396623492240906,-1.0795941352844238,1.8665895462036133,-0.9292917847633362,-1.213362216949463,-1.2358170747756958,1.018904209136963,1.2672172784805298,1.1932212114334106,-0.5576832890510559,0.4387340247631073,0.44076696038246155,0.4846280515193939,0.44941386580467224,-0.5774967670440674,-0.24042458832263947,-1.1698049306869507,-0.46808359026908875,-0.5411754250526428,-1.4575577974319458,-0.6711960434913635,2.1878345012664795,-0.962918758392334,3.9770307540893555,-0.7819600105285645,-0.7818463444709778,-0.6987305879592896,-0.6738320589065552,-1.0444436073303223,-0.7485247254371643,-0.7514821887016296,-2.936832904815674,-0.7965150475502014,-0.8738952875137329,-2.208361864089966,1.1984232664108276,-0.863063395023346,4.694648742675781,-0.9529788494110107,2.2002112865448,-0.7742374539375305,-0.7411961555480957,-0.2668212652206421,-0.8331226110458374,-0.8093917965888977,-0.1418958604335785,-1.2076154947280884,2.8687243461608887,-0.4546297490596771,3.8286168575286865,-0.45068883895874023,1.0666853189468384,-0.6631987690925598,0.05112148076295853,-0.1136668249964714,-1.334250807762146],[-0.38659200072288513,0.17622636258602142,0.11413755267858505,0.3341579735279083,0.2149946689605713,0.11081205308437347,0.14980512857437134,-0.12814290821552277,0.258994460105896,-0.41273683309555054,-0.378426194190979,0.0373065285384655,-0.5685323476791382,-0.23642906546592712,-0.04841339960694313,0.015453584492206573,-0.060256876051425934,-0.17501205205917358,0.084592305123806,-0.32432135939598083,-0.2004411220550537,0.07675492763519287,-0.901681125164032,0.2285132259130478,-0.0051361857913434505,-0.26107892394065857,0.2226961851119995,-0.18202903866767883,0.7282536625862122,0.565863311290741,-0.2811172604560852,0.08771170675754547,-0.5896751284599304,0.3673791289329529,-0.008997829630970955,0.2519463300704956,1.1524375677108765,0.10256851464509964,-0.4503069519996643,0.10601019114255905,0.18754245340824127,-0.7536795735359192,0.19775506854057312,0.04382560774683952,0.34931501746177673,0.5537401437759399,-0.8347364068031311,0.5220524668693542,0.46267804503440857,-0.43194735050201416,-0.36106306314468384,0.24900825321674347,-0.7465872168540955,-0.061395492404699326,-0.6350150108337402,0.17758925259113312,0.26369789242744446,-0.05030893161892891,0.6176406145095825,-0.04784618318080902,0.8562300205230713,-0.27234798669815063,1.3582843542099,-1.0948753356933594,0.1757463663816452,0.09880401939153671,-0.460409551858902,0.36624792218208313,0.05692770704627037,0.017890870571136475,-0.07399453967809677,-0.18352532386779785,-0.5862900018692017,0.07330171018838882,0.004073627758771181,-0.06985051929950714,0.09748183935880661,0.05512360855937004,-0.6939745545387268,0.7593015432357788,-0.25524386763572693,0.28491127490997314,1.226905107498169,1.300679326057434,1.2288302183151245,1.2868788242340088,-1.606328010559082,0.6458864808082581,0.9268116354942322,-1.6973059177398682,0.04817436262965202,0.10186007618904114,0.03272462263703346,0.044045332819223404,-0.38214030861854553,-0.13017280399799347,-0.05918494611978531,0.7599914073944092,-3.4783313274383545,-1.2620210647583008,0.3159588575363159,0.3136758506298065,-0.3127739727497101,0.20775289833545685,1.0873167514801025,0.14484356343746185,0.21419061720371246,0.14422771334648132,-0.3689233660697937,-1.0105053186416626,-1.0754836797714233,-1.3359767198562622,0.662619411945343,0.5445532202720642,0.9357550144195557,0.9024414420127869,2.2359981536865234,-0.053450051695108414,-0.021958278492093086,1.7021586894989014,0.8448182940483093,0.8710804581642151,0.6518789529800415,-0.3938518464565277,1.2279149293899536,-0.7042633891105652,0.324334979057312,-1.060503602027893,1.1956226825714111,0.6111869812011719,0.5708438158035278,-0.6855775117874146,-1.0350477695465088,0.6761388182640076,-4.444907188415527,-2.320558547973633,0.43881720304489136,-3.102391242980957,-2.0674335956573486,-0.32064953446388245,0.16996601223945618,0.2414165735244751,0.08635195344686508,2.1925275325775146]],"bias":[0.15228350460529327,-0.22568713128566742,0.030606478452682495,-0.04899755120277405,-0.21754145622253418,0.08029142767190933],"metrics":{"data":"data/processed/tauros_policy_examples_n100.jsonl","examples":6198,"train_examples":5109,"test_examples":1089,"classes":["attack_or_other","boom","paralysis","recovery","sleep","switch"],"train_accuracy":0.6106870174407959,"test_accuracy":0.584022045135498,"majority_class":"attack_or_other","majority_test_accuracy":0.4628099203109741,"train_class_counts":{"switch":998,"paralysis":1121,"attack_or_other":2174,"recovery":440,"boom":89,"sleep":287},"test_per_class":{"attack_or_other":{"support":504,"accuracy":0.8134920634920635},"boom":{"support":25,"accuracy":0.08},"paralysis":{"support":205,"accuracy":0.45365853658536587},"recovery":{"support":79,"accuracy":0.16455696202531644},"sleep":{"support":59,"accuracy":0.5423728813559322},"switch":{"support":217,"accuracy":0.39631336405529954}},"vocab_size":139}}
