{"model_type":"mlp_relu","classes":["move:agility","move:amnesia","move:blizzard","move:bodyslam","move:clamp","move:counter","move:doubleedge","move:doublekick","move:drillpeck","move:earthquake","move:explosion","move:fireblast","move:firespin","move:hyperbeam","move:hypnosis","move:icebeam","move:lovelykiss","move:megadrain","move:nightshade","move:psychic","move:razorleaf","move:recover","move:reflect","move:rest","move:rockslide","move:seismictoss","move:selfdestruct","move:sing","move:sleeppowder","move:softboiled","move:stunspore","move:surf","move:swordsdance","move:thunderbolt","move:thunderwave","move:toxic","move:wrap","switch:alakazam","switch:chansey","switch:cloyster","switch:exeggutor","switch:gengar","switch:jolteon","switch:jynx","switch:lapras","switch:moltres","switch:rhydon","switch:slowbro","switch:snorlax","switch:starmie","switch:tauros","switch:victreebel","switch:zapdos"],"vocab":{"forced_switch=False":0,"has_boom=False":1,"has_para=True":2,"has_sleep=False":3,"has_recovery=True":4,"opponent_hp_bin=76-100":5,"active_move=thunderwave":6,"active_status=par":7,"opponent_status=par":8,"bucket=paralysis_spread":9,"active_hp_bin=76-100":10,"opponent_status=none":11,"active_status=none":12,"opponent_move=thunderwave":13,"opponent=chansey":14,"active=chansey":15,"active_move=softboiled":16,"opponent_move=icebeam":17,"active_move=bodyslam":18,"active_hp_bin=51-75":19,"active_move=icebeam":20,"active_move=rest":21,"opponent_move=softboiled":22,"player_alive=5":23,"has_recovery=False":24,"opponent_move=seismictoss":25,"player_alive=6":26,"has_sleep=True":27,"active_move=reflect":28,"active_move=thunderbolt":29,"bucket=low_hp_endgame":30,"opponent_alive=5":31,"active_move=psychic":32,"active_move=earthquake":33,"opponent_alive=6":34,"player_alive=4":35,"active_move=blizzard":36,"opponent_hp_bin=51-75":37,"opponent_move=bodyslam":38,"opponent_alive=2":39,"opponent_alive=4":40,"active=snorlax":41,"bucket=sleep_pressure":42,"player_alive=3":43,"opponent_alive=3":44,"active_move=recover":45,"active_move=seismictoss":46,"active_move=hyperbeam":47,"has_para=False":48,"active_hp_bin=26-50":49,"opponent_move=psychic":50,"has_boom=True":51,"opponent_move=blizzard":52,"opponent_hp_bin=26-50":53,"active_move=sing":54,"player_alive=2":55,"active_move=explosion":56,"opponent=alakazam":57,"opponent=starmie":58,"opponent=tauros":59,"active=tauros":60,"opponent=snorlax":61,"active=alakazam":62,"opponent_move=surf":63,"active_hp_bin=1-25":64,"opponent_move=recover":65,"opponent_move=thunderbolt":66,"active_move=surf":67,"opponent_hp_bin=1-25":68,"opponent=lapras":69,"opponent_move=earthquake":70,"active=starmie":71,"opponent_status=slp":72,"opponent_alive=1":73,"active=exeggutor":74,"active_move=sleeppowder":75,"active=cloyster":76,"active_move=clamp":77,"opponent_move=amnesia":78,"active_move=counter":79,"active_status=slp":80,"opponent=slowbro":81,"bucket=forced_switch":82,"active_status=fnt":83,"forced_switch=True":84,"active_hp_bin=0":85,"bucket=tauros_endgame":86,"opponent=exeggutor":87,"opponent=jolteon":88,"bucket=explosion_opportunity":89,"opponent=rhydon":90,"opponent_move=sleeppowder":91,"active=slowbro":92,"active_move=amnesia":93,"active_move=stunspore":94,"active=jynx":95,"active_move=lovelykiss":96,"active_move=agility":97,"player_alive=1":98,"opponent_move=doublekick":99,"active=gengar":100,"active_move=hypnosis":101,"active_move=selfdestruct":102,"active_move=megadrain":103,"active_move=toxic":104,"active=zapdos":105,"active_move=drillpeck":106,"active_move=fireblast":107,"opponent_status=frz":108,"opponent_move=hyperbeam":109,"opponent_move=fireblast":110,"opponent_move=rest":111,"opponent_status=fnt":112,"opponent_hp_bin=0":113,"active=rhydon":114,"active_move=substitute":115,"bucket=other":116,"active=jolteon":117,"active_move=doublekick":118,"active_status=frz":119,"active=moltres":120,"active_move=firespin":121,"active_move=doubleedge":122,"active_move=nightshade":123,"bucket=recovery_loop":124,"opponent_status=psn":125,"active_status=brn":126,"opponent_move=substitute":127,"active_move=rockslide":128,"active_move=tailwhip":129,"opponent_move=selfdestruct":130,"opponent_move=pinmissile":131,"opponent_status=tox":132,"opponent_move=rockslide":133,"bucket=chansey_mirror":134,"active=lapras":135,"opponent_move=explosion":136,"opponent_move=doubleedge":137,"bucket=snorlax_trade":138},"numeric_fields":["active_hp","opponent_hp","player_alive","opponent_alive","turn_index"],"hidden_size":128,"w1":[[0.10725191235542297,0.19374926388263702,0.27389100193977356,0.3190695643424988,0.22709007561206818,-0.10186469554901123,0.29789119958877563,0.13998815417289734,-0.5340560078620911,0.39403995871543884,0.37772122025489807,0.9264546632766724,-0.13236072659492493,-0.4691263437271118,-0.447195440530777,0.3066839575767517,0.3668444752693176,-0.671401858329773,-0.05276108160614967,0.5118353366851807,0.6431809067726135,-0.2238510400056839,-0.40469110012054443,-0.8981236219406128,-0.036604173481464386,1.2733771800994873,0.3184858560562134,-0.2349098026752472,0.4933578670024872,-0.10724619030952454,-0.4675788879394531,0.24658909440040588,-0.33350715041160583,0.05468450486660004,0.46389710903167725,1.2354387044906616,-0.1670570969581604,0.9728288054466248,0.5789242386817932,1.294670820236206,0.2653496563434601,-0.03615564852952957,0.03325090557336807,0.40365248918533325,-1.267546534538269,0.22292779386043549,0.3045107126235962,-0.13335037231445312,-0.037627723067998886,-1.787071704864502,0.5427645444869995,0.0013390900567173958,0.19938409328460693,0.6946519613265991,-0.4161977469921112,0.03471542149782181,-0.2646738588809967,0.2540533244609833,0.1702781617641449,-0.42299365997314453,-0.3700098693370819,0.9775277972221375,0.2314697653055191,-0.4175353944301605,1.0779541730880737,-0.34691011905670166,0.19807671010494232,-0.40194985270500183,-0.6599125862121582,1.3128814697265625,-0.021970199421048164,-0.035294972360134125,-1.3602100610733032,-0.1512981653213501,-0.5000408291816711,-0.4019007980823517,0.3351660668849945,0.32569190859794617,-0.8596562743186951,0.7841353416442871,0.8994922041893005,-0.010108445771038532,0.3341912031173706,0.3427075147628784,0.3228263258934021,0.3364889621734619,-0.9282528758049011,-0.18737904727458954,0.867360532283783,-0.47572562098503113,-0.7312914729118347,1.3867275714874268,-0.4688055217266083,-0.5109102129936218,-0.3938964605331421,1.0798577070236206,1.0868031978607178,0.42567840218544006,1.6791964769363403,0.5477227568626404,0.30093932151794434,0.2817399799823761,0.4371039569377899,0.34061792492866516,-0.055265359580516815,0.2422228455543518,0.3553638160228729,-0.4594675898551941,0.17079240083694458,0.002786243101581931,-0.995307445526123,0.6054144501686096,0.4322090744972229,0.4144096076488495,-0.6145791411399841,-0.6946707367897034,0.5497189164161682,-1.1904417276382446,-1.198426604270935,-0.9456323981285095,0.17777040600776672,0.12651556730270386,-0.9861642718315125,-0.013507404364645481,-0.3422154188156128,-0.7184606790542603,0.1817251294851303,-1.4588080644607544,-0.3889766037464142,-0.6122750043869019,0.29748207330703735,-1.6086616516113281,1.375205159187317,0.26576846837997437,1.0159296989440918,-0.3818189203739166,-0.12878790497779846,0.3153468072414398,-0.3188050091266632,-0.39700502157211304,-0.41927778720855713,0.07816445827484131,0.19510109722614288,0.33078494668006897],[0.026251645758748055,-0.017073458060622215,-0.2991282641887665,0.045422088354825974,0.12415000796318054,-0.029534494504332542,-0.2321518361568451,0.0928477868437767,0.17637255787849426,0.49504363536834717,0.922884464263916,-0.4486541748046875,0.16229256987571716,0.18097388744354248,0.37850266695022583,-0.14513282477855682,-0.11193235963582993,0.6634335517883301,-0.43990054726600647,-1.1907583475112915,-0.7660974860191345,0.00036417998489923775,0.18094344437122345,0.32433268427848816,0.12695357203483582,0.12580545246601105,0.6328699588775635,0.09683525562286377,-0.03299643471837044,0.6924688816070557,-0.12422963231801987,1.0535492897033691,-0.24393679201602936,-0.01173968706279993,-0.7645537257194519,0.09437653422355652,0.4408940374851227,-0.6085247993469238,-0.3181576728820801,-0.26234719157218933,0.7567617297172546,-0.36232930421829224,-1.0772373676300049,0.40591326355934143,-0.037816643714904785,0.15717218816280365,0.41065776348114014,0.5264191031455994,0.39621520042419434,-0.01692601665854454,0.7108817100524902,0.0696186050772667,0.8630343079566956,0.640693724155426,0.05469483137130737,-2.026663303375244,0.20964117348194122,0.47432559728622437,-0.26603537797927856,-1.0915589332580566,0.023242106661200523,0.2965186536312103,-0.5066103935241699,0.06642552465200424,0.24691824615001678,-1.5611985921859741,-1.1716638803482056,0.5068073868751526,0.9669486284255981,0.7391442656517029,0.48026326298713684,0.6643579006195068,0.7806246876716614,-1.0388686656951904,0.16429129242897034,0.1254138946533203,0.1586148589849472,0.15409427881240845,0.5338317155838013,-0.37497439980506897,-1.0784507989883423,-0.04148209095001221,-0.22278748452663422,-0.26531076431274414,-0.30696961283683777,-0.28755122423171997,0.6659756302833557,-0.847771167755127,-0.10443943738937378,0.03328202664852142,-0.2819196879863739,0.46983423829078674,0.6423490047454834,0.5873965620994568,-0.15915857255458832,0.41303446888923645,0.4222474694252014,-0.5566617846488953,0.6791650652885437,-1.1630966663360596,0.03245778754353523,0.1167655810713768,-0.8061236143112183,0.2885721027851105,-0.11826147139072418,-0.30842599272727966,-0.3638201653957367,-0.7841484546661377,0.22203877568244934,0.2399541735649109,1.3731976747512817,0.3229586184024811,0.5081222057342529,0.5377289056777954,-0.2596220374107361,-0.23865778744220734,-0.1337665170431137,-0.17398351430892944,-0.2655705511569977,-1.2207516431808472,0.29557493329048157,0.2698585093021393,0.2662239670753479,-0.050920270383358,-0.05093855783343315,0.21590912342071533,0.5095474123954773,0.6860960721969604,-0.8362089395523071,0.5397406220436096,-0.93592768907547,1.6501609086990356,0.6169762015342712,-0.316051185131073,0.5880776047706604,0.6523827314376831,-0.5694184303283691,0.4817776381969452,0.18155260384082794,0.42687761783599854,0.10807839781045914,0.3063275218009949,0.046532925218343735,0.21029917895793915],[0.16273801028728485,0.3246162533760071,0.09958565980195999,-0.03446588292717934,-0.13616056740283966,-0.27639439702033997,0.16587305068969727,-0.11027607321739197,-0.6009583473205566,-0.022215131670236588,0.4414730966091156,0.6408710479736328,0.8218618631362915,-0.34191957116127014,-0.6169799566268921,0.3838789761066437,0.29795634746551514,-0.17402751743793488,-0.03968265652656555,-0.9895933270454407,0.354673832654953,-0.40161728858947754,0.8441713452339172,-1.0890995264053345,0.2818475067615509,-0.8795489072799683,1.01711106300354,0.38667649030685425,-0.23941223323345184,0.5439665913581848,0.09669037163257599,1.0744112730026245,-0.46268779039382935,0.340719997882843,0.30114492774009705,0.3374920189380646,-0.4662865102291107,0.4500299096107483,0.4766814410686493,0.029258185997605324,-1.4196935892105103,-0.37493622303009033,0.7913966774940491,-0.03455262631177902,0.6665019989013672,-0.7154261469841003,-0.007518227677792311,-0.6753642559051514,-0.1708439588546753,0.5340842008590698,0.7708443403244019,-0.9749504923820496,-0.13331779837608337,0.029558904469013214,0.3628477454185486,0.5266280174255371,-0.8248810768127441,-0.8751506209373474,0.970801591873169,-1.045186161994934,0.84302818775177,0.49380263686180115,-0.09598320722579956,1.028085470199585,0.15812641382217407,1.0141743421554565,-0.4539278447628021,-0.18442200124263763,0.9012927412986755,1.1208672523498535,-1.5679011344909668,-0.6531725525856018,0.7176516652107239,0.16380620002746582,-0.8529123067855835,-0.7963379621505737,-1.0085477828979492,-1.0586942434310913,-1.4027578830718994,0.09949962049722672,-1.06681489944458,1.2762541770935059,-0.07491931319236755,-0.09732241183519363,-0.05668247491121292,-0.13419529795646667,-0.4055652916431427,0.9239795207977295,-0.0318203903734684,-1.627938151359558,0.5938336849212646,0.46214234828948975,0.18474586308002472,0.17165271937847137,-0.32818150520324707,-0.09778347611427307,-0.12908905744552612,-0.02966306172311306,-0.7050681710243225,-1.142396330833435,1.0049599409103394,1.012890338897705,-0.4131217896938324,-2.248368263244629,-0.7941513061523438,-0.1468876451253891,-0.03486228734254837,0.6501159071922302,-0.5477753281593323,0.668667197227478,1.2308944463729858,-0.5758722424507141,-0.6681889295578003,-0.6295220255851746,0.37516629695892334,0.24632294476032257,0.4397321343421936,0.3581254482269287,0.2326800525188446,0.8690057396888733,0.43508827686309814,0.4772307574748993,0.41167059540748596,0.6729658246040344,0.46988141536712646,1.0407280921936035,0.27655768394470215,0.6755960583686829,0.35729527473449707,0.06086895614862442,-0.474160373210907,1.0125725269317627,-0.6291006803512573,0.24840709567070007,0.3346346616744995,0.14779512584209442,-0.7359896302223206,-0.650365948677063,-0.26473572850227356,1.064631462097168,-0.4253549575805664,0.25275933742523193,0.09676515311002731,0.9263007640838623],[0.13007090985774994,0.1900271773338318,0.2388436496257782,0.1957593411207199,0.1738032102584839,-0.2704594135284424,0.08182057738304138,-0.2552546262741089,0.49171745777130127,0.12119367718696594,-0.06403718888759613,-0.13562200963497162,0.6337994933128357,-0.08120279759168625,0.11950500309467316,-0.11776132881641388,-0.08790210634469986,0.4016839563846588,0.10304692387580872,0.21844393014907837,-0.13762515783309937,0.08369152992963791,0.27609094977378845,0.0027549879159778357,0.007674220949411392,0.22952964901924133,0.17806759476661682,-0.132371723651886,0.18490666151046753,-0.0027742881793528795,0.27598264813423157,0.027296971529722214,0.4290089011192322,0.15467248857021332,-0.3951798677444458,-0.07611417770385742,0.10100854933261871,0.6710101366043091,0.7068008780479431,0.003946477081626654,0.0794529989361763,0.20370322465896606,-0.08148861676454544,0.06368452310562134,0.6207690834999084,0.30811643600463867,0.15044333040714264,0.06795977801084518,-0.13733644783496857,-0.1327737718820572,0.017265258356928825,-0.3100421726703644,0.022215668112039566,0.20985285937786102,-0.2460629642009735,0.46509432792663574,-0.1852736473083496,-0.5586825609207153,0.5553833842277527,-0.29423075914382935,-0.0850076973438263,0.6714715361595154,-0.0414443202316761,0.2163708359003067,0.6064106225967407,0.7675134539604187,-0.30535218119621277,0.010035112500190735,0.5075920224189758,0.36516472697257996,0.17229217290878296,0.6596825122833252,-1.0491055250167847,0.2608839273452759,0.1745961457490921,0.14990989863872528,-0.41600480675697327,-0.4048287570476532,0.12443117797374725,-0.3556791841983795,-0.3313656151294708,0.9405849575996399,-0.04240163043141365,-0.06213270127773285,-0.16674770414829254,-0.1781153678894043,0.17996293306350708,-0.5860238075256348,-0.9211652278900146,-0.9062118530273438,0.5863889455795288,0.46444159746170044,-0.026064598932862282,0.014257030561566353,0.1780797243118286,-0.07356061786413193,0.01072179526090622,0.20404748618602753,-0.5750905871391296,0.5083884596824646,-0.5134667158126831,-0.5587292909622192,-0.24575817584991455,0.6135879158973694,0.4728471040725708,0.10794330388307571,0.23914262652397156,0.27572908997535706,0.2790893316268921,0.48325425386428833,0.2441001981496811,0.5749732851982117,-0.8819618821144104,-0.9600254893302917,-0.004148962441831827,-0.0017315790755674243,0.4102799892425537,-0.010997417382895947,0.07449077069759369,0.857549786567688,-0.22549760341644287,-0.1509394496679306,-1.0670415163040161,-0.7322167754173279,-0.21937406063079834,-0.17566440999507904,-0.3819100260734558,0.3487001061439514,-0.11126777529716492,0.050972264260053635,-0.016083722934126854,0.729471743106842,-0.32503992319107056,-0.11070370674133301,0.2988482713699341,-0.7815627455711365,-0.3601576089859009,0.4756919741630554,0.1815388798713684,-0.510758101940155,-0.23885555565357208,0.13266022503376007,-0.05888913944363594,0.34495073556900024],[0.13081608712673187,0.16150391101837158,0.06586597859859467,0.3339012563228607,-0.04681174084544182,-0.03629278019070625,-0.019966740161180496,0.3140738606452942,0.6648572683334351,0.15665270388126373,-0.4435798227787018,-0.565924882888794,0.240883469581604,-0.34537985920906067,0.0220760777592659,-0.17217008769512177,-0.18075400590896606,0.11427655071020126,0.08571024984121323,0.06259076297283173,0.25752294063568115,-0.005998981185257435,0.5884733200073242,-0.8246764540672302,0.15344984829425812,-0.42709317803382874,0.48320427536964417,-0.31404367089271545,-0.734700083732605,0.656144917011261,-0.17211705446243286,0.9430451393127441,0.017768338322639465,0.5561155080795288,-0.19409801065921783,0.7111936211585999,0.4115276634693146,0.31073492765426636,0.24643050134181976,-0.9616489410400391,0.19603365659713745,-0.1375301331281662,-0.043849166482686996,-0.10526789724826813,0.04284948855638504,0.3760088384151459,-0.5021280646324158,-0.25739726424217224,0.03791860118508339,0.41617363691329956,0.44767579436302185,-0.12005583196878433,0.58097904920578,0.46866512298583984,-0.5540321469306946,-0.012847324833273888,-0.06189706549048424,-1.219635248184204,0.11761219054460526,1.0018450021743774,0.22760789096355438,0.6962092518806458,-0.15481087565422058,-1.0654958486557007,0.9831076264381409,0.673589825630188,0.9092687964439392,-0.1729646772146225,0.06178724393248558,-0.12169287353754044,0.8282285928726196,0.4876921772956848,-0.804785430431366,0.23574204742908478,-0.17771145701408386,-0.17508026957511902,0.19401223957538605,0.11689995974302292,0.09103839844465256,1.0713090896606445,-2.087148427963257,0.2777240574359894,0.08153160661458969,-0.06786178052425385,0.030559396371245384,-0.04096542298793793,0.1690022349357605,0.11931601166725159,0.3854239881038666,0.01769876480102539,1.0303196907043457,0.07729867100715637,-0.1457725316286087,-0.16826310753822327,0.3774217963218689,0.35035136342048645,0.27622389793395996,0.205323725938797,0.5166966915130615,0.10746228694915771,-0.432423859834671,-0.46769678592681885,-0.04023762419819832,-0.12039496004581451,1.6095103025436401,0.26612988114356995,0.19291892647743225,-0.23714788258075714,0.9149700403213501,0.8099631071090698,-0.008440342731773853,0.2550218105316162,0.19058850407600403,0.19070234894752502,-0.07180298864841461,-0.04686114564538002,0.07681339979171753,0.31384530663490295,0.31088221073150635,-0.5438605546951294,0.19704943895339966,0.11953601986169815,-0.524718701839447,-0.8714718818664551,-0.49446284770965576,0.5068585276603699,-1.6977566480636597,0.007167330477386713,-0.5989924669265747,0.6606932878494263,1.217544674873352,-2.182250499725342,0.21597354114055634,-0.9965036511421204,-0.881499707698822,0.03786128759384155,0.9337154626846313,0.2655606269836426,0.3729315996170044,-0.84199458360672,0.1527189016342163,0.0868060365319252,0.1866585612297058,-0.47404512763023376],[0.030764760449528694,0.20267143845558167,0.04919435828924179,-0.007359930779784918,0.2356712371110916,-0.1578783243894577,0.05861937627196312,0.5567740201950073,-0.46314048767089844,0.0069456142373383045,0.08450495451688766,0.6307206153869629,-0.42667439579963684,0.12738960981369019,0.44798168540000916,0.12644973397254944,0.05061093345284462,0.4482513964176178,-0.029279576614499092,0.5966680645942688,0.21372903883457184,0.6136784553527832,0.24868352711200714,-0.757166862487793,-0.19101320207118988,-0.11639057099819183,0.23038576543331146,0.3622741997241974,0.11558259278535843,0.8051968216896057,-0.06165888532996178,-0.27339696884155273,-0.5445805788040161,0.10812077671289444,0.0026427097618579865,0.6871998906135559,-0.584239661693573,-0.2659335434436798,-0.18370553851127625,-0.268032044172287,0.24588410556316376,0.4797455966472626,0.12901712954044342,-0.21327774226665497,0.5428799390792847,-0.3835459351539612,-0.09941563010215759,-0.510924220085144,0.5408675670623779,-1.5960779190063477,-0.1306382417678833,-0.06784418970346451,0.7742463946342468,1.7717691659927368,0.15309418737888336,0.5659358501434326,0.002345180604606867,0.5784068703651428,-0.8355404734611511,-1.0279746055603027,-0.554763674736023,0.564706027507782,-0.2589861750602722,0.005245764274150133,1.0682697296142578,0.5328022241592407,0.20082472264766693,0.28876376152038574,-0.1523655503988266,-0.4823267459869385,-0.47291073203086853,-0.218260258436203,-0.18738731741905212,0.6084600687026978,-0.1795528680086136,-0.253599613904953,0.39819613099098206,0.35577091574668884,0.35002216696739197,0.2759186625480652,0.018963731825351715,-0.07980391383171082,-0.11760296672582626,-0.043703459203243256,-0.1156754121184349,-0.05752595514059067,-0.23446784913539886,1.0643103122711182,0.276552677154541,0.5523687601089478,-0.885749101638794,0.005010400898754597,-0.011746441945433617,-0.00040619104402139783,-0.1796777844429016,0.6493426561355591,0.720457136631012,0.1829531192779541,0.5935980677604675,-0.536703884601593,0.5694302916526794,0.5671429634094238,-0.5944408774375916,-0.3266364634037018,0.2823246121406555,0.22595404088497162,0.2954121530056,-0.8597695827484131,0.9120388031005859,-1.0867122411727905,-1.7622652053833008,-0.909067690372467,-0.3695143759250641,-0.4877852201461792,0.4322763681411743,0.3989008069038391,0.24402280151844025,-0.33836156129837036,-0.30681687593460083,-1.8752070665359497,-0.11907245963811874,-0.09277129918336868,0.4409498870372772,0.15737031400203705,-0.3672962188720703,-0.3965229392051697,0.22135035693645477,-1.258377194404602,0.20350351929664612,0.2144031673669815,0.9916573762893677,0.8592120409011841,-0.11094370484352112,0.3798241913318634,0.3620421886444092,0.2971518933773041,-0.283259779214859,-0.20081624388694763,0.24334485828876495,0.38786351680755615,-0.06441117823123932,0.05600716918706894,0.031766124069690704,0.2781387269496918],[0.19055281579494476,0.13342848420143127,0.12025264650583267,-0.04915773496031761,0.2448764145374298,0.16826429963111877,0.3634719252586365,0.23358874022960663,-0.07109705358743668,-0.08715002983808517,-0.1963445395231247,0.2919224798679352,0.006341550033539534,-0.07229193300008774,0.0829506441950798,0.3259572684764862,0.24493525922298431,0.265176922082901,-0.3275408446788788,0.47878584265708923,-0.23947134613990784,-0.22622929513454437,-0.008141685277223587,-0.3434433937072754,-0.1806788146495819,-0.13879714906215668,0.6223793029785156,0.28264811635017395,0.00857463013380766,-0.518707811832428,0.31684377789497375,-0.38666900992393494,0.43432891368865967,0.35111716389656067,-0.3514827489852905,0.32877013087272644,0.03887520730495453,0.4438367486000061,0.4267484247684479,0.3777201771736145,0.17185351252555847,0.04200037568807602,0.30586525797843933,0.6413314938545227,0.5304534435272217,0.48819923400878906,0.29736870527267456,-0.3482324182987213,-0.16308104991912842,-0.16922636330127716,-0.7100123763084412,0.16715951263904572,-0.200185164809227,0.22079016268253326,0.3021789789199829,-0.8020180463790894,-0.31725943088531494,-0.6725535988807678,0.033219389617443085,0.04727843776345253,-0.7787251472473145,-0.10365885496139526,0.2715419828891754,0.14295972883701324,0.77201247215271,0.4441515803337097,0.5314901471138,-0.2420334815979004,-0.9541506767272949,0.3503071367740631,-0.07029858976602554,0.31594035029411316,0.2870280146598816,0.4710465371608734,-0.1391419917345047,-0.11063827574253082,-0.42952051758766174,-0.4397444427013397,-0.1844143569469452,0.29523226618766785,-0.2352946549654007,0.8422755599021912,0.06980793923139572,0.006537320092320442,0.09583839774131775,0.030351918190717697,-0.573454737663269,1.2673859596252441,0.4695146381855011,-0.3169984221458435,-0.1148967519402504,0.3824269771575928,-0.07696390151977539,-0.1195790022611618,0.1341729462146759,-0.4092330038547516,-0.3351486027240753,-0.028713921085000038,-0.4024257957935333,0.1964327096939087,0.7017566561698914,0.7733803987503052,0.810388445854187,-0.545472264289856,-0.9805423617362976,0.11430244147777557,0.11546292155981064,-0.014737458899617195,-0.6946841478347778,-0.987604558467865,-1.2600311040878296,-1.103732943534851,0.09267731010913849,0.10138365626335144,-0.14084632694721222,-0.04939369484782219,0.49462801218032837,0.6707028150558472,0.6639138460159302,0.51939857006073,-0.08086168766021729,-0.0677163377404213,0.6471434235572815,-1.2609485387802124,0.2539844214916229,-0.404549777507782,-0.41008225083351135,-0.7596453428268433,0.17292208969593048,-0.4744366705417633,-0.9344601035118103,1.5187145471572876,-0.14909450709819794,-1.1366965770721436,1.116335153579712,0.2502158284187317,-0.886320948600769,-0.6420242786407471,-0.3674350082874298,0.2949507534503937,0.12957973778247833,0.3329680263996124,-0.13011802732944489,0.9307155609130859],[-0.26448607444763184,0.2919818162918091,-0.08539450168609619,0.18086124956607819,0.017503399401903152,-0.12429071217775345,-0.07020169496536255,0.3324292302131653,0.4099460542201996,-0.30948570370674133,0.4209505617618561,-0.3943737745285034,-0.5959222316741943,-0.48293325304985046,-0.10143332183361053,0.19553357362747192,0.10285529494285583,0.33283689618110657,0.12170585989952087,-0.24395377933979034,0.6465054154396057,-0.07861077040433884,-0.3754942715167999,0.738955020904541,0.1585485339164734,1.078663945198059,-0.30377501249313354,-0.10587019473314285,-0.4932189881801605,0.7055674195289612,0.3984091579914093,-1.0670660734176636,-0.004231573082506657,0.6112918853759766,0.554572582244873,0.5507180690765381,-0.11503838002681732,0.5543757081031799,0.2724374234676361,-0.07086876779794693,0.3815028667449951,0.23568221926689148,-0.05216637998819351,-0.14685732126235962,0.6508015990257263,0.1823231428861618,-0.8339795470237732,0.922402560710907,0.6680305004119873,-0.17157401144504547,-0.11870098859071732,-0.4558195471763611,-0.4476003050804138,1.000903844833374,-0.06978995352983475,-0.2581856846809387,-0.19710730016231537,-0.4280775189399719,0.8659183382987976,0.22067508101463318,0.08043976128101349,-0.6915687918663025,0.745744526386261,0.23154905438423157,-0.8271424174308777,0.539431631565094,0.4700416326522827,1.2109593152999878,-0.696173369884491,-1.5246827602386475,-0.1334923803806305,-0.5056758522987366,0.07025807350873947,0.008139953948557377,-0.38833630084991455,-0.4063132405281067,0.12361805886030197,0.09145964682102203,-0.15595294535160065,-0.7178738713264465,-0.42149531841278076,1.1618125438690186,0.42287760972976685,0.38032180070877075,0.3276454508304596,0.38153642416000366,-0.5531620979309082,0.7618218064308167,0.8734973073005676,0.021690608933568,0.461699903011322,-0.524591326713562,0.009806651622056961,0.038903187960386276,-0.7623668909072876,0.7926009893417358,0.7968320250511169,0.32489773631095886,-0.8198908567428589,-0.6508386731147766,-0.005335088353604078,0.06334779411554337,-1.1277598142623901,0.1790904998779297,-1.6310755014419556,-0.39536190032958984,-0.3355010747909546,1.2324473857879639,1.0014727115631104,-0.8710169792175293,-0.47850269079208374,-1.4131251573562622,0.20847488939762115,0.3121536374092102,0.08927803486585617,0.10731340199708939,0.22738192975521088,-0.8361645936965942,-0.8808916807174683,1.0909932851791382,0.016354437917470932,-0.0523250550031662,0.8085576295852661,1.0157265663146973,-0.12378871440887451,0.33927470445632935,-0.04103292152285576,-0.5861420631408691,1.0050419569015503,-0.7096007466316223,0.017134595662355423,-0.38309791684150696,-0.4901238679885864,1.0527257919311523,-0.6558488011360168,0.4658990800380707,0.7937458753585815,-0.4441987872123718,-0.3171934187412262,-0.029591849073767662,0.19037535786628723,0.2659463584423065,0.1358395665884018,0.030128877609968185],[0.10515014827251434,0.03861125186085701,0.18078041076660156,0.08939136564731598,0.147507905960083,-0.07207345217466354,0.21351805329322815,0.1761806756258011,0.2940637767314911,0.03937109187245369,-0.22394517064094543,-0.06016983464360237,-0.006586448289453983,-0.07729510217905045,0.4213649034500122,-0.16947363317012787,-0.14490339159965515,-0.15595151484012604,0.10439933091402054,-0.001523700775578618,0.29599621891975403,0.012503755278885365,-0.3833990693092346,0.4901522696018219,0.11467305570840836,-0.5900487899780273,-0.46934500336647034,-0.06605849415063858,-0.2695064842700958,0.33245185017585754,0.239913672208786,-0.6565267443656921,0.4052802324295044,0.06860064715147018,0.612627387046814,-0.2136121541261673,0.15470118820667267,0.9366509318351746,-0.4486731290817261,-0.043616171926259995,0.28972572088241577,0.2519419193267822,0.07801425457000732,0.6647335290908813,-0.029825329780578613,0.3350541889667511,0.1291273534297943,0.002254339400678873,-0.29090845584869385,1.047885537147522,0.01320014987140894,0.1958567500114441,-0.6954633593559265,-0.49525269865989685,-0.18326665461063385,0.10489077866077423,0.29501721262931824,-0.3090929687023163,0.9760522842407227,-0.5674713850021362,0.013937327079474926,-0.6013917922973633,0.358064740896225,-0.6421278715133667,0.03544227406382561,-0.149458646774292,-0.4051728844642639,-0.6931103467941284,0.28302499651908875,-1.2360141277313232,0.7728675007820129,-0.17036749422550201,0.08491716533899307,0.7926448583602905,0.2133743166923523,0.31075504422187805,0.09518008679151535,0.21321116387844086,-0.26705655455589294,-0.4050326347351074,-0.4191267192363739,0.39511361718177795,0.3761672079563141,0.40349096059799194,0.26597845554351807,0.3167327046394348,-0.08199386298656464,-0.18751968443393707,-0.06632186472415924,-0.015484638512134552,1.2781250476837158,-0.2590115964412689,-0.33058708906173706,-0.3603340983390808,0.6262380480766296,0.35089966654777527,0.3492540121078491,-0.19884039461612701,0.23475205898284912,0.1422702521085739,-0.15228652954101562,-0.20140670239925385,-0.08522797375917435,0.3411256968975067,0.01603570766746998,-0.1669570356607437,-0.22010353207588196,-0.3300783932209015,-0.2500750720500946,0.6591633558273315,-0.25528058409690857,0.015474434942007065,-0.4047755300998688,-0.47994768619537354,-0.39545679092407227,-0.4632014036178589,-0.47224369645118713,0.6811293959617615,0.7072002291679382,0.28070151805877686,-0.060287922620773315,-0.13058005273342133,-0.3806646168231964,-0.3541140854358673,-0.2639923691749573,0.4968254268169403,0.3270002007484436,-1.253381371498108,0.018109090626239777,-0.826408326625824,-0.7322899699211121,0.6900269389152527,-1.0034483671188354,-0.3069117069244385,0.2601448893547058,-1.0214613676071167,0.4332071542739868,0.3989093601703644,-0.2847648859024048,-0.09789161384105682,0.13263903558254242,0.03352038189768791,0.05388658121228218,-0.30247774720191956],[0.046976517885923386,0.23070964217185974,0.18372832238674164,0.08530542999505997,0.10384432971477509,0.5324368476867676,0.23131869733333588,-0.11255048215389252,-0.4514884948730469,0.5183461308479309,-0.02107858657836914,0.7435207962989807,0.7854498028755188,-0.47803786396980286,-0.34387683868408203,-0.15295131504535675,-0.05103258043527603,0.019131222739815712,-0.2595503330230713,0.004515156615525484,0.43761390447616577,-0.2172904759645462,0.03958867862820625,-0.7652515769004822,0.20745575428009033,-0.019567018374800682,-0.14105987548828125,0.012500694021582603,-0.5299407243728638,0.688055157661438,-1.1108148097991943,-0.0020416525658220053,0.2604299485683441,-0.1867820918560028,0.262436181306839,0.496825248003006,0.1615612506866455,-0.1984957456588745,0.7387949228286743,-0.9515057802200317,0.9558907747268677,-0.4032677710056305,0.11784721910953522,0.8056034445762634,-0.48873665928840637,0.4577075242996216,0.0052565960213541985,-0.1951807588338852,-0.13615554571151733,0.2779606878757477,0.9563259482383728,-0.3001457750797272,0.298922598361969,-1.0401479005813599,-0.2865760922431946,-0.6102116107940674,0.10941213369369507,-0.033718522638082504,-0.76923668384552,0.6578624844551086,0.35202816128730774,0.3321421146392822,0.32916027307510376,-0.566933810710907,-0.078453928232193,0.9669653177261353,-1.5228471755981445,0.7536516785621643,-0.3547945022583008,0.3833598494529724,-0.45442745089530945,0.5828478336334229,-0.8827009797096252,0.00020193704403936863,0.37444421648979187,0.4718441069126129,-0.32935115694999695,-0.4467432200908661,-2.062650442123413,-0.5710901618003845,-1.709290862083435,0.32971152663230896,0.38023641705513,0.46767961978912354,0.4273682236671448,0.3787084221839905,-0.66102135181427,0.8254254460334778,0.5378416180610657,-0.011876138858497143,-0.23370912671089172,-0.0596308670938015,0.7548120617866516,0.8504992127418518,0.3417201638221741,0.25899624824523926,0.09889865666627884,0.45024335384368896,0.9277669787406921,0.34932634234428406,0.05965437367558479,-0.021322552114725113,-0.9655821919441223,0.05213136225938797,-0.2806963324546814,0.34594905376434326,0.4769766330718994,-0.7055088877677917,-1.7215495109558105,1.035237431526184,-0.6188653707504272,0.6683882474899292,0.07452496886253357,0.14206533133983612,-0.7703142166137695,-0.8148611187934875,-0.20950950682163239,0.6232737302780151,0.6415029764175415,-2.466102123260498,0.2950786054134369,0.32261475920677185,0.26630210876464844,-0.4095136523246765,1.0683951377868652,-0.46390238404273987,0.4587869942188263,-1.4932390451431274,-1.047532558441162,0.45019084215164185,0.14386385679244995,0.9613487720489502,0.7779943346977234,-0.33228152990341187,-0.19092273712158203,0.25570857524871826,-0.20448073744773865,-0.4518723487854004,-0.3693059980869293,-0.394720196723938,0.6145822405815125,-0.02519775554537773,0.27186059951782227,0.5414115786552429],[0.07564233988523483,0.07283713668584824,0.12454241514205933,-0.020989248529076576,0.09193475544452667,0.2100379914045334,0.05064626410603523,0.09160549193620682,-0.23658588528633118,0.12746736407279968,0.18317671120166779,0.34508511424064636,0.25292253494262695,0.03424903005361557,0.13857822120189667,0.1469043493270874,0.03890310972929001,-0.015084974467754364,0.12130246311426163,-0.08384913951158524,-0.07895805686712265,-0.16117849946022034,0.4626406729221344,-0.16546550393104553,0.04441137984395027,0.09821867942810059,0.33324453234672546,0.23697346448898315,0.04735108092427254,-0.17030282318592072,0.03741412237286568,0.05943072587251663,0.39445215463638306,0.017749730497598648,-0.052348487079143524,-0.13590987026691437,0.2615372836589813,-0.20572195947170258,0.49558597803115845,0.11949973553419113,0.24272121489048004,-0.30244895815849304,0.048095207661390305,0.2653559446334839,-0.5892467498779297,0.16146725416183472,0.24983841180801392,0.15445609390735626,-0.12734121084213257,0.45249202847480774,-0.1927669495344162,0.021201588213443756,0.19167593121528625,0.4128323793411255,0.29525306820869446,0.0991113930940628,0.3028217554092407,-0.142573744058609,0.7662627100944519,0.1980515867471695,0.1543167531490326,0.0024996164720505476,0.11571428924798965,-0.3083682358264923,-0.574979841709137,0.2705482840538025,0.18850480020046234,-0.4399619400501251,-0.3695939779281616,0.1454010158777237,0.551953136920929,-0.16685709357261658,0.20337167382240295,0.09894357621669769,0.008009351789951324,0.047259241342544556,-0.009356355294585228,-0.023471495136618614,0.6845356225967407,-0.16488680243492126,-0.952009379863739,-0.4912455976009369,-0.2445594072341919,-0.15475395321846008,-0.14017382264137268,-0.16353197395801544,0.15895383059978485,-0.25231215357780457,0.08621735125780106,0.5476795434951782,-0.5007128119468689,-0.04575931653380394,-0.5026617646217346,-0.44344189763069153,0.007671861909329891,-0.4252023696899414,-0.4321609139442444,0.20391005277633667,-0.8181958794593811,-0.6774637699127197,0.6429179310798645,0.596997857093811,-0.501702606678009,-0.3081618845462799,-0.3675146698951721,0.012735196389257908,-0.09780357778072357,-0.2524644434452057,-0.7533063888549805,0.7776914834976196,0.2758232355117798,-0.559593141078949,-0.30271822214126587,-0.27248433232307434,0.027928506955504417,-0.030157053843140602,-0.10420544445514679,-0.004809344653040171,8.140725549310446e-05,0.26889270544052124,-0.16157905757427216,-0.12660686671733856,0.6342388391494751,-0.60090172290802,-0.4501979351043701,-0.46747148036956787,-0.3250199854373932,-0.4233863651752472,-0.28931739926338196,0.21663089096546173,-0.3823871612548828,-0.7073192000389099,-0.23901835083961487,-0.6816613674163818,0.7882089018821716,0.23506736755371094,-0.2786113917827606,-0.2769286334514618,0.32320690155029297,-0.23305635154247284,0.24079222977161407,0.168996661901474,0.03892024978995323,0.41747498512268066],[0.1981263905763626,0.1411035656929016,0.18396691977977753,0.07294392585754395,0.13287712633609772,-0.30405479669570923,0.23645725846290588,-0.06828247755765915,0.30744072794914246,0.056536976248025894,-0.010887845419347286,-0.11997317522764206,0.24171870946884155,0.08125659823417664,0.20072990655899048,0.1582285612821579,0.178865447640419,0.18191884458065033,-0.15804509818553925,0.03033900074660778,0.24571959674358368,0.039515767246484756,-0.2058243453502655,0.0036736796610057354,-0.2033488154411316,-0.20662763714790344,-0.16102851927280426,0.15513905882835388,-0.20139624178409576,-0.11877363175153732,0.1939835548400879,0.2564752995967865,0.3747538626194,-0.1071593165397644,0.1109708771109581,0.15578001737594604,0.06665799766778946,0.6434898376464844,0.2657906115055084,0.26326099038124084,-0.5629457235336304,-0.10193772614002228,0.04120483249425888,0.3799808621406555,0.14718852937221527,0.06058268994092941,-0.14150367677211761,-0.5110664367675781,-0.20504100620746613,0.5036503076553345,-0.6023547649383545,-0.25692111253738403,-0.28368404507637024,0.15398767590522766,0.10140898078680038,0.11305296421051025,-0.10725090652704239,-0.6681610941886902,0.24695155024528503,-0.14131590723991394,0.011846384964883327,0.5546468496322632,-0.060528464615345,-0.6477406620979309,0.509570300579071,-0.5758550763130188,-0.2630007863044739,0.006403153296560049,0.975915789604187,0.0016035772860050201,0.7977086305618286,0.39385586977005005,-0.7146540284156799,0.11503367125988007,-0.20304740965366364,-0.27153435349464417,0.11191882193088531,0.1026255413889885,-0.9759413003921509,0.23098210990428925,0.9771575927734375,0.17025373876094818,-0.3862457275390625,-0.3580055236816406,-0.3501419126987457,-0.3037124574184418,0.5451509952545166,0.6106891632080078,-0.6215184926986694,0.0915880799293518,1.0192952156066895,0.5015382766723633,0.1597285121679306,0.1357642561197281,0.5012697577476501,0.6577830910682678,0.600226104259491,-0.15373387932777405,0.4538874328136444,0.38673555850982666,-0.025771621614694595,-0.13229626417160034,-0.7619131803512573,-0.5107653141021729,0.19643960893154144,-0.11614470928907394,-0.14335821568965912,0.7634373903274536,0.9478343725204468,-0.373807430267334,0.2166152447462082,0.21540889143943787,-0.04468037188053131,-0.09138873964548111,-0.38286396861076355,-0.36771973967552185,0.4638741910457611,0.010294661857187748,0.0025089820846915245,-0.047230347990989685,0.35312503576278687,0.32736289501190186,-0.41084402799606323,-1.0027954578399658,-0.03113989159464836,-0.7533276677131653,-0.366989403963089,-0.11577894538640976,0.6598494052886963,-0.6036319136619568,-0.007584047503769398,-0.8502458930015564,0.05147651582956314,-0.7312049269676208,0.5817115306854248,-0.07110487669706345,0.3932461142539978,0.44607406854629517,0.08079193532466888,0.03768283128738403,0.14803291857242584,0.05357148125767708,0.047104764729738235,0.19069765508174896],[0.11879736185073853,0.13967931270599365,0.11869455873966217,0.17839662730693817,0.15970033407211304,0.23387058079242706,-0.004564634058624506,0.14800693094730377,0.44706469774246216,0.21415656805038452,-0.026719793677330017,-0.1293574422597885,-0.159254789352417,0.15278491377830505,0.4269562363624573,0.08475693315267563,0.16829508543014526,0.060432396829128265,0.3047689199447632,-0.19395284354686737,0.009396377019584179,0.282631516456604,0.2335643321275711,-0.1758023202419281,-0.19647137820720673,0.8072759509086609,-0.17936334013938904,-0.16841617226600647,0.07931585609912872,0.28233519196510315,-0.1899154931306839,0.4927723705768585,-0.4676915407180786,0.0626574158668518,-0.16243654489517212,0.11011587083339691,-0.021436510607600212,0.5161966681480408,0.0401344820857048,0.3631378412246704,-0.30886411666870117,0.16463702917099,-0.05663485452532768,0.5539146661758423,0.6353986859321594,-0.3699600100517273,-0.08129023015499115,-0.1600351631641388,-0.29206016659736633,0.47691839933395386,0.6550734639167786,-0.3210587203502655,0.13169176876544952,-1.2267969846725464,0.04113321006298065,0.2428894191980362,-0.256591260433197,0.7405316233634949,-0.9583970308303833,-0.11489139497280121,-0.018104473128914833,-0.9870834946632385,-0.3375209867954254,0.2529946565628052,0.2109135538339615,0.6862220168113708,0.9160961508750916,0.08527278900146484,-0.3482535183429718,-0.19599227607250214,0.10466143488883972,-0.03749715909361839,-1.2753310203552246,-1.089837670326233,-0.16343827545642853,-0.2960939109325409,0.0014723314670845866,0.040026430040597916,-0.0789189338684082,0.30239564180374146,0.15836390852928162,0.9621623158454895,-0.3477031886577606,-0.24121393263339996,-0.2898397743701935,-0.2713277041912079,0.0917360708117485,0.578639805316925,-1.365931510925293,0.05225125327706337,0.7021234035491943,0.873844563961029,0.15091492235660553,0.0778859406709671,0.09360094368457794,-0.13534671068191528,-0.07679161429405212,0.1027044802904129,-1.0083261728286743,0.7065050601959229,-0.7300627827644348,-0.8129603266716003,-0.41589000821113586,-0.4584696888923645,0.14242614805698395,0.22474558651447296,0.21951909363269806,0.3947031795978546,0.2206312119960785,-1.177400827407837,1.0288565158843994,0.9726530313491821,0.4740101993083954,0.3986849784851074,-0.014382196590304375,0.10960742831230164,0.3826404809951782,0.15230008959770203,0.08774933964014053,1.151725172996521,-0.4549430310726166,-0.4696752429008484,-0.6464526057243347,1.6558537483215332,-0.4855753183364868,0.12932676076889038,-0.34073445200920105,1.182451605796814,-0.1355099231004715,0.14619502425193787,0.6451465487480164,-2.1131114959716797,0.1524239331483841,0.36845093965530396,-0.6570284366607666,-1.3971428871154785,-0.3710048496723175,-0.1711920201778412,-0.09207388758659363,0.26252785325050354,0.02516532875597477,0.06729735434055328,0.10923340171575546,-0.46037784218788147],[0.0728398934006691,0.31705978512763977,0.16211281716823578,0.09514118731021881,0.18238987028598785,0.26696914434432983,0.3032160699367523,0.8550748229026794,0.6137883067131042,-0.33731526136398315,-0.32045823335647583,-0.4750620722770691,-0.6665225028991699,-0.5554867386817932,0.05912594124674797,0.2272367626428604,0.18384087085723877,0.3860279619693756,-0.3033961355686188,-0.10672158002853394,0.20944611728191376,0.1991499960422516,-0.548520565032959,0.020713582634925842,-0.1295333206653595,-0.5074760913848877,-0.008097168058156967,0.26610520482063293,0.16004693508148193,0.3797551691532135,0.5129871964454651,1.4644038677215576,0.43518581986427307,-0.19973331689834595,-1.028660535812378,0.11939243972301483,-0.6519831418991089,0.05928517505526543,0.31944504380226135,-0.18823827803134918,-0.24026575684547424,0.49944865703582764,0.5124174356460571,0.128485769033432,0.08877767622470856,0.6281049847602844,0.00353616732172668,-0.28279557824134827,-0.22783558070659637,0.44343212246894836,0.38637223839759827,-0.29544755816459656,-0.22681216895580292,0.22029460966587067,0.21644233167171478,0.18178385496139526,-0.15064737200737,-0.2778584063053131,0.8123896718025208,-0.30568692088127136,-0.618620753288269,-1.5863763093948364,0.09320010989904404,0.1494157463312149,0.9706447124481201,0.02877531200647354,-0.6098823547363281,0.25394120812416077,-0.560103714466095,0.05781213566660881,0.8703076839447021,0.5460825562477112,-0.15039902925491333,0.8657631278038025,-0.21767452359199524,-0.09842183440923691,-0.23970834910869598,-0.17153716087341309,0.4954817593097687,-0.25413966178894043,-0.206415593624115,0.437712162733078,0.06844252347946167,0.1292443871498108,0.1728130578994751,0.06982509046792984,0.08688277751207352,1.161086916923523,0.9557162523269653,-0.5889148116111755,1.1273490190505981,0.3725387752056122,0.15061241388320923,0.19880326092243195,0.47223469614982605,-0.02999824471771717,-0.13850679993629456,0.34589192271232605,0.294480562210083,-1.040444016456604,0.4352347254753113,0.43101340532302856,-1.289110541343689,-0.9091346263885498,0.7795655131340027,0.24789340794086456,0.2527366578578949,-0.8463917374610901,0.6804015636444092,-0.8321874141693115,-1.729536533355713,0.6653119325637817,0.4762856662273407,0.5199457406997681,0.9448063969612122,0.8304808735847473,0.12227990478277206,0.37954646348953247,0.28679797053337097,-0.045825470238924026,-0.04305044189095497,-0.05936036631464958,0.3389364778995514,0.5607876181602478,0.3509848117828369,-0.6362388134002686,-0.007674940396100283,-1.1678528785705566,0.8592859506607056,0.050074320286512375,0.46237170696258545,-1.2893588542938232,-0.306838721036911,0.29375895857810974,-0.33476248383522034,1.0499122142791748,-0.2316816747188568,0.22311997413635254,-0.3541299104690552,-0.5689194202423096,0.03527127578854561,0.08221887797117233,0.12326997518539429,0.5219835638999939],[-0.1402970552444458,-0.03230508416891098,0.18939732015132904,0.2884403169155121,-0.1311340183019638,-0.08101178705692291,0.23147140443325043,0.9824589490890503,0.8327755331993103,0.038997549563646317,-0.4460670053958893,0.6010645627975464,-1.1128748655319214,-0.8019577860832214,-0.4932010769844055,0.013787140138447285,-0.03816339746117592,-0.6165083646774292,0.29898253083229065,-0.4774421751499176,-0.28773728013038635,0.07737914472818375,-0.18552149832248688,0.29584580659866333,0.82973712682724,-1.1782097816467285,0.8132852911949158,0.19691291451454163,-0.14575986564159393,-0.3688390851020813,-0.1475941389799118,-0.5786613821983337,0.49407050013542175,0.9056195020675659,-0.8423548936843872,-0.6729620099067688,-0.6004430055618286,0.29490166902542114,-0.6367042064666748,0.6515504717826843,-0.3235791027545929,-0.12599238753318787,-0.35165366530418396,0.6320030689239502,1.771824836730957,-0.2106679379940033,0.3533754348754883,-0.7732412815093994,0.16879063844680786,1.0939640998840332,0.32165196537971497,0.8379338979721069,-0.8298912644386292,0.9107349514961243,-0.17475274205207825,-0.3825151324272156,0.8088197708129883,0.948532223701477,0.944492757320404,-0.3863582909107208,0.7274275422096252,0.3005061149597168,0.8118671774864197,-0.46432918310165405,-0.062262341380119324,-1.0232572555541992,-0.4848932921886444,0.5484610199928284,1.6419446468353271,1.0425660610198975,-0.6769796013832092,-0.663379430770874,-1.4035258293151855,0.000651298207230866,0.3786529004573822,0.5402218699455261,0.7160236239433289,0.7901799082756042,0.29309558868408203,0.8400034308433533,-0.4906963109970093,0.041058968752622604,0.4658859670162201,0.38213208317756653,0.47859206795692444,0.5115084648132324,0.7280877828598022,-1.8380006551742554,0.40926793217658997,0.7558964490890503,0.48621684312820435,-0.11724032461643219,0.4036428928375244,0.4065835773944855,-0.5663148164749146,-0.25574350357055664,-0.23463131487369537,0.005736537743359804,-0.4002307951450348,-0.6127626895904541,0.1431434452533722,0.12581662833690643,0.5800066590309143,0.8934754133224487,0.11837831884622574,-0.09825719892978668,-0.058181777596473694,-1.7879674434661865,-1.5422382354736328,-1.3249033689498901,-0.1543949842453003,0.4051370918750763,-0.5536590814590454,-0.6278508305549622,0.6083376407623291,0.5587250590324402,0.3307683765888214,0.24086309969425201,0.2476113885641098,0.6431434750556946,0.04123283177614212,0.0491211824119091,0.8689359426498413,-0.09441232681274414,0.315515398979187,-0.48666509985923767,-1.181498408317566,-0.8584588766098022,0.7893178462982178,-0.606861412525177,0.7251043319702148,0.11507584899663925,-1.6003377437591553,-0.3558517396450043,-0.03396110236644745,0.245342418551445,-0.4456363618373871,0.23312875628471375,-0.3683128356933594,-0.826339602470398,-0.09111663699150085,0.544462263584137,-0.12620240449905396,-0.9180153012275696],[0.11142861843109131,0.14774073660373688,0.07264567911624908,-0.19893530011177063,-0.3093909025192261,-0.23115085065364838,0.24816396832466125,0.4483118951320648,0.8471001386642456,-0.309074729681015,0.6454150676727295,-0.8280553221702576,-0.12642382085323334,0.7152826189994812,0.2737113833427429,0.22672244906425476,0.22106949985027313,0.07049747556447983,-0.35091647505760193,-0.02394149638712406,0.14082661271095276,-0.6128681302070618,0.08430354297161102,0.5866829752922058,0.5786567330360413,0.3787080645561218,0.2121131718158722,0.39355331659317017,-0.27326494455337524,0.40071526169776917,0.39530572295188904,0.08347009867429733,0.6600498557090759,0.11198984086513519,-0.2611018717288971,-0.564449667930603,0.16960158944129944,1.3359028100967407,0.2994696795940399,0.49005311727523804,-0.5095611214637756,-0.3438420295715332,0.3954254388809204,0.12089497596025467,-0.06286659836769104,0.6239055395126343,0.6048341393470764,-0.5487791895866394,0.05435764044523239,-0.34492239356040955,-0.6316661238670349,-0.055875468999147415,1.2154916524887085,-0.7966367602348328,0.1014619842171669,-0.25459232926368713,-0.14656910300254822,-1.4936047792434692,0.480080246925354,-0.49732714891433716,0.4260726869106293,-1.231574296951294,0.42350339889526367,0.7578773498535156,-1.2220969200134277,0.09990709275007248,1.7154780626296997,-0.07718376815319061,-0.7229050993919373,0.756079912185669,-0.6212806701660156,0.17644979059696198,1.3983559608459473,0.3027036786079407,-0.08407067507505417,-0.06807922571897507,-1.2097691297531128,-1.2149492502212524,-1.6519687175750732,-0.36240652203559875,-0.86546391248703,1.6379342079162598,-0.02434702403843403,0.024706674739718437,-0.09458298236131668,-0.05157932639122009,-0.4212973713874817,1.451709270477295,-0.3284919857978821,-0.5116446614265442,0.4890049397945404,1.8604799509048462,-0.4068855345249176,-0.3788498342037201,-0.1757691651582718,0.6448935866355896,0.7292273640632629,-0.8554676175117493,0.329266756772995,1.2751315832138062,0.6172190308570862,0.6246902942657471,0.48171138763427734,-0.360311895608902,1.0655730962753296,-0.9893431067466736,-0.9097179770469666,-0.16600218415260315,0.18729731440544128,1.7935072183609009,-0.9160974025726318,0.7304018139839172,-1.4839913845062256,-1.5057964324951172,-0.226848304271698,-0.11288932710886002,0.9907978773117065,0.5638049840927124,0.5347205996513367,-0.22422078251838684,-0.21388660371303558,-0.26703566312789917,0.5983675718307495,0.294275164604187,0.22879238426685333,-0.6994000673294067,0.12626807391643524,0.09543464332818985,-0.27226129174232483,0.06541997194290161,-0.07619500160217285,0.6138337850570679,1.1655484437942505,-0.9034435749053955,0.47289323806762695,0.23513826727867126,-0.7564308643341064,-0.5474185347557068,0.3123069703578949,0.46907302737236023,0.20005376636981964,0.17482206225395203,-0.03736010566353798,-0.09314482659101486],[0.1999337375164032,0.0919170156121254,0.14988940954208374,-0.2085946947336197,-0.007571452762931585,0.6603541374206543,0.2293572574853897,0.15115952491760254,0.7968295216560364,0.24281033873558044,-0.5823711156845093,-0.6949846744537354,0.1720903217792511,0.28792604804039,-0.1500224769115448,0.4416133761405945,0.39316681027412415,0.09248103201389313,-0.41952189803123474,1.7468287944793701,0.6780774593353271,-0.4697895348072052,0.3355531692504883,0.05979154631495476,0.02012321539223194,-0.16945844888687134,0.13490532338619232,0.46528396010398865,-0.07837636023759842,0.19668890535831451,-0.16701950132846832,-0.16612742841243744,0.5123865604400635,-0.844414472579956,0.6579278707504272,0.1266971081495285,-0.3903195261955261,-1.6530780792236328,0.8028923273086548,-0.8427432775497437,0.9903276562690735,-0.21350032091140747,0.3279778063297272,-0.1218469962477684,-0.40716150403022766,0.33905062079429626,-0.25225773453712463,0.041509952396154404,-0.3952765464782715,-0.5380867123603821,-0.05334620177745819,-0.22636575996875763,0.07173320651054382,0.17483924329280853,0.6610366702079773,-0.4964328706264496,0.2042466253042221,0.6285592913627625,-1.5269817113876343,1.7850885391235352,-0.5505190491676331,-0.16531261801719666,-0.19232794642448425,0.09393934160470963,-1.3758615255355835,0.2669582664966583,-0.19223210215568542,-0.21468588709831238,0.5706828832626343,-0.07748311012983322,0.717271625995636,0.5205658078193665,0.23582930862903595,-0.26325827836990356,0.43336254358291626,0.4394994080066681,-0.2728007137775421,-0.4290676414966583,0.042506199330091476,-0.3632473647594452,0.592241108417511,-0.6493479013442993,-0.7570545673370361,-0.719982922077179,-0.7521373629570007,-0.788912296295166,-0.7178022861480713,1.1591529846191406,-0.83078533411026,-0.2140740156173706,0.9329856038093567,-0.53999924659729,0.2883835732936859,0.3778304159641266,0.3797672390937805,-0.5896688103675842,-0.6435878872871399,-0.8366105556488037,0.9362767338752747,-0.6263672709465027,0.3084021210670471,0.2616867423057556,-1.5208271741867065,-0.1357620358467102,0.5981764793395996,-0.2558717727661133,-0.2500937283039093,-0.8772568702697754,-2.473620891571045,1.3530066013336182,-1.0646241903305054,1.0901076793670654,-0.09287067502737045,-0.20124177634716034,0.011041502468287945,0.0664941743016243,-0.24868303537368774,-1.5625476837158203,-1.7074623107910156,-0.1207486242055893,-0.11755277216434479,-0.04976000264286995,1.3766084909439087,-0.44443243741989136,0.2760497033596039,0.4157056510448456,0.047155141830444336,-0.9026581645011902,0.9480993747711182,-1.3881676197052002,-0.7997807264328003,-0.9310407042503357,0.2382095903158188,-0.22738103568553925,0.4778691530227661,-0.16864174604415894,0.9895228743553162,-0.5692812204360962,-0.32640591263771057,0.49039319157600403,0.5114008188247681,-0.018563667312264442,0.30139821767807007,-0.9805795550346375],[0.19855843484401703,0.04929189383983612,0.13705681264400482,0.5750561952590942,0.26713827252388,0.6943774819374084,-0.35718655586242676,-0.048405639827251434,-0.34932294487953186,0.03203947842121124,-0.6917859315872192,0.36516639590263367,0.3794499933719635,0.6401486992835999,-0.8541101217269897,-0.22423423826694489,-0.1484963446855545,-0.30559593439102173,0.7744923233985901,1.2523664236068726,0.6381227970123291,0.21671365201473236,-1.2665112018585205,0.32779428362846375,-0.30910947918891907,-0.8792692422866821,0.4727802574634552,-0.9682385325431824,-0.6778115034103394,0.5772098302841187,-0.09539242833852768,0.2050907015800476,-0.32254213094711304,0.37342369556427,0.5621121525764465,-0.7898818850517273,0.33529898524284363,-0.8768473863601685,1.0064218044281006,0.5391319394111633,-1.1059012413024902,0.3598287105560303,0.2924133241176605,0.872683048248291,0.6257585287094116,0.3386637568473816,-0.44732430577278137,0.34788262844085693,-0.27330148220062256,0.4633268713951111,-0.2996020019054413,0.1817205399274826,1.4482107162475586,-1.0763152837753296,-0.8237471580505371,-0.49183785915374756,0.16875499486923218,0.4985409677028656,0.1684018224477768,-0.5851911902427673,0.39092403650283813,1.387355923652649,1.347719669342041,-0.2773539423942566,-0.18899454176425934,1.1356642246246338,0.7640412449836731,0.5398958325386047,0.006252511404454708,1.8990447521209717,0.34855738282203674,-0.14392057061195374,-0.7623785734176636,-1.2341644763946533,-0.9456100463867188,-0.9760816693305969,0.335488498210907,0.3727377951145172,0.8063428997993469,-0.8475636839866638,0.3821585774421692,0.709000289440155,-0.3565223813056946,-0.5016939043998718,-0.4657958447933197,-0.4229390621185303,-0.16267497837543488,-0.42032238841056824,-0.7404641509056091,0.0609508641064167,-1.0806279182434082,-1.8447213172912598,0.8384590744972229,0.8252690434455872,1.1538920402526855,-0.9055602550506592,-0.823243260383606,-0.7020850777626038,-1.2536351680755615,0.5774838924407959,0.21085315942764282,0.24811597168445587,-0.038404904305934906,-1.0065606832504272,1.0709667205810547,-0.8247374892234802,-0.8556045889854431,-0.43964502215385437,1.3689379692077637,0.08272921293973923,0.7951361536979675,-0.7604541182518005,0.3874768316745758,0.5078873634338379,0.4300462007522583,0.46616604924201965,-0.0837448462843895,-0.7902966737747192,-0.7828182578086853,-0.9759817123413086,0.08919943869113922,0.13629041612148285,-1.625728964805603,-0.38493117690086365,0.2706519067287445,0.8455466628074646,0.7275063395500183,0.8461587429046631,0.478412002325058,0.2755858302116394,0.7668483853340149,0.3188478350639343,0.6093367338180542,-1.3242874145507812,-0.1794499009847641,-0.37417176365852356,-0.5010017156600952,-0.1331997513771057,0.33076146245002747,-0.33926334977149963,0.248607337474823,0.24194133281707764,0.233363077044487,-1.2740724086761475],[0.027203762903809547,-0.1478099375963211,-0.10445109009742737,0.0680268332362175,0.012832672335207462,-0.03178391605615616,0.16673177480697632,-0.3114728629589081,0.3070567846298218,0.020031293854117393,0.7514565587043762,0.49321404099464417,0.3155524432659149,0.7745524644851685,0.867022693157196,0.38905835151672363,0.3761748969554901,-0.22605377435684204,-0.116167351603508,-0.8307814002037048,0.5355703234672546,-0.4908009171485901,-0.21629059314727783,-0.24600757658481598,0.0688367486000061,0.5767210125923157,0.018941011279821396,0.0010873890714719892,-0.2859266400337219,-0.39667779207229614,0.43304839730262756,0.4680624306201935,0.09260650724172592,-0.20735640823841095,0.14293034374713898,-0.09610232710838318,-0.21228092908859253,-0.11877825111150742,0.4156990349292755,0.2876889407634735,-1.0900368690490723,-0.22132866084575653,-0.09487232565879822,0.11537869274616241,0.5923157930374146,-0.03579311445355415,0.5484496355056763,-0.11616480350494385,0.6041390299797058,-0.4881466031074524,-1.1731257438659668,0.6515358090400696,0.4202559292316437,0.8639218807220459,0.006388713140040636,0.6934026479721069,0.18806524574756622,-1.3743816614151,-0.24693365395069122,-1.0927557945251465,-0.2786015272140503,0.5502331256866455,0.08558064699172974,1.7325118780136108,-0.6177366375923157,-0.6649860143661499,0.14972436428070068,0.07475660741329193,-0.3642612397670746,0.25641125440597534,-1.6289148330688477,-0.12354429066181183,-0.9183853268623352,-0.9517375230789185,-0.14333094656467438,-0.15779994428157806,0.11007159948348999,0.137058287858963,-0.6132342219352722,0.4685419201850891,-1.038995385169983,-0.6781296730041504,0.40705403685569763,0.38982927799224854,0.37316522002220154,0.32144901156425476,-1.0710890293121338,1.2377955913543701,-0.5446266531944275,-0.054055847227573395,1.1755471229553223,1.020097255706787,-0.2959195375442505,-0.41096022725105286,-0.46780824661254883,-0.1127689778804779,-0.11750335991382599,-0.310762882232666,-0.7235952615737915,1.858204960823059,0.38396281003952026,0.5147885084152222,0.6432260274887085,0.6537941694259644,-0.5302355885505676,-0.29167747497558594,-0.26540374755859375,-0.5391382575035095,-1.8982471227645874,-1.907742977142334,0.7241736054420471,-0.33580389618873596,0.04340732842683792,-0.00817889254540205,0.4129285514354706,0.38897040486335754,0.2495764195919037,-1.230155348777771,-1.198193073272705,0.20638684928417206,0.09439926594495773,0.15042895078659058,-0.0019479242619127035,-0.5368434190750122,-0.628290057182312,-0.5511771440505981,0.3523158133029938,0.9879350662231445,0.3973656892776489,0.419020414352417,0.13471060991287231,-0.3517259955406189,0.8857394456863403,0.43877798318862915,0.10524670779705048,0.5464128851890564,-0.5695075988769531,-0.5884611010551453,0.33698275685310364,0.6264747381210327,-0.25670430064201355,0.05868217349052429,0.1751466542482376,0.3493419885635376],[0.15931861102581024,0.19586534798145294,0.20537018775939941,0.119117870926857,0.08473160117864609,0.11960696429014206,0.2515447735786438,0.5851190686225891,0.14163999259471893,0.2548292577266693,0.19014425575733185,-0.1365683376789093,-0.4807589054107666,0.40500736236572266,0.11056387424468994,0.2706693708896637,0.2869800925254822,-0.21085739135742188,0.12062150985002518,0.08001966029405594,0.3762146234512329,-0.20119400322437286,-0.25104090571403503,0.2694651782512665,0.04780670627951622,-0.09223323315382004,0.11964147537946701,-0.27078932523727417,0.18162111937999725,0.09474721550941467,0.15263450145721436,-0.42656630277633667,-0.2839825451374054,-0.10364827513694763,0.19405324757099152,-0.3251497745513916,-0.18245846033096313,-0.005888500716537237,0.3412241041660309,-0.0847640112042427,0.17326991260051727,-0.009683741256594658,-0.2391420602798462,-0.41185274720191956,0.7272027134895325,-0.04967851936817169,-0.6067376732826233,0.6569083333015442,-0.2252763956785202,-0.6446073651313782,1.085626482963562,-0.25917768478393555,0.9586548209190369,-0.797623872756958,0.0853799507021904,0.4779931604862213,-0.3370576500892639,0.5399172902107239,0.029720451682806015,-0.09048213809728622,0.09110448509454727,0.36617740988731384,-0.28143489360809326,0.6963164210319519,0.17612339556217194,0.024198701605200768,-0.7321553230285645,0.5725791454315186,1.0539705753326416,0.07390377670526505,0.7353355884552002,0.296569287776947,0.7169737219810486,-0.5507166981697083,-0.28036394715309143,-0.31565994024276733,-0.2547172009944916,-0.09405960142612457,0.20757316052913666,-0.15379299223423004,0.07000848650932312,-1.7633987665176392,-0.3135311007499695,-0.43522512912750244,-0.35929110646247864,-0.4119965136051178,-0.5052611231803894,0.35743242502212524,-0.4962277114391327,-0.2918010950088501,0.3370324373245239,0.2551068663597107,0.2809803783893585,0.34476786851882935,-0.615655243396759,-0.20885947346687317,-0.094256192445755,0.04717482626438141,0.29255393147468567,-0.21138732135295868,-0.5509458184242249,-0.5399107336997986,0.33137598633766174,0.19438830018043518,-0.30040502548217773,0.09725384414196014,0.04768127202987671,0.2286655157804489,-0.22870410978794098,0.9062522053718567,-0.5956645607948303,-0.019391821697354317,0.14732222259044647,0.17032255232334137,0.12433502823114395,0.16587699949741364,0.6181028485298157,0.137483149766922,0.09092304855585098,0.7477213740348816,-0.42708271741867065,-0.3475237786769867,0.5474931597709656,-0.17045874893665314,-0.17954447865486145,0.1927882432937622,0.16330458223819733,-0.2333614081144333,0.2999575436115265,-0.22638584673404694,0.12081650644540787,0.8890464305877686,-0.7869312167167664,-0.08921144157648087,0.5563002824783325,0.07807935774326324,0.7112013101577759,-0.06168626993894577,-0.1770404577255249,0.46483999490737915,0.025355806574225426,0.014785552397370338,-0.0011079097166657448,0.03999510034918785],[0.07154367864131927,0.08384872227907181,0.01878487318754196,0.3754495680332184,-0.14064818620681763,-0.5597656965255737,-0.5128501653671265,0.3370423913002014,0.603035569190979,0.43228578567504883,-0.9651159644126892,-0.31850776076316833,-0.6213213801383972,0.8508533239364624,0.2258414775133133,0.032423507422208786,-0.0494367778301239,0.9524072408676147,0.49334079027175903,0.2770818769931793,0.3599814474582672,-0.462258517742157,0.5194882154464722,0.4357758164405823,0.27926260232925415,0.5156145095825195,-0.691703200340271,-0.5669922828674316,-0.17656537890434265,1.574924111366272,-0.3986072838306427,-0.4453619718551636,-1.1087332963943481,-0.6837272047996521,0.10679792612791061,0.26278072595596313,-0.017831237986683846,0.45170480012893677,0.3508443534374237,0.39800161123275757,0.32096201181411743,1.1573365926742554,-0.1302473396062851,0.31336405873298645,-0.30615168809890747,-0.006788124796003103,0.05754765123128891,0.3822629749774933,0.9841065406799316,1.0294699668884277,0.029681453481316566,0.4195193648338318,-1.6126772165298462,1.4524389505386353,-0.8071860671043396,-0.013048309832811356,0.24771590530872345,0.04367802292108536,-0.3286852538585663,1.1088714599609375,-0.30994713306427,0.47554293274879456,0.17019948363304138,-0.33345943689346313,1.8422642946243286,0.2747747004032135,0.6505535244941711,0.1903693974018097,0.43001171946525574,-1.9923685789108276,-0.5084741711616516,-0.25547346472740173,-0.15443888306617737,0.7430220246315002,0.2056485116481781,0.2769709527492523,1.0431755781173706,1.1249356269836426,0.5064554810523987,-1.1329128742218018,0.21547932922840118,0.5459837913513184,0.01624179258942604,-0.0468202605843544,0.09220994263887405,0.015387156046926975,0.7027279138565063,0.4478747546672821,-0.16160811483860016,0.06113545969128609,-0.7803240418434143,0.08352367579936981,-1.402305006980896,-1.2508699893951416,0.4228317141532898,-0.015518497675657272,0.0853809118270874,0.24197396636009216,0.027868300676345825,-1.322768211364746,-0.5139251351356506,-0.5040010213851929,0.3351408839225769,0.22711002826690674,1.2478845119476318,0.26957204937934875,0.3079407513141632,0.857676088809967,-0.581055223941803,-0.563652515411377,-1.2956748008728027,0.5820488333702087,-0.14663751423358917,-0.16298775374889374,0.31285345554351807,0.2992178201675415,0.8031834959983826,-0.41561535000801086,-0.4535105228424072,0.28280648589134216,0.4496241807937622,0.42311832308769226,-0.7599124908447266,1.004867672920227,0.35165268182754517,0.9013027548789978,0.8189660906791687,0.7432867288589478,1.0016509294509888,-0.32164379954338074,-0.6831520199775696,0.05093826353549957,-0.4334023594856262,0.615710437297821,-0.3885353207588196,-1.0053876638412476,0.3759322464466095,0.4804019033908844,-0.3057693839073181,-0.43543487787246704,-0.2041746973991394,0.07130125164985657,0.03262005001306534,0.7215269207954407],[0.1027580201625824,0.06367319077253342,0.05394496023654938,-0.13759499788284302,-0.5924571752548218,0.37070783972740173,0.38970544934272766,0.3482903838157654,0.19334304332733154,-0.1890443116426468,-0.19100813567638397,-0.34213221073150635,0.03522893041372299,0.3332429528236389,-0.006377932149916887,0.45116907358169556,0.5590311288833618,0.5054089426994324,-0.3509785830974579,0.9665071368217468,0.2325054556131363,-0.7265617251396179,0.5022897124290466,-0.10810437053442001,1.0623546838760376,0.855790913105011,0.7384586930274963,0.41428107023239136,-0.03232402354478836,-0.018928315490484238,0.4736751616001129,0.4541020393371582,0.15045908093452454,0.2823083698749542,-0.8496642708778381,-0.18340297043323517,0.6326773166656494,0.03770853206515312,0.11108233779668808,0.12380311638116837,0.1869799643754959,-0.729563295841217,0.44713589549064636,-0.5907362699508667,-0.45372143387794495,-0.3423699736595154,-0.3169700503349304,0.6614565253257751,0.0022995518520474434,-0.316866010427475,0.13765718042850494,-0.0317770279943943,0.5781431198120117,-1.2900726795196533,0.16107235848903656,0.31729021668434143,-0.3573247194290161,0.006439727731049061,1.0984820127487183,-1.5194470882415771,0.7767330408096313,-1.2595133781433105,-0.9304322004318237,1.2912636995315552,-0.013606040738523006,-0.3780547082424164,0.9185498952865601,0.4958033263683319,0.3677273690700531,1.0090036392211914,-1.0087425708770752,1.7918447256088257,1.5313737392425537,0.7131041884422302,0.33694809675216675,0.4034067988395691,-0.7441335320472717,-0.6513624787330627,0.8531561493873596,0.3630840480327606,-0.3065495193004608,1.1867481470108032,-0.6668484807014465,-0.6179371476173401,-0.6806244254112244,-0.6313126683235168,0.432720422744751,0.7909255623817444,-0.5692037343978882,-0.5692522525787354,1.2843822240829468,-0.7031223773956299,0.8259297013282776,0.7381107211112976,0.24557283520698547,-0.4230019748210907,-0.43533506989479065,-0.47895511984825134,0.3450034260749817,-1.1552187204360962,0.35373905301094055,0.277412086725235,0.5017107129096985,0.12459629029035568,1.3617112636566162,-0.36271408200263977,-0.33792924880981445,-0.3445371985435486,0.28155454993247986,0.13743112981319427,-1.173262596130371,1.0922067165374756,-0.7711970210075378,-0.7151041030883789,0.15547341108322144,0.14899781346321106,-0.3788597285747528,-0.7895811200141907,-0.8990179300308228,-1.1866459846496582,0.07683935761451721,-0.038615982979536057,0.960828959941864,-1.8164656162261963,0.20182755589485168,0.7659332156181335,0.6564581394195557,-1.4025300741195679,-0.42900335788726807,0.6486769914627075,-0.06785670667886734,1.3810852766036987,0.5065435767173767,1.7211041450500488,0.5126489400863647,0.2574808895587921,-0.01096103060990572,0.3128941059112549,-0.21800146996974945,0.8018854856491089,-0.14574359357357025,0.16374754905700684,-0.259615033864975,-0.9714997410774231],[0.10075429826974869,0.004014200996607542,0.09828529506921768,0.27055275440216064,-0.03849837929010391,-0.17995624244213104,-0.2039065808057785,-0.2885630130767822,-0.5063347220420837,-0.19874346256256104,0.68184494972229,0.9567468762397766,0.305614173412323,-0.6911183595657349,-0.07186927646398544,-0.5148358941078186,-0.44919389486312866,-0.9397957921028137,0.3823723793029785,-0.19312019646167755,0.02948557399213314,0.47216159105300903,0.31674131751060486,0.5072781443595886,0.12655110657215118,0.2752387821674347,0.0811435878276825,-0.343054860830307,-0.7085743546485901,0.3580154776573181,0.28123152256011963,0.009700923226773739,0.6387972235679626,0.4979674220085144,0.06108563020825386,-0.2654563784599304,0.30250534415245056,0.010401152074337006,0.45253080129623413,0.2239915281534195,-0.21820427477359772,0.43928608298301697,0.28510603308677673,-0.16517356038093567,-0.3196186423301697,0.5690075755119324,-0.6677213907241821,0.11967498064041138,-0.12858593463897705,-0.08869405835866928,-0.9195432662963867,-0.0539700947701931,-0.592682957649231,0.4116934835910797,-0.21876856684684753,-0.19287756085395813,0.2328094244003296,0.48111507296562195,-1.063722848892212,0.30827394127845764,0.24660155177116394,0.6923861503601074,0.13701452314853668,-0.7149767279624939,-0.7147625088691711,-0.07816477119922638,-1.1368542909622192,0.08812960982322693,0.04102933034300804,-0.35313329100608826,0.5423288345336914,0.6419742107391357,-0.2599295377731323,0.8401639461517334,-0.13609260320663452,-0.06219933554530144,0.02465503104031086,0.08211343735456467,0.43834152817726135,-0.16190192103385925,0.39984557032585144,0.42966774106025696,-0.16854164004325867,-0.2364879548549652,-0.1770845651626587,-0.27498167753219604,-0.1486532986164093,-0.5991504788398743,-0.9659926891326904,0.17863290011882782,0.6766078472137451,-1.7521063089370728,-0.25716444849967957,-0.34062016010284424,-0.07262469083070755,0.08869266510009766,-0.04982719197869301,-0.35079970955848694,0.004027121234685183,0.785102903842926,0.5786851048469543,0.5522685050964355,-0.4553544521331787,0.1026359349489212,-0.059137243777513504,-0.38830214738845825,-0.2949669063091278,-0.22104179859161377,-0.2941094636917114,0.47901651263237,-0.4471375346183777,-0.4703125059604645,-0.2632652521133423,-0.329285204410553,-0.03643787279725075,0.025195568799972534,-0.5866410732269287,1.1352622509002686,1.2164539098739624,-0.7793548703193665,0.014201274141669273,-0.13540585339069366,-0.5989301800727844,-0.023761507123708725,-0.12175019085407257,0.18010716140270233,0.2706293761730194,-0.8398090600967407,-0.07208758592605591,0.2799481749534607,-1.010063886642456,1.3033325672149658,-0.500180721282959,-0.6977542638778687,-0.28824082016944885,-0.6697399616241455,-0.0936923623085022,-0.3363937735557556,0.3393787443637848,0.8151708245277405,-0.23609301447868347,0.18426305055618286,0.07400543987751007,0.4254598021507263],[0.09178977459669113,0.3260119557380676,0.34870749711990356,0.5626957416534424,0.2715562880039215,1.0194424390792847,0.5188776254653931,0.31764259934425354,-0.05401332303881645,0.39778319001197815,0.24226030707359314,0.9866690635681152,-0.4965462386608124,0.045821938663721085,0.6086474061012268,0.27647072076797485,0.33111342787742615,-0.5438515543937683,0.27950018644332886,-0.784487247467041,0.1853920817375183,-0.6088955998420715,-0.5597987174987793,0.922956109046936,0.11208604276180267,-0.07692074775695801,-1.0655173063278198,-0.6877874732017517,0.7299474477767944,-0.3181284964084625,0.08218085765838623,-0.41464442014694214,0.17527960240840912,0.24631141126155853,-0.08861631900072098,0.5477054119110107,-0.14153733849525452,-1.5108938217163086,-0.870377779006958,0.48531612753868103,-0.2486654669046402,0.18184085190296173,-0.14755648374557495,0.9511898756027222,0.325725257396698,0.35992100834846497,0.23564332723617554,-0.016236931085586548,-0.27856650948524475,0.2657448351383209,-0.4131503105163574,-0.19104737043380737,0.9656251668930054,-0.271168977022171,-0.15032190084457397,0.22964361310005188,0.17384928464889526,-0.6344240307807922,0.6481175422668457,-1.1051609516143799,0.14091593027114868,1.0744205713272095,0.32366979122161865,-0.5126448273658752,0.8353970646858215,0.9571511149406433,-1.3347868919372559,-0.08648422360420227,-0.24416770040988922,0.8829662203788757,0.7803235650062561,0.6393204927444458,-1.8500219583511353,1.377852439880371,-0.16730274260044098,-0.09526824206113815,0.00853811390697956,-0.07909471541643143,0.05307747423648834,0.496814101934433,0.753119945526123,0.04804396256804466,0.20537079870700836,0.2837028205394745,0.19646382331848145,0.2538180649280548,-0.33630555868148804,-0.607485294342041,0.4742661416530609,0.011056791990995407,-0.3055835962295532,-0.7524607181549072,-0.3003983795642853,-0.22284364700317383,-0.6026097536087036,-1.3878389596939087,-1.286666750907898,0.13875886797904968,-1.6405948400497437,-0.1990620195865631,0.3837800920009613,0.37511512637138367,-0.6674157381057739,0.23346620798110962,-0.7256007790565491,-0.3149270713329315,-0.20370171964168549,0.34215405583381653,1.200158715248108,-0.7626747488975525,-0.026269232854247093,-0.4159114360809326,0.0569167360663414,0.099642813205719,0.5654943585395813,0.6279780864715576,0.04178667813539505,-1.7870031595230103,-1.6973447799682617,0.9708378314971924,0.32266417145729065,0.44396162033081055,0.9701868295669556,0.5863421559333801,0.11977849155664444,0.6957637071609497,-0.18046486377716064,-0.7260511517524719,0.5299558043479919,0.5979635119438171,-0.5480661988258362,-0.7611289024353027,-0.5753616690635681,-0.7908864617347717,-0.18260106444358826,0.010888035409152508,-0.8060256242752075,-0.19957518577575684,-0.31460219621658325,0.021628083661198616,-0.20377908647060394,0.26993635296821594,-0.039363548159599304,0.5987673401832581],[0.007537025026977062,0.059131305664777756,0.02320871874690056,0.041147779673337936,0.028072386980056763,0.05679125711321831,-0.011968225240707397,-0.03714174032211304,0.03711368888616562,-0.05332525819540024,-0.08326715230941772,-0.04575584456324577,-0.07519634068012238,-0.05558662861585617,-0.01663186214864254,0.0034605017863214016,-0.03662946820259094,-0.02514171600341797,0.045847974717617035,-0.01020871102809906,0.029160231351852417,-0.05756175518035889,-0.08179239928722382,-0.05829153582453728,0.0036938327830284834,0.032413315027952194,0.025412529706954956,-0.011421124450862408,0.06411602348089218,-0.06741973757743835,-0.054117292165756226,-0.03333479166030884,0.041888248175382614,-0.03344288468360901,0.011133313179016113,-0.08303742855787277,-0.018153440207242966,0.07111527770757675,-0.01834810897707939,-0.07157428562641144,0.031538646668195724,-0.05638645216822624,0.01982988975942135,-0.033961109817028046,0.07609184086322784,-0.0386616513133049,-0.012449970468878746,-0.00987677276134491,0.01762198470532894,-0.019418269395828247,0.06300943344831467,0.022278090938925743,0.014155283570289612,-0.011365016922354698,-0.0021968844812363386,-2.3902666725916788e-05,0.049511365592479706,-0.082757368683815,-0.015187527053058147,-0.002340909093618393,-0.0023872717283666134,0.05819692462682724,-0.016385963186621666,0.012936711311340332,0.03220784664154053,0.06373806297779083,0.005098534282296896,-0.03252336382865906,0.056262701749801636,0.019736897200345993,0.07755099982023239,-0.07881477475166321,-0.038434356451034546,-0.07509288191795349,0.022737225517630577,-0.05990772694349289,0.042263638228178024,-0.07906907796859741,0.002769455313682556,-0.023209473118185997,-0.06576427072286606,-0.02789677307009697,-0.026968657970428467,-0.05754011869430542,-0.02326272986829281,-0.037068020552396774,-0.0008931541815400124,-0.0740615651011467,0.03823510929942131,-0.015374775044620037,0.05286040157079697,-0.07860817760229111,-0.02032439038157463,0.05923803895711899,-0.050325892865657806,0.07830800116062164,-0.026572367176413536,-0.018884282559156418,0.013116697780787945,-0.06499193608760834,-0.07263478636741638,0.021573275327682495,0.016932031139731407,0.03721514344215393,-0.057141028344631195,-0.06351818144321442,-0.0594416968524456,-0.0822741836309433,0.029719233512878418,-0.05941380187869072,-0.06682822108268738,-0.005379272159188986,-0.05630369111895561,0.017143290489912033,0.07230113446712494,-0.07340850681066513,0.00032392595312558115,0.0030505310278385878,-0.016031473875045776,0.0463007315993309,0.028183341026306152,-0.011351059190928936,-0.042912743985652924,-0.008543288335204124,-0.034808240830898285,0.046146463602781296,-0.030678600072860718,0.05026882886886597,0.07991337776184082,-0.02365274354815483,0.008267924189567566,0.02806411311030388,-0.08132533729076385,-0.05692592263221741,0.05597057193517685,0.03452447056770325,0.08070075511932373,0.049057286232709885,0.07147081941366196,-0.03282275050878525,-0.04600202292203903,-0.053467802703380585,-0.06947866082191467,-0.02191241644322872],[-0.21307680010795593,0.04201353341341019,0.11140424758195877,0.08845067769289017,0.03328663110733032,0.4797469675540924,0.3033236861228943,0.04778334125876427,-0.5238301753997803,0.07183314859867096,-0.3028044104576111,0.53610759973526,-0.24268116056919098,0.36627206206321716,-0.3252328634262085,0.2689456343650818,0.22458219528198242,0.8520824313163757,0.03374413028359413,-0.4908731281757355,0.7173976898193359,-0.4741086959838867,0.8234726190567017,0.7257683873176575,0.10238861292600632,0.07657957077026367,0.3155580461025238,-0.10513176769018173,0.0481005497276783,-0.5583169460296631,0.13908101618289948,0.7784839272499084,-0.5154222249984741,-0.08589307963848114,-0.3340754508972168,-0.3616446852684021,-0.2944103479385376,1.1525030136108398,-1.018487572669983,-0.859647274017334,1.1306674480438232,0.5480271577835083,0.23914828896522522,0.3053091764450073,-0.7552375793457031,0.11601563543081284,-0.5813102722167969,0.5147178769111633,-0.01999525912106037,1.020538091659546,0.3211633563041687,0.41342777013778687,-0.8886716961860657,-1.407952904701233,0.39364707469940186,-1.247725009918213,-0.005422802641987801,-0.014651650562882423,-0.8943071365356445,1.0503169298171997,-0.8260700702667236,-0.17148303985595703,0.6028962135314941,0.007440842688083649,-0.5402358174324036,0.07736822217702866,0.4141753613948822,0.7509225606918335,-0.5427514910697937,0.3972064256668091,0.715053915977478,-0.6141613721847534,-0.07465233653783798,0.31336504220962524,0.4983917772769928,0.5526666045188904,0.2879054844379425,0.32447096705436707,-0.21978460252285004,0.29038986563682556,-0.14494040608406067,-0.7603116631507874,0.41825446486473083,0.37616053223609924,0.40693774819374084,0.2754679322242737,-1.2511804103851318,0.9721781015396118,0.6418650150299072,-0.15475735068321228,-0.704552412033081,-1.05818772315979,-0.8547720313072205,-0.6910058856010437,-0.19076544046401978,-0.4967551827430725,-0.4708435535430908,0.48448050022125244,0.9280118942260742,-0.5095922350883484,-0.6411842107772827,-0.607607364654541,0.671263575553894,0.9187571406364441,0.5834704637527466,0.6436925530433655,0.5540139675140381,-0.5681378245353699,-1.39247727394104,-1.7365273237228394,-0.1339297741651535,-0.24160905182361603,0.24508458375930786,0.1634012907743454,-0.1326519101858139,-0.10135140269994736,-0.22969533503055573,-0.30034905672073364,-0.3289613425731659,-0.033410873264074326,0.17809072136878967,0.24220505356788635,-0.924493134021759,-0.6743128299713135,0.2886321544647217,1.3673559427261353,-0.05747448652982712,1.053930640220642,-0.10090088099241257,-0.2937730848789215,0.6337068676948547,-1.2198238372802734,-0.45385101437568665,-0.1860496997833252,0.4353932738304138,0.5120489001274109,0.9314430356025696,0.08339425921440125,0.2567204535007477,1.2050127983093262,0.17686139047145844,0.25487443804740906,0.2889903485774994,0.9627569913864136],[-0.050469134002923965,0.25268110632896423,0.06040870025753975,-0.1372789591550827,0.11548977345228195,0.17217041552066803,0.16542929410934448,-0.9831076264381409,1.3728656768798828,-0.4096854627132416,0.9598477482795715,-1.288754940032959,1.0131655931472778,0.27719846367836,0.4925784170627594,0.5378376245498657,0.5327526330947876,0.2610246539115906,-0.12063737958669662,-0.6975638270378113,0.4508547782897949,-0.19710537791252136,0.1449975073337555,-0.07347354292869568,-0.03140890598297119,0.14128221571445465,-0.5218738317489624,0.2577700614929199,0.4711025357246399,-0.981873631477356,0.12993845343589783,-0.6846223473548889,0.42181941866874695,0.37902161478996277,-0.13794954121112823,0.5142475962638855,0.26201146841049194,-0.7715319395065308,1.430383563041687,0.40321284532546997,-1.0190260410308838,-0.45680564641952515,-0.16726118326187134,0.10241793096065521,1.5364501476287842,-0.542728066444397,0.8061337471008301,0.2841183841228485,0.048099763691425323,-0.9973049163818359,-1.0525130033493042,-0.5225937366485596,0.2928194999694824,1.1990526914596558,0.3366134762763977,0.5065662264823914,-0.24784225225448608,-0.4916349947452545,-0.647601842880249,-1.1822848320007324,0.3490012288093567,-0.010595250874757767,-0.3855951726436615,1.307614803314209,0.0038097393698990345,1.7111543416976929,-0.1434268206357956,-0.6632023453712463,-0.9347582459449768,1.948203682899475,-0.2183559089899063,-0.4105832874774933,0.6800494194030762,-0.12149807065725327,0.022012358531355858,-0.03209233283996582,0.3162154257297516,0.2967054545879364,-1.3037370443344116,-0.6599880456924438,0.3242219090461731,1.7068480253219604,0.9598075151443481,0.9873659610748291,0.9219236373901367,0.9462413787841797,0.2912328839302063,0.028959179297089577,-0.31682223081588745,0.2931864559650421,-1.6626514196395874,1.072187900543213,0.14535361528396606,0.014262013137340546,-0.2421027272939682,-0.0028122018557041883,0.07417469471693039,-0.29174119234085083,-1.1628825664520264,-1.3056813478469849,-0.6937680244445801,-0.6198711395263672,-0.535606324672699,0.28682374954223633,-1.0346744060516357,0.01890472322702408,0.14506135880947113,-0.053018033504486084,-0.21360957622528076,0.868125855922699,1.33466637134552,1.0738732814788818,-0.7940372824668884,-0.7763456702232361,0.25823554396629333,0.3271636962890625,1.091188669204712,-1.5897284746170044,-1.6599321365356445,-0.1913922131061554,0.2269846498966217,0.12816427648067474,-0.2706787586212158,1.213606595993042,1.523932695388794,-0.024391034618020058,0.9809252619743347,-0.22734218835830688,-0.19876359403133392,0.7330981492996216,1.0234004259109497,0.9941504597663879,0.33822616934776306,-1.443230390548706,0.7989487648010254,0.2033093273639679,-0.03888943791389465,-0.25156015157699585,-0.35241127014160156,1.0868855714797974,-0.19143471121788025,-0.04710362106561661,-0.1625107228755951,0.9413480758666992],[0.09116537868976593,0.1830364465713501,0.3541954457759857,0.03167843073606491,0.2506787180900574,-0.14529915153980255,0.2538677155971527,0.9149715900421143,-0.060467422008514404,0.11207398772239685,-1.097037672996521,0.33992838859558105,-0.3646773397922516,0.018570560961961746,0.30909234285354614,0.36662769317626953,0.3672589957714081,-0.9092243909835815,-0.3249836266040802,1.357873558998108,0.4520004093647003,0.18064190447330475,-0.6159189939498901,-0.25464534759521484,-0.20439934730529785,0.1475415825843811,0.3602994978427887,0.25249311327934265,0.25991788506507874,0.4459690749645233,0.2261091023683548,0.9640066623687744,-0.5637144446372986,-0.23678156733512878,-0.18695701658725739,-0.19166676700115204,-0.07109619677066803,-1.0815068483352661,-0.21460960805416107,-0.02004818245768547,0.07406874001026154,0.1507323533296585,0.2246486246585846,0.025179853662848473,-0.9503581523895264,-0.07313545048236847,0.36933326721191406,0.07241471856832504,-0.506304919719696,1.233078956604004,0.09985509514808655,-0.08772337436676025,-1.2700591087341309,1.4687107801437378,0.16148895025253296,0.8012460470199585,-0.05796951428055763,1.1107276678085327,0.9556756615638733,0.3530356287956238,-0.3057748079299927,-2.1036221981048584,-0.30232688784599304,0.89910489320755,0.05983751267194748,0.842881441116333,0.557694137096405,0.4679540693759918,0.8118914365768433,-0.8275200724601746,1.1700479984283447,0.24105598032474518,-0.2243969738483429,1.008052945137024,-0.10757152736186981,0.03678028658032417,-0.5232581496238708,-0.6071985363960266,-0.41315028071403503,-0.17593367397785187,-1.5501999855041504,0.3530224859714508,0.18499931693077087,0.2675122618675232,0.3121250867843628,0.28115642070770264,-0.9628563523292542,-1.2335724830627441,1.0239472389221191,0.07520273327827454,1.4580022096633911,-0.2628737688064575,-0.05563124641776085,-0.19715207815170288,0.8014146685600281,0.4132802486419678,0.5123392939567566,0.05414298176765442,-0.18163129687309265,0.6807639002799988,-0.028550494462251663,-0.12393785268068314,-0.26856788992881775,-1.5003143548965454,0.042788319289684296,0.1547928899526596,0.01192172896116972,-0.6317505836486816,0.4629666209220886,0.20817823708057404,-1.5742892026901245,0.25727882981300354,-0.6112126708030701,-0.6040628552436829,-0.7941672205924988,-0.7518833875656128,-0.8551267385482788,0.45802420377731323,0.5265250205993652,1.2018812894821167,-0.15582852065563202,-0.25167226791381836,-0.5113765597343445,-0.08084984868764877,-0.3672497272491455,-0.031021753326058388,0.1858982890844345,0.5499244928359985,0.6324431896209717,-1.965676188468933,-0.6532539129257202,0.8631874322891235,-1.7539525032043457,0.7967879772186279,-0.712090253829956,-0.18836696445941925,-0.928965151309967,0.040303006768226624,-0.32599472999572754,-1.0208334922790527,0.004507887177169323,-0.010176761075854301,0.1435951441526413,-0.06263383477926254],[0.25713029503822327,0.20485973358154297,0.04964703321456909,0.1677452176809311,0.09612910449504852,0.12710443139076233,0.2413828819990158,0.19796009361743927,-0.14176608622074127,0.16090542078018188,0.33088427782058716,0.2964268624782562,-0.05950460955500603,-0.17268504202365875,0.035044535994529724,-0.0106764305382967,-0.07772435247898102,0.04545806720852852,-0.20640461146831512,0.2683960795402527,-0.27443933486938477,-0.25349894165992737,-0.4065098762512207,0.09832889586687088,0.18179522454738617,0.1354551762342453,-0.11376389861106873,-0.10785972326993942,-0.17784452438354492,0.1361488401889801,0.16600628197193146,-0.5278435349464417,0.17955826222896576,-0.36309120059013367,0.7935476899147034,0.2534928023815155,0.36045873165130615,0.41126778721809387,0.10141520202159882,0.10330598056316376,-0.1559545397758484,-0.3569446802139282,0.07375052571296692,0.167161226272583,-0.02509959600865841,0.2953265905380249,0.305528461933136,0.8987518548965454,0.2914658784866333,-0.4442652463912964,0.004461627919226885,-0.1684749722480774,-0.018776485696434975,-0.7472288012504578,-0.022688090801239014,0.051278255879879,-0.1567768156528473,-0.6527128219604492,-0.5974271893501282,-0.13206972181797028,0.37702676653862,0.6037877798080444,0.1998322606086731,0.20652532577514648,-0.7576447129249573,-0.5601598620414734,0.44282102584838867,0.2095734030008316,1.0245742797851562,0.5805758237838745,0.20376023650169373,0.2868969440460205,-0.21723324060440063,0.14395055174827576,-0.4770744740962982,-0.43723174929618835,0.2557903230190277,0.2900247871875763,0.3234368860721588,-0.2834435999393463,0.2705572843551636,0.19818173348903656,-0.4214906394481659,-0.3937363922595978,-0.3986233174800873,-0.3587145507335663,0.5321453213691711,0.7895713448524475,0.04798894375562668,0.04515133053064346,0.15959887206554413,0.3936414420604706,0.02484244853258133,0.03304300084710121,-0.5492525696754456,0.2933720052242279,0.23704124987125397,0.3447306156158447,0.49142900109291077,0.952765941619873,0.30500754714012146,0.3324415683746338,-0.06465759128332138,0.1510930061340332,0.42051151394844055,-0.039646971970796585,-0.014561670832335949,0.012533517554402351,0.9703599214553833,0.35597512125968933,-0.17982922494411469,0.3282322287559509,-0.6984797716140747,-0.596796989440918,-0.14212334156036377,-0.2126084864139557,-0.5236969590187073,-0.04884938523173332,-0.06574392318725586,-0.371661901473999,0.23603455722332,0.3169137239456177,-0.3722642958164215,-0.5111189484596252,-0.041731398552656174,-0.005048029590398073,0.19330255687236786,1.095660924911499,-0.2995014786720276,-0.043423429131507874,-0.9335301518440247,0.7319169640541077,0.5804595947265625,-0.0930245891213417,-0.2855049967765808,0.4868595004081726,-0.9407771229743958,-0.4541483223438263,0.3811180889606476,-0.24615086615085602,0.5742279887199402,0.08289612829685211,0.11989597976207733,-0.21286369860172272],[0.14731183648109436,0.13348457217216492,-0.11304636299610138,0.20304417610168457,0.007326432503759861,0.35916808247566223,0.3374708294868469,-0.4461861848831177,-0.5009064078330994,-0.14448140561580658,0.4389600455760956,0.5697078704833984,0.8144000172615051,0.7088379859924316,0.6453571319580078,0.15680916607379913,0.18638774752616882,-0.18022723495960236,-0.342353880405426,-0.10373964160680771,0.43628519773483276,-0.2523921728134155,0.023901496082544327,0.7267746925354004,0.49955645203590393,0.3205203711986542,-0.548845648765564,0.21334262192249298,-0.27695050835609436,0.35608160495758057,0.4000435173511505,0.3494018316268921,0.03398686274886131,0.2650005519390106,-0.46040037274360657,-0.1296038180589676,0.4128544330596924,-0.44485825300216675,-0.7749260663986206,0.25176259875297546,1.0832170248031616,-0.5768906474113464,0.11100070178508759,0.3305490016937256,-0.980107843875885,-0.3056448698043823,-0.16694492101669312,-0.7181506156921387,0.29970407485961914,-0.20057108998298645,-1.2391422986984253,0.12492237240076065,0.08525228500366211,-0.40349438786506653,0.02046387642621994,0.3186972141265869,0.3623311519622803,0.4086039364337921,-0.025763416662812233,0.19632147252559662,0.7051712274551392,-0.041315484791994095,-0.07764774560928345,-0.7676510810852051,-0.4396589994430542,0.12184393405914307,0.7544156312942505,-0.6234074831008911,0.598247766494751,-0.7184867858886719,-0.534081757068634,-0.5291284322738647,0.4900142252445221,-0.49636170268058777,0.5707434415817261,0.5238262414932251,0.3742258846759796,0.36426427960395813,0.5558825135231018,0.9274700880050659,-0.2924289107322693,-0.27141234278678894,0.3672070801258087,0.41902080178260803,0.4637995958328247,0.43999290466308594,-0.9596342444419861,-1.4664512872695923,0.2711624801158905,0.4236862361431122,0.622699499130249,-1.5353258848190308,1.1755385398864746,1.0646696090698242,0.1443127691745758,-0.10849067568778992,-0.0284400824457407,0.41490885615348816,0.7301240563392639,-0.3411118984222412,-0.0757925808429718,-0.0970463976264,-1.1194987297058105,0.7164098024368286,-0.24720869958400726,0.37308889627456665,0.3932667076587677,-1.1684247255325317,-0.6416242122650146,-0.4440612494945526,0.892434298992157,-0.751380205154419,-0.621627688407898,-0.6574653387069702,-1.4106565713882446,-1.436762809753418,0.10819759219884872,0.8093058466911316,0.8120765089988708,-0.6762990355491638,-0.22867906093597412,-0.28098225593566895,-0.04651985317468643,-0.09093647450208664,0.21420997381210327,-0.24877265095710754,0.3904198110103607,-1.7325613498687744,0.831473171710968,-1.8434720039367676,1.165763258934021,-0.6391395926475525,0.45508521795272827,0.7649412751197815,0.26422879099845886,-0.790625810623169,-0.4340285062789917,0.3819897472858429,0.32624000310897827,0.7917640209197998,0.0568295456469059,0.024859346449375153,0.22583913803100586,-0.06293145567178726],[0.011702275834977627,-0.0019202232360839844,0.324759304523468,0.04125695675611496,0.08398353308439255,0.8961204886436462,-0.060742367058992386,-0.095533087849617,0.19985441863536835,0.21192336082458496,0.12940533459186554,0.42182716727256775,-0.06786027550697327,0.1760014444589615,-0.020517565310001373,-0.5405787825584412,-0.46582311391830444,-0.2558632493019104,0.22028206288814545,-0.2272515743970871,-0.6521828174591064,-0.07414019852876663,-0.4346249997615814,0.10169849544763565,0.1286550611257553,-0.4202747344970703,1.0643854141235352,0.14407166838645935,-0.34824615716934204,-0.27201926708221436,-0.39291679859161377,-0.6138823628425598,0.15847744047641754,0.4052670896053314,0.5458115339279175,0.24662846326828003,0.05412081629037857,-0.5092954039573669,0.10109379142522812,0.2544051706790924,0.3140932321548462,0.22411637008190155,-0.48035573959350586,-0.9120530486106873,0.05905099958181381,0.7019850611686707,0.43176722526550293,0.673812985420227,-0.45024749636650085,0.13049685955047607,0.2407073676586151,0.17181846499443054,-0.22133441269397736,-1.7954045534133911,0.18915894627571106,-0.5981184244155884,-0.06703545898199081,0.8416740298271179,0.43015456199645996,-0.058979351073503494,0.4257083237171173,0.2738402187824249,0.7551197409629822,0.325146347284317,-0.8412015438079834,0.46774551272392273,-0.3765738010406494,0.026786768808960915,-0.7214931845664978,-1.6358752250671387,-2.5500528812408447,-0.5453439354896545,-0.9531620144844055,0.2992512881755829,-0.02847917191684246,0.11909863352775574,-0.2014024704694748,-0.2530376613140106,-0.06656462699174881,0.4617401659488678,-0.12938439846038818,-0.14265862107276917,0.9160777926445007,0.9821917414665222,0.861143171787262,0.9270427823066711,0.6832842826843262,0.7995071411132812,0.9904739856719971,0.05366780236363411,-1.3177704811096191,-0.03352990373969078,-0.5197476744651794,-0.5786905288696289,0.6734235286712646,-0.1537199318408966,-0.15510907769203186,-0.4399184286594391,0.514191746711731,0.030713701620697975,0.32235944271087646,0.3277365565299988,0.48255282640457153,-0.7427800297737122,-0.82694411277771,-0.3509364724159241,-0.34901151061058044,0.47692230343818665,-1.0645744800567627,0.01961696147918701,0.38504183292388916,-0.3359144926071167,0.7163711190223694,0.6230162978172302,0.3873791992664337,0.275769978761673,0.33970147371292114,0.1712009608745575,0.11113321781158447,0.5435823798179626,0.008802294731140137,-0.11321703344583511,-0.02729864791035652,-0.9428016543388367,-1.0051783323287964,0.7970110774040222,-1.4639984369277954,0.7180337309837341,0.1297713667154312,0.32948681712150574,0.9803217053413391,-1.8752331733703613,-0.732560396194458,-0.3149643540382385,-0.389093279838562,0.6438998579978943,1.1460305452346802,-0.583361029624939,-0.10684985667467117,0.13977783918380737,0.6128005385398865,0.35491859912872314,-0.012404322624206543,-0.3307350277900696],[0.049091845750808716,0.09246161580085754,-0.32890528440475464,-0.08613166213035583,-0.11336228996515274,-0.5669873356819153,-0.3459737300872803,0.37615761160850525,1.2096078395843506,-0.47857680916786194,0.6475030779838562,-0.90028315782547,0.733274519443512,-0.18631196022033691,0.524474024772644,-0.056443952023983,-0.1381748765707016,-0.22719651460647583,0.033049676567316055,0.2882886528968811,-0.3348328471183777,0.22413262724876404,0.7499358057975769,0.336673378944397,0.3352070450782776,0.07598499208688736,-0.0011925967410206795,0.08751383423805237,0.061554159969091415,-0.10131958872079849,0.17490315437316895,-0.37190791964530945,1.009181022644043,0.3169077932834625,0.15360312163829803,0.2455229014158249,0.7961605191230774,1.0232781171798706,0.660973310470581,0.7353470325469971,-0.21394936740398407,0.013831249438226223,0.12457907944917679,0.3125537633895874,-0.0022991597652435303,-0.2103944569826126,-0.5315771698951721,0.4362810254096985,0.6350250840187073,-1.226688265800476,0.2598905563354492,-0.11764143407344818,1.4869662523269653,0.16077782213687897,0.2154453843832016,-0.9086861610412598,0.24545781314373016,-0.18290694057941437,-0.009913858957588673,0.6070960164070129,-0.2005917727947235,-0.6127896308898926,-0.2670590281486511,-0.3453500270843506,-0.5207114219665527,-0.7010362148284912,-0.6702989935874939,-1.223724603652954,0.21082636713981628,-1.4453165531158447,-1.4031926393508911,0.10237981379032135,0.18886178731918335,-1.2865939140319824,0.34451550245285034,0.43197426199913025,0.12966930866241455,0.038148216903209686,-1.4477609395980835,0.527712881565094,-1.7332110404968262,0.7567631006240845,-0.023114096373319626,0.0307754036039114,0.07090175896883011,0.027282187715172768,0.20267198979854584,1.5553579330444336,1.3528268337249756,-0.05356679484248161,-0.623581051826477,-0.610802173614502,-0.4549057185649872,-0.4735261797904968,0.1817634254693985,-0.2684102952480316,-0.36590108275413513,1.0573008060455322,-0.46611103415489197,-0.8087901473045349,-0.08719762414693832,-0.1666824370622635,-1.5244042873382568,-0.01666334457695484,-0.20826923847198486,0.8779661655426025,0.8083532452583313,-1.5564794540405273,-1.313075304031372,1.2902823686599731,-1.3181736469268799,0.5100885033607483,0.08264409005641937,0.16068439185619354,0.45154571533203125,0.5085500478744507,0.039793964475393295,0.453767865896225,0.37484267354011536,-0.1339285522699356,-0.2603120803833008,-0.19309571385383606,0.3962118923664093,1.2138636112213135,1.223974347114563,-0.8098938465118408,-0.08805444836616516,2.233790397644043,0.7589930295944214,-0.30909526348114014,-0.3798360228538513,-1.3078653812408447,-0.7280845642089844,0.7229504585266113,1.3995099067687988,0.5817033648490906,-0.8272852897644043,-0.04538394883275032,0.31188806891441345,1.433490514755249,-1.1637784242630005,0.2319415807723999,-0.04263177141547203,0.48090189695358276],[0.061401013284921646,0.032535769045352936,0.005212103947997093,0.3564298450946808,-0.03144830837845802,-0.008122101426124573,-0.22709113359451294,-0.46885111927986145,-0.9484947919845581,0.14995059370994568,0.7223284840583801,0.7197244763374329,0.6335390210151672,-0.07046375423669815,0.213018536567688,-0.2716889977455139,-0.18768088519573212,-0.005084706470370293,0.19043897092342377,-0.054474472999572754,-0.20749804377555847,0.2366996854543686,0.45378121733665466,0.42530131340026855,0.3070930540561676,0.04803165793418884,-0.31052708625793457,-1.0905593633651733,0.5696803331375122,-0.9347555637359619,-0.7210640907287598,-0.33399102091789246,0.270336776971817,0.12564213573932648,0.4525128901004791,0.7348772287368774,1.2559844255447388,0.40041419863700867,-0.13484522700309753,0.2802022099494934,0.028473397716879845,0.20313481986522675,0.29576483368873596,0.3651914596557617,-0.5299863219261169,-0.016073619946837425,-0.29402831196784973,0.7797644138336182,0.6747208833694458,-1.0963187217712402,-0.1809139847755432,0.061762988567352295,-0.13896219432353973,0.7588764429092407,-1.0661736726760864,-0.9411848187446594,-0.2633640170097351,0.13634826242923737,-0.5010014772415161,0.5470372438430786,0.12431257218122482,-1.5579783916473389,-0.6026690006256104,1.2161093950271606,-0.5675454139709473,0.25943952798843384,-0.6904343962669373,0.2924896776676178,-1.8512709140777588,0.3854193389415741,1.2014964818954468,0.43530288338661194,0.8555052876472473,0.7009918689727783,-0.041956111788749695,-0.03505029156804085,0.22812847793102264,0.241110697388649,1.1295051574707031,0.86909419298172,0.5530453324317932,1.3434057235717773,-0.19986335933208466,-0.10881763696670532,-0.21765655279159546,-0.08847929537296295,0.6304160356521606,-0.16708754003047943,0.7794455289840698,0.5456307530403137,-0.9063878059387207,-1.0347635746002197,-0.5042202472686768,-0.4489757716655731,0.41823461651802063,0.9520379900932312,0.8975873589515686,0.5478138327598572,-1.4089704751968384,-0.8192090392112732,-0.49000298976898193,-0.4515421986579895,0.4618370831012726,0.1370231956243515,0.07691559940576553,0.44439929723739624,0.49364548921585083,0.9751203656196594,0.9426555037498474,0.02004181779921055,0.5453721284866333,-1.3684505224227905,0.2647314965724945,0.26507580280303955,0.17901259660720825,0.26340579986572266,0.21812915802001953,-0.302000492811203,-0.32246944308280945,0.15768814086914062,-0.21897955238819122,-0.2392348349094391,-1.3706607818603516,-1.2970004081726074,0.19248159229755402,-0.40919509530067444,1.2886816263198853,1.8613066673278809,0.6935781836509705,-0.08695495128631592,1.3157134056091309,-0.3692159056663513,0.8644357919692993,0.5617351531982422,0.9157469868659973,-0.0800539180636406,0.5708317756652832,-0.11348969489336014,0.4003370404243469,1.1240675449371338,0.059002894908189774,0.12344137579202652,0.08541342616081238,0.035114649683237076],[-0.08564545214176178,0.2249024212360382,0.07699725776910782,0.2757790684700012,0.1004851758480072,-0.20998653769493103,-0.3577422499656677,0.40326663851737976,0.676144540309906,-0.25144389271736145,0.4298093020915985,-0.07451701909303665,-0.19824253022670746,-0.41201844811439514,-0.4664347767829895,0.3055444061756134,0.21759766340255737,0.023281831294298172,0.4987325072288513,-0.6745478510856628,0.4788488447666168,0.25748300552368164,-1.2592676877975464,-0.6358665227890015,-0.027037428691983223,0.22067926824092865,0.3749692738056183,-0.13866838812828064,-0.20656126737594604,0.3177658021450043,0.22051875293254852,-0.3987290859222412,0.022180575877428055,0.4397849440574646,0.8114253282546997,0.4715268313884735,0.36790207028388977,1.081567645072937,1.0350593328475952,0.5657159090042114,0.44690144062042236,-0.04501377046108246,0.011985587887465954,-0.46193021535873413,